#pragma once
#include "parameters.h"

float dense_out_weights[DENSE_SIZE_2][DIGITS]
= {
	{-0.01173, 0.348085, -0.047546, 0.157167, -0.254493, -0.541123, -0.245017, 0.084949, 0.233786, -0.363712},
	{-0.648145, 0.361625, -0.438555, -0.425935, 0.357449, -0.364526, -0.300852, 0.282722, -0.382695, -0.424283},
	{-0.31891, -0.105889, -0.2341, -0.475094, 0.197635, -0.165407, 0.40416, 0.199361, 0.410526, 0.401126},
	{-0.499182, 0.395091, 0.109172, 0.215442, -0.342643, -0.084992, -0.13148, 0.044659, -0.448893, -0.415771},
	{0.134145, -0.228999, -0.003789, -0.084342, -0.553197, -0.34569, -0.074809, 0.374124, -0.242979, -0.46643},
	{0.154666, -0.516207, 0.002256, -0.252092, 0.627026, -0.432291, 0.115428, -0.279833, -0.058066, -0.112278},
	{-0.422349, -0.259883, -0.152291, -0.234789, 0.435295, -0.514926, -0.455741, -0.075849, 0.360918, 0.034205},
	{0.244161, -0.36591, 0.490018, -0.09855, 0.120527, -0.399909, 0.043693, 0.028619, -0.299155, -0.037613},
	{0.090452, -0.214443, -0.051857, 0.324119, 0.141129, -0.225462, -0.209711, -0.217373, 0.072209, -0.334089},
	{0.505057, -0.250319, 0.268467, 0.133025, 0.037134, 0.021059, 0.2632, 0.305591, -0.210575, -0.015015},
	{0.636118, 0.239253, -0.284724, -0.55311, -0.280452, 0.142315, 0.184419, 0.053456, -0.06942, -0.290163},
	{-0.003677, -0.017156, 0.31167, 0.310596, -0.02695, 0.357506, -0.485174, 0.462824, 0.269026, -0.146458},
	{-0.193924, 0.618836, -0.208662, -0.025872, 0.194424, 0.074531, -0.225681, -0.313038, 0.075846, 0.318947},
	{-0.331494, 0.229782, 0.122114, -0.1722, -0.112162, 0.082852, 0.267509, 0.40543, -0.316584, 0.326708},
	{0.566396, -0.366603, -0.266278, 0.037369, -0.310326, -0.042506, -0.14952, -0.601854, 0.173748, -0.374567},
	{-0.147173, 0.291715, 0.383564, 0.175416, -0.396918, -0.39885, 0.121115, 0.038598, 0.372866, -0.297722},
	{-0.160342, -0.161109, -0.396951, 0.215382, -0.703285, 0.2014, -0.568864, -0.2596, -0.200203, 0.499057},
	{-0.137708, -0.583803, 0.003141, 0.524991, 0.246386, -0.102929, -0.097128, -0.076222, -0.251198, 0.412408},
	{0.080142, 0.556773, 0.036803, -0.443825, 0.268598, -0.209745, 0.06148, -0.296586, -0.336343, -0.098334},
	{-0.458606, -0.415569, -0.140968, 0.198288, -0.599228, -0.367586, -0.768744, 0.444603, 0.094368, -0.074575},
	{-0.100049, -0.305888, 0.000439, -0.165526, 0.142554, 0.335496, -0.183814, -0.047773, 0.297257, 0.553627},
	{-0.33646, 0.186043, 0.52519, -0.249975, 0.131674, -0.182902, 0.444237, 0.109724, -0.018378, -0.173562},
	{0.253016, 0.010194, -0.062627, -0.318523, 0.075902, 0.26819, 0.219272, -0.321136, 0.205183, -0.271657},
	{0.351533, -0.362153, -0.175903, -0.153496, -0.201834, -0.196539, -0.05722, -0.584504, 0.286332, 0.458209},
	{-0.351935, -0.343859, -0.249684, -0.255735, -0.186036, 0.42118, 0.41705, -0.607026, 0.052098, -0.44235},
	{0.358304, -0.612602, -0.477633, -0.128347, -0.509485, 0.517432, 0.352051, 0.067184, -0.283668, -0.140061},
	{-0.200941, 0.388935, -0.2692, 0.47237, 0.351453, 0.353184, 0.328594, 0.110974, -0.250715, -0.071452},
	{-0.470274, -0.355609, 0.303862, 0.328682, -0.181416, 0.45336, -0.399723, -0.181205, 0.305883, -0.157353},
	{0.380193, -0.3155, -0.031098, -0.379592, 0.064022, -0.06286, -0.313934, 0.459328, -0.014902, 0.344188},
	{0.316652, -0.335278, 0.465557, -0.076074, 0.044422, 0.024335, -0.168157, -0.171808, -0.423807, -0.300909}
};
float dense_out_bias [DIGITS] = {0.116251, 0.302101, -0.250042, -0.040351, -0.019077, 0.004083, -0.120716, -0.211607, 0.081441, 0.133857};
