// Conv layer weights.
float conv_weights [FILTERS][KRN_ROWS][KRN_COLS]
	= {
			{
				{ 1.709442138671875, 0.3138673007488251, -1.9230841398239136 },
				{ 1.2075611352920532, 0.44393742084503174, -1.5051921606063843 },
				{ 1.1684070825576782, -1.5234354734420776, -1.5589395761489868 }
			},
			{
				{ -1.5859280824661255, 1.3707867860794067, 0.09254737198352814 },
				{ 0.3432158827781677, 1.089579463005066, -0.1422305554151535 },
				{ 0.5783417820930481, -0.3381631076335907, -1.2532908916473389 }
			},
			{
				{ -0.5751961469650269, -0.6319620609283447, -0.39352402091026306 },
				{ -0.002335071563720703, -0.21257662773132324, -0.4865994453430176 },
				{ -0.3301909267902374, -0.41936811804771423, -0.3216454088687897 }
			},
			{
				{ -0.8305962085723877, -1.1295592784881592, -0.3938956558704376 },
				{ -0.6150000691413879, 1.0286579132080078, 1.421759009361267 },
				{ 0.481084406375885, 0.5842860341072083, -0.9343242645263672 }
			},
			{
				{ -2.061933994293213, -1.1755354404449463, -0.6188812255859375 },
				{ -0.48181530833244324, -0.47135400772094727, -1.5024147033691406 },
				{ 2.146299362182617, 1.091795802116394, -0.010161380283534527 }
			},
			{
				{ 0.49612608551979065, -0.9359546303749084, 0.31855595111846924 },
				{ 0.9737247228622437, 1.0233619213104248, -0.15073075890541077 },
				{ 0.26876944303512573, 0.06933947652578354, 0.5913394093513489 }
			},
			{
				{ 0.6577640771865845, -1.52479887008667, -1.3246052265167236 },
				{ 2.043769121170044, 0.15749599039554596, -1.878260850906372 },
				{ 0.5025575757026672, 1.9700684547424316, -0.8924953937530518 }
			},
			{
				{ 0.5581563711166382, 1.8853517770767212, 1.7232403755187988 },
				{ -1.1835601329803467, -0.5544221997261047, -0.3596445918083191 },
				{ -1.234231948852539, -0.9812613129615784, -2.0325372219085693 }
			}
		};

// Conv layer biases.
float conv_biases [FILTERS] = { -0.6615355014801025, -0.22577857971191406, 0.0, -0.019776741042733192, 0.5325771570205688, -0.6380047798156738, -0.7689188718795776, -0.1802641600370407 };
