// Dense layer weights.
float dense_weights[FLAT_SIZE][DENSE_SIZE]
	 = {
			{ -0.01901724934577942, 0.00593503238633275, -0.0011537143727764487, -0.02600986696779728, 0.009985377080738544, 0.028783638030290604, -0.0006284770206548274, -0.05229293555021286, 0.024886323139071465, 0.04964378476142883 },
			{ 0.02453725039958954, 0.04786623269319534, -0.006698822136968374, -0.027556350454688072, 0.00169233453925699, 0.060001663863658905, -0.021646473556756973, 0.035230603069067, -0.008713942021131516, -0.029791442677378654 },
			{ -0.012142764404416084, -0.056567318737506866, 0.05224471539258957, -0.03848034143447876, 0.019014693796634674, 0.035279132425785065, 0.00841511134058237, 0.011111387982964516, -0.035573042929172516, 0.03417345881462097 },
			{ 0.054384950548410416, 0.04090694710612297, -0.03360142186284065, -0.018981564790010452, -0.02729019895195961, -0.0015422496944665909, -0.016505399718880653, -0.004579662345349789, 0.03414842486381531, -0.06096656620502472 },
			{ -0.026863159611821175, -0.05633755028247833, 0.021868295967578888, 0.040112681686878204, -0.038943320512771606, -0.02065085619688034, -0.030078554525971413, -0.02630917727947235, 0.025505829602479935, -0.02859673649072647 },
			{ 0.00808632466942072, -0.028747761622071266, 0.033164314925670624, -0.03154768794775009, -0.0684666857123375, -0.03981909528374672, -0.013146152719855309, -0.06099331006407738, -0.0003004354948643595, 0.02778080850839615 },
			{ -0.004327776841819286, -0.047417428344488144, -0.015452406369149685, 0.04981635510921478, 0.025418151170015335, 0.0445341020822525, 0.011670082807540894, -0.037314336746931076, 0.0033386987634003162, -0.04165848344564438 },
			{ 0.006192139349877834, -0.029408879578113556, -0.04589517042040825, -0.05734619125723839, -0.039786335080862045, 0.04231155663728714, 0.07525739073753357, 0.0045139058493077755, 0.006540229078382254, -0.023669758811593056 },
			{ -0.04049496725201607, 0.0008232357213273644, 0.020749982446432114, 0.03816515579819679, -0.08752521872520447, -0.00451067928224802, 0.031077025458216667, -0.03273383155465126, -0.033030495047569275, -0.025663455948233604 },
			{ 0.023337453603744507, 0.05618572235107422, 0.037070125341415405, -0.023593612015247345, -0.01334008015692234, 0.02115779183804989, -0.04565570876002312, -0.05488916113972664, 0.0030808192677795887, -0.058906007558107376 },
			{ -0.057904332876205444, -0.020188581198453903, -0.049553509801626205, 0.004024806432425976, -0.027380257844924927, -0.04719488322734833, 0.04691483825445175, 0.056219667196273804, -0.035466570407152176, 0.048450272530317307 },
			{ -0.039101071655750275, -0.006271715275943279, -0.0566478930413723, -0.03975255414843559, -0.039616335183382034, 0.02484716661274433, 0.052732888609170914, -0.04749860242009163, -0.009976264089345932, -0.011435253545641899 },
			{ 0.049241483211517334, 0.024232201278209686, -0.026212861761450768, -0.016459139063954353, -0.04511610046029091, -0.005602338816970587, -0.022176863625645638, 0.04692746698856354, -0.03394348546862602, -0.014976819045841694 },
			{ -0.04912484064698219, -0.050023023039102554, 0.05660124868154526, -0.00737762451171875, -0.05197936296463013, 0.020111804828047752, -0.047845833003520966, -0.008818518370389938, 0.012063837610185146, 0.05857802554965019 },
			{ 0.029843613505363464, -0.05366024002432823, -0.03727706894278526, -0.03697122260928154, 0.008004081435501575, -0.02837182581424713, 0.012430316768586636, -0.0016912702703848481, -0.044343676418066025, 0.0005456236540339887 },
			{ -0.054625969380140305, 0.029283415526151657, 0.049841850996017456, 0.019894590601325035, 0.005158681888133287, -0.03746093809604645, 0.010749158449470997, 0.015416142530739307, 0.019612835720181465, -0.004594128113240004 },
			{ -0.061613231897354126, 0.05857877433300018, 0.012939316220581532, -0.0024432819336652756, 0.019445057958364487, -0.03337623178958893, 0.002658342244103551, 0.009504067711532116, -0.060507360845804214, -0.04848741739988327 },
			{ -0.049699410796165466, -0.04070160910487175, 0.007510692346841097, -0.012592925690114498, -0.04281796142458916, -0.057916104793548584, -0.011407583020627499, -0.00568696903064847, -0.04612191766500473, 0.027481159195303917 },
			{ -0.07409776747226715, 0.05379074811935425, 0.014818480238318443, 0.029845383018255234, -0.1364329755306244, 0.04507952183485031, 0.15166032314300537, 0.01110692135989666, -0.0185408815741539, 0.05012799799442291 },
			{ 0.029559077695012093, 0.012937442399561405, -0.02991144172847271, 0.02030775509774685, -0.032289933413267136, -0.030252519994974136, 0.18195073306560516, -0.029652448371052742, -0.04539218172430992, 0.016244245693087578 },
			{ -0.020898442715406418, 0.013926275074481964, -0.026721807196736336, -0.07842374593019485, -0.11202486604452133, 0.03137340396642685, 0.20201437175273895, -0.01781265251338482, -0.02603488229215145, -0.006232062354683876 },
			{ -0.03998656943440437, 0.1960839033126831, -0.16513556241989136, -0.0915718600153923, 0.0027518137358129025, 0.007522800471633673, 0.21094465255737305, -0.07617997378110886, 0.016353929415345192, 0.003785068402066827 },
			{ 0.05993938818573952, 0.09506914764642715, -0.019563231617212296, -0.009911389090120792, -0.07086049765348434, 0.05242609605193138, -0.02110063098371029, -0.047558046877384186, -0.04667927697300911, -0.09587543457746506 },
			{ -0.126491978764534, 0.08270436525344849, -0.07517373561859131, -0.031985603272914886, -0.050198741257190704, 0.15452465415000916, 0.08360493183135986, 0.02779313363134861, 0.026410415768623352, 0.0052444348111748695 },
			{ -0.006055211648344994, 0.07400338351726532, -0.12277524173259735, -0.009911858476698399, -0.0036042036954313517, 0.0848078578710556, 0.12577001750469208, -0.005580584984272718, 4.5488239265978336e-05, 0.00421390775591135 },
			{ -0.0861237496137619, -0.056596800684928894, 8.517639798810706e-05, 0.0176851786673069, 0.030252328142523766, 0.06369096785783768, 0.1457095891237259, -0.00203709932975471, -0.007353756111115217, -0.028312310576438904 },
			{ 0.027287090197205544, -0.022042589262127876, -0.0213914941996336, -0.07362525910139084, -0.053342726081609726, 0.04325240105390549, 0.06400572508573532, 0.04870935529470444, -0.010087555274367332, -0.0566149577498436 },
			{ -0.033009033650159836, 0.043686989694833755, -0.05018022283911705, -0.050988566130399704, -0.03295844420790672, 0.04643900319933891, 0.0576673224568367, 0.0013085284736007452, -0.00765517121180892, -0.024630337953567505 },
			{ 0.026469968259334564, 0.05517546087503433, -0.003020776901394129, -0.04612412676215172, -0.057408276945352554, 0.0377812422811985, -0.04533666744828224, -0.01110355369746685, 0.052354492247104645, -0.05484587699174881 },
			{ -0.038642384111881256, -0.025197207927703857, 0.060747936367988586, 0.020325763151049614, 0.02729598991572857, 0.005710154306143522, -0.029750844463706017, 0.005015913397073746, -0.025156574323773384, -0.010860815644264221 },
			{ -0.02996106632053852, -0.028612468391656876, -0.03630718216300011, -0.03907972574234009, -0.0175336841493845, 0.05473070964217186, 0.0554581880569458, -0.016779329627752304, -0.03304839879274368, 0.021203093230724335 },
			{ -0.06282933801412582, 0.0011018193326890469, 0.02980254776775837, -0.058324191719293594, -0.04841339960694313, -0.03975435718894005, 0.08915713429450989, 0.0042868987657129765, -0.03982400894165039, -0.04993078112602234 },
			{ -0.06686292588710785, -0.0263071171939373, -0.02811417356133461, 0.07298315316438675, 0.03192358836531639, -0.06687919050455093, 0.17164167761802673, -0.012417023070156574, 0.03636757656931877, -0.07005594670772552 },
			{ -0.06626656651496887, 0.1260453164577484, -0.1301669329404831, -0.0750228613615036, 0.09046095609664917, 0.046548157930374146, 0.21374981105327606, -0.010508539155125618, -0.03884382173418999, -0.19382399320602417 },
			{ -0.044543761759996414, 0.200901597738266, -0.09879039973020554, 0.08828417211771011, 0.049652643501758575, -0.009185221046209335, 0.20160894095897675, -0.026831550523638725, -0.13862791657447815, -0.12197335809469223 },
			{ -0.017725156620144844, 0.3473815619945526, -0.2617851495742798, -0.18922661244869232, 0.22842176258563995, -0.07034382969141006, 0.08928073197603226, -0.024302372708916664, -0.02637859247624874, -0.1942606419324875 },
			{ -0.12716902792453766, 0.25309136509895325, -0.19506144523620605, -0.11352145671844482, 0.15219472348690033, 0.22968000173568726, 0.06412915885448456, -0.016407977789640427, -0.038904450833797455, -0.1933194398880005 },
			{ -0.15362253785133362, 0.2142677903175354, -0.11913998425006866, -0.14932683110237122, 0.19819216430187225, 0.22394074499607086, -0.02795238606631756, 0.007688736077398062, 0.05657544359564781, -0.09570803493261337 },
			{ -0.03333825618028641, 0.17298667132854462, -0.15141832828521729, -0.08376059681177139, 0.002650971058756113, 0.18593350052833557, 0.10594674199819565, -0.0956786721944809, -0.03001217544078827, -0.03528932109475136 },
			{ -0.04960229620337486, 0.0028724672738462687, -0.06015924736857414, -0.06753165274858475, 0.15660680830478668, 0.004262585658580065, -0.038969751447439194, -0.004097431898117065, -0.042694803327322006, -0.06500829756259918 },
			{ 0.005215823650360107, -0.020537471398711205, -0.0016191152390092611, -0.0517670139670372, 0.04173598438501358, 0.038248103111982346, 0.0038814886938780546, -0.06796670705080032, -0.03855801001191139, -0.04946757107973099 },
			{ -0.06588336825370789, -0.0242073405534029, -0.0008976811077445745, -0.0691928118467331, -0.019624818116426468, -0.020839087665081024, 0.010958191007375717, -0.051894381642341614, 0.022543709725141525, -0.061796292662620544 },
			{ 0.05518364906311035, 0.005887703970074654, -0.021081065759062767, -0.031409502029418945, 0.04968845471739769, 0.01457145158201456, 0.028347304090857506, 0.014304864220321178, 0.010029354132711887, 0.023739313706755638 },
			{ 0.04968129098415375, -0.06268136203289032, -0.052000708878040314, 0.05868209898471832, -0.00047149817692115903, 0.025657864287495613, 0.03941765055060387, -0.049217525869607925, 0.02151421271264553, 0.04365920275449753 },
			{ -0.06760463863611221, 0.008468536660075188, 0.021660849452018738, 0.03857297822833061, -0.04690014198422432, 0.027352668344974518, 0.08000527322292328, 0.05264279246330261, -0.02235647849738598, 0.0357193648815155 },
			{ -0.08201002329587936, -0.018231181427836418, -0.036642592400312424, -0.03932763263583183, 0.03334595635533333, -0.070973239839077, 0.1225389838218689, -0.07075987011194229, 0.10105335712432861, -0.09624122083187103 },
			{ -0.11821963638067245, -0.12626732885837555, -0.07895376533269882, -0.08300869911909103, 0.2733282744884491, 0.07611914724111557, 0.13271930813789368, -0.039339590817689896, 0.14583638310432434, -0.11988303065299988 },
			{ -0.06915175914764404, 0.107780322432518, -0.14711767435073853, -0.15859946608543396, 0.4852946698665619, -0.022764110937714577, 0.2933662235736847, -0.16886690258979797, -0.11363545805215836, -0.05698837339878082 },
			{ -0.14389529824256897, 0.1194925308227539, -0.015879981219768524, -0.2536396384239197, 0.5474560260772705, -0.13689185678958893, 0.31765201687812805, -0.10010163486003876, -0.09650720655918121, -0.14749523997306824 },
			{ -0.12335576117038727, 0.20167110860347748, -0.23074541985988617, -0.09961660951375961, 0.6282227635383606, -0.15223035216331482, 0.13274841010570526, 0.02038174495100975, -0.10904617607593536, -0.2704415023326874 },
			{ -0.16728663444519043, 0.17693093419075012, -0.10444878041744232, 0.0415322482585907, 0.5683194994926453, -0.19833381474018097, 0.034012142568826675, -0.00539449043571949, -0.12358154356479645, -0.24808748066425323 },
			{ -0.1927313357591629, 0.2784317135810852, -0.09638961404561996, -0.005915955640375614, 0.30656862258911133, -0.07744365185499191, -0.03136806562542915, 0.08594022691249847, -0.0762750506401062, -0.23885639011859894 },
			{ -0.20388133823871613, 0.12295590341091156, -0.014479551464319229, 0.0031586906407028437, 0.27650466561317444, 0.024274330586194992, -0.0353391207754612, -0.006514118053019047, -0.12106064707040787, -0.10140039026737213 },
			{ -0.0517561100423336, 0.08503410965204239, 0.028833111748099327, -0.040609218180179596, 0.14428231120109558, -0.03279898688197136, -0.14769117534160614, 0.14377494156360626, -0.07180222123861313, -0.09375249594449997 },
			{ 0.054946158081293106, -0.026414694264531136, 0.004080815240740776, -0.0036659466568380594, 0.13305774331092834, -0.0005102157010696828, 0.051376987248659134, -0.12068049609661102, 0.03346765413880348, -0.08918388187885284 },
			{ -0.041080866008996964, -0.014381160028278828, 0.005513208918273449, -0.011097713373601437, 0.09806984663009644, 0.07744209468364716, 0.06703072041273117, 0.013643157668411732, 0.05432894825935364, 0.03155192360281944 },
			{ -0.047417137771844864, 0.05483541637659073, -0.029004227370023727, -0.05399521812796593, 0.05020001903176308, 0.03661641478538513, 0.037313807755708694, -0.03472839668393135, -0.01941654272377491, -0.014785160310566425 },
			{ 0.037293460220098495, 0.024332068860530853, 0.04634689539670944, 0.05657907575368881, -0.007602127268910408, 0.06115886941552162, -0.05475408956408501, 0.056685853749513626, 0.001422128756530583, -0.06126647815108299 },
			{ -0.07650191336870193, 0.016815878450870514, -0.03151789680123329, -0.06735575199127197, 0.002401078585535288, 0.06657746434211731, 0.09940464049577713, -0.16268494725227356, 0.0535275824368, 0.09270980209112167 },
			{ 0.002994298469275236, 0.027513135224580765, -0.06214958429336548, -0.24393080174922943, 0.0642877146601677, -0.0632314458489418, 0.21706561744213104, -0.2089383453130722, 0.08139245957136154, 0.08610066026449203 },
			{ -0.09188679605722427, -0.1129230186343193, -0.14600332081317902, -0.26559528708457947, 0.3673032522201538, 0.021542152389883995, 0.2121535688638687, -0.28277722001075745, 0.02113742008805275, 0.25682681798934937 },
			{ 0.0593513585627079, -0.16201001405715942, -0.061726029962301254, -0.268589049577713, 0.35017916560173035, -0.008674437180161476, 0.22248749434947968, -0.3186706602573395, -0.10307207703590393, 0.13852806389331818 },
			{ -0.02323605865240097, -0.2183672934770584, 0.05417803302407265, -0.11210900545120239, 0.26031747460365295, -0.06532583385705948, 0.17837589979171753, -0.26233893632888794, -0.11202063411474228, 0.20284363627433777 },
			{ -0.15157240629196167, -0.0752170979976654, -0.012601904571056366, 0.11723888665437698, 0.3722207844257355, -0.38618093729019165, 0.2845735549926758, -0.14666633307933807, -0.1732366532087326, 0.07048460096120834 },
			{ -0.1560477316379547, -0.020563755184412003, -0.011320022866129875, 0.15426896512508392, 0.3699502646923065, -0.5673382878303528, -0.08797775954008102, 0.06273020058870316, -0.023663993924856186, 0.07925844937562943 },
			{ -0.0869097039103508, 0.09507423639297485, 0.07014661282300949, 0.24684421718120575, 0.3803533613681793, -0.44291263818740845, -0.09041420370340347, 0.19455397129058838, -0.11133845150470734, -0.19062620401382446 },
			{ 0.09048689156770706, 0.09604797512292862, 0.09991475939750671, 0.21099740266799927, 0.07502301782369614, -0.37434548139572144, -0.2351396232843399, 0.2165873795747757, 0.12687328457832336, -0.14736725389957428 },
			{ -0.043948397040367126, 0.13220858573913574, 0.20385482907295227, 0.12355334311723709, 0.10228470712900162, -0.34986409544944763, 0.042593710124492645, -0.0312361940741539, 0.0015107988147065043, -0.027081619948148727 },
			{ 0.1556333601474762, 0.0026896116323769093, 0.015174521133303642, 0.11407286673784256, 0.0015372667694464326, -0.09142296761274338, -0.12409349530935287, 0.1256450116634369, 0.018652116879820824, 5.025125210522674e-05 },
			{ -0.06759952008724213, -0.0072988164611160755, 0.03707073628902435, -0.00886271707713604, 0.09619294852018356, 0.08946452289819717, -0.047195740044116974, -0.08483710139989853, 0.051685407757759094, -0.0195742417126894 },
			{ -0.05559409782290459, -0.03195103630423546, -0.03136170655488968, 0.02744315005838871, 0.0005738857435062528, -0.03640861064195633, 0.00477291876450181, 0.04865536838769913, 0.04757657274603844, -0.013013450428843498 },
			{ -0.008099116384983063, -0.0398811511695385, -0.014395280741155148, -0.04217404127120972, -0.04893241822719574, -0.02997998334467411, 0.05507021024823189, 0.01152782328426838, -0.024706168100237846, 0.007059005554765463 },
			{ 0.01735367253422737, 0.08009975403547287, 0.03189638629555702, 0.013582455925643444, 0.003014851361513138, 0.008425488136708736, 0.11750283092260361, -0.30149903893470764, 0.023795591667294502, 0.1523609757423401 },
			{ -0.010739881545305252, -0.03296292945742607, -0.08122137188911438, -0.2337670922279358, 0.11803251504898071, 0.05137285590171814, 0.21206457912921906, -0.2635773718357086, 0.06900495290756226, 0.18465065956115723 },
			{ 0.19056738913059235, -0.17807918787002563, -0.3344134986400604, 0.08236828446388245, 0.03348201885819435, 0.1067408099770546, 0.22161561250686646, -0.27275148034095764, -0.07955173403024673, 0.12276641279459 },
			{ 0.11353450268507004, -0.14045044779777527, -0.2120247781276703, 0.06203906238079071, 0.24738815426826477, 0.06489232182502747, 0.096152164041996, 0.0030885357409715652, -0.08155699074268341, -0.029261160641908646 },
			{ -0.008510666899383068, -0.02210359089076519, 0.0014495366485789418, -0.1884675920009613, 0.1896083801984787, -0.12363019585609436, 0.10232055187225342, 0.060250911861658096, -0.24333441257476807, 0.10608801245689392 },
			{ 0.1683868020772934, -0.06531133502721786, 0.1172269731760025, -0.07537912577390671, 0.2114473283290863, -0.4021328091621399, 0.15532825887203217, 0.049455296248197556, -0.09020621329545975, 0.14651690423488617 },
			{ 0.08479785919189453, 0.05440036952495575, 0.2094022035598755, 0.11052848398685455, 0.1979139745235443, -0.6242036819458008, -0.25868305563926697, 0.2922818064689636, 0.1548689752817154, -0.13864806294441223 },
			{ 0.08614452928304672, 0.015081718564033508, 0.16517359018325806, 0.24853305518627167, 0.21223033964633942, -0.8190548419952393, -0.532957136631012, 0.16049247980117798, 0.20792825520038605, -0.023602930828928947 },
			{ -0.024124812334775925, 0.11775379627943039, 0.17133328318595886, -0.03957560285925865, 0.25047773122787476, -0.49531763792037964, -0.19270464777946472, 0.24287040531635284, 0.1430070549249649, -0.09565374255180359 },
			{ 0.04125552996993065, -0.015162026509642601, 0.12697824835777283, 0.03165791183710098, 0.15508806705474854, -0.5280985832214355, -0.1771429479122162, 0.15870420634746552, 0.06077362969517708, -0.06432878226041794 },
			{ 0.054923977702856064, -0.07709728926420212, 0.05055011436343193, 0.08103061467409134, -0.11057621240615845, -0.19737432897090912, -0.12721094489097595, -0.003759812330827117, 0.13885793089866638, 0.07510539144277573 },
			{ -0.11689027398824692, 0.02934020198881626, 0.023857727646827698, -0.0020301947370171547, -0.08756523579359055, 0.143723726272583, -0.13979460299015045, 0.025328241288661957, 0.048396073281764984, -0.06727087497711182 },
			{ -0.009964757598936558, -0.05247269943356514, -0.052826397120952606, -0.0490865632891655, 0.028881579637527466, -0.023064294829964638, -0.03810060769319534, -0.015875082463026047, 0.01418670266866684, -0.03230749070644379 },
			{ -0.052066124975681305, -0.03272588178515434, 0.007111504673957825, -0.014895787462592125, 0.058068521320819855, 0.04649418592453003, -0.05795444920659065, 0.054419610649347305, 0.032286323606967926, 0.02430802956223488 },
			{ 0.08356031775474548, 0.017070813104510307, -0.10108290612697601, 0.0003756791411433369, -0.1841210424900055, -0.022050583735108376, 0.046821627765893936, -0.08584664016962051, 0.009248641319572926, 0.15398646891117096 },
			{ 0.23072116076946259, -0.006337831262499094, -0.20242860913276672, -0.08152858912944794, 0.08054070919752121, -0.2672964334487915, 0.27138370275497437, -0.05856572836637497, -0.06843528151512146, 0.15533451735973358 },
			{ 0.3215126097202301, -0.04382055997848511, -0.31697627902030945, 0.19368872046470642, -0.01853414811193943, -0.15615884959697723, 0.27022412419319153, 0.019114689901471138, -0.1972772181034088, -0.020953111350536346 },
			{ 0.16564349830150604, 0.07870882749557495, -0.382366418838501, 0.20210827887058258, 0.08322853595018387, 0.022392375394701958, 0.03929942101240158, 0.05644361674785614, -0.07955937832593918, -0.321821928024292 },
			{ 0.12534132599830627, 0.19832183420658112, -0.16748294234275818, -0.11351697146892548, -0.008105197921395302, -0.03413381054997444, 0.13488183915615082, 0.4146333932876587, -0.3227695822715759, -0.23275041580200195 },
			{ 0.17770490050315857, 0.14446505904197693, 0.016235383227467537, -0.13777145743370056, 0.03611142560839653, -0.14277829229831696, 0.0534379668533802, 0.28515979647636414, -0.27131161093711853, -0.2776332497596741 },
			{ 0.09518098831176758, 0.2087199091911316, 0.1974417269229889, -0.19403496384620667, 0.116295725107193, -0.2851046621799469, -0.2133234739303589, 0.14633218944072723, -0.0993087962269783, 0.08402296900749207 },
			{ 0.15898190438747406, 0.1947004199028015, 0.26860666275024414, -0.032346341758966446, 0.09294331073760986, -0.46261557936668396, -0.2823835611343384, -0.11004000157117844, 0.12595053017139435, 0.0040621161460876465 },
			{ 0.19277381896972656, 0.03154380992054939, 0.2866392135620117, -0.027124658226966858, 0.09103896468877792, -0.29402339458465576, -0.2924801707267761, 0.030659381300210953, 0.0902731865644455, 0.07668829709291458 },
			{ 0.17838411033153534, -0.0025408982764929533, 0.1757168173789978, 0.05081382393836975, -0.03050811029970646, -0.35211679339408875, -0.061409395188093185, -0.01476156897842884, 0.017710477113723755, 0.03425220027565956 },
			{ 0.09521950036287308, -0.010031661950051785, 0.035100240260362625, -0.060890164226293564, -0.09841185808181763, -0.13158053159713745, 0.13028044998645782, -0.13018099963665009, 0.11373632401227951, 0.0955500677227974 },
			{ -0.06108598783612251, -0.019916117191314697, 0.16262568533420563, -0.06621778011322021, -0.07234486937522888, 0.01232208963483572, 0.016676058992743492, -0.0673058032989502, -0.02534998022019863, -0.07401292771100998 },
			{ 0.023763304576277733, -0.01440481562167406, -0.01455642655491829, -0.03580677509307861, -0.026904676109552383, -0.011669950559735298, -0.01765361800789833, 0.012141847983002663, 0.0189101230353117, -0.0065122246742248535 },
			{ 0.05665465444326401, -0.03840816766023636, -0.057668980211019516, 0.03650438413023949, 0.056610219180583954, 0.051303938031196594, -0.019146284088492393, 0.007449569646269083, 0.04478937014937401, 0.039515890181064606 },
			{ 0.15049591660499573, 0.011234838515520096, -0.0956295058131218, 0.008634036406874657, -0.01395744550973177, -0.09847624599933624, -0.0803203284740448, 0.10186093300580978, -0.05195904150605202, 0.07224030047655106 },
			{ 0.25619950890541077, 0.01921825297176838, -0.19265392422676086, -0.1904391199350357, -0.06485895812511444, -0.2769032120704651, 0.2899945080280304, 0.1391521841287613, -0.04175086319446564, 0.01739702746272087 },
			{ 0.29926514625549316, -0.04037942737340927, -0.273140013217926, -0.07060855627059937, 0.0558885857462883, -0.23781925439834595, 0.1590918004512787, 0.27517616748809814, -0.1746436208486557, 0.012580751441419125 },
			{ 0.14964286983013153, 0.22698535025119781, -0.16257065534591675, -0.21133089065551758, -0.22637616097927094, -0.2275790125131607, 0.16484816372394562, 0.40977656841278076, -0.0332530215382576, -0.22728173434734344 },
			{ 0.3130347430706024, 0.025386648252606392, -0.06362104415893555, -0.32471197843551636, -0.09585997462272644, -0.05693039670586586, 0.21692967414855957, 0.1563272327184677, -0.08175744116306305, -0.14495357871055603 },
			{ 0.17760886251926422, 0.2638227939605713, 0.1040407046675682, -0.15766732394695282, -0.15628200769424438, -0.0688217282295227, 0.1499885469675064, -0.0954693853855133, -0.1566421240568161, -0.20450900495052338 },
			{ 0.03695600852370262, 0.24273528158664703, 0.08258353173732758, -0.17227421700954437, 0.15457694232463837, -0.08324260264635086, -0.23346304893493652, -0.0297220591455698, -0.18166059255599976, 0.06766947358846664 },
			{ 0.09548859298229218, 0.04141366481781006, 0.12179145216941833, -0.07660460472106934, 0.20714695751667023, -0.33115237951278687, -0.1711980700492859, 0.01428085844963789, -0.1323322355747223, 0.13560448586940765 },
			{ 0.13971883058547974, -0.023863181471824646, 0.14535512030124664, -0.0552528090775013, 0.06523457169532776, -0.26734551787376404, 0.11020589619874954, 0.040117762982845306, -0.1581423282623291, 0.13755469024181366 },
			{ 0.1191476508975029, -0.09226737171411514, 0.058442290872335434, -0.16554231941699982, -0.10728475451469421, -0.20676007866859436, 0.11990805715322495, 0.1661064475774765, 0.019721783697605133, 0.07076860219240189 },
			{ 0.09201773256063461, -0.0676354467868805, -0.05439586564898491, -0.0804751068353653, 0.038232382386922836, -0.023189855739474297, 0.19708377122879028, 0.04317450523376465, -0.011846543289721012, -0.004328486509621143 },
			{ -0.04712662845849991, 0.0472252331674099, 0.11398085206747055, -0.027136098593473434, 0.01596316695213318, -0.03534672036767006, 0.04001501575112343, -0.04566061496734619, -0.008826290257275105, -0.0032221938017755747 },
			{ -0.01829279586672783, -0.005789163988083601, -0.04442640393972397, 0.030803825706243515, -0.0260691549628973, 0.03295664116740227, 0.049539804458618164, -0.04358062893152237, -0.02171335555613041, -0.004903745371848345 },
			{ 0.06011740490794182, -0.014720031060278416, 0.015004854649305344, -0.00043379832641221583, -0.014291537925601006, -0.01823621429502964, 0.050835952162742615, 0.0532567985355854, 0.02939942665398121, -0.025265652686357498 },
			{ 0.10718132555484772, -0.00017403373203705996, 0.00720119196921587, 0.03068116120994091, 0.07492043823003769, -0.06107107177376747, -0.057056885212659836, 0.009468833915889263, 0.0371047742664814, -0.019095923751592636 },
			{ 0.0643649697303772, -0.0648847445845604, -0.0005832342430949211, -0.21348874270915985, -0.20963358879089355, -0.21081621944904327, 0.191731795668602, 0.1923491358757019, 0.11429385840892792, 0.03205961361527443 },
			{ 0.21071134507656097, -0.03540443629026413, -0.04483259096741676, -0.2557659149169922, -0.23711636662483215, -0.29922807216644287, 0.2805047333240509, 0.5390669107437134, 0.19419334828853607, -0.3116375803947449 },
			{ 0.22447147965431213, 0.11852745711803436, 0.2154880315065384, -0.3480197489261627, -0.3074657618999481, -0.1696741282939911, 0.1674785166978836, 0.4349345862865448, 0.2722215950489044, -0.4310130178928375 },
			{ 0.32837098836898804, 0.0524587519466877, -0.022559521719813347, -0.4009408950805664, -0.1037401482462883, 0.02765454165637493, 0.1201472282409668, 0.07981730997562408, -0.019816210493445396, -0.17824500799179077 },
			{ -0.018573185428977013, 0.3707248568534851, 0.27984651923179626, -0.02964959293603897, 0.12596476078033447, -0.061650119721889496, -0.15244701504707336, -0.18055392801761627, -0.2238232046365738, -0.03076854534447193 },
			{ 0.056166183203458786, 0.21747303009033203, -0.06700149178504944, -0.13544762134552002, -0.07731575518846512, 0.0587189607322216, 0.09133066982030869, 0.06456306576728821, -0.254965603351593, 0.010687110014259815 },
			{ 0.25120866298675537, -0.10849922150373459, -0.07233469188213348, -0.10693854838609695, 0.02825550176203251, -0.05809713900089264, 0.10974248498678207, 0.044964659959077835, -0.2535173296928406, 0.1148282065987587 },
			{ 0.024129843339323997, -0.08075203746557236, 0.006090518087148666, -0.005922436714172363, 0.10098389536142349, -0.01149109099060297, 0.0326470322906971, -0.030137162655591965, -0.19670110940933228, 0.03597290813922882 },
			{ 0.04280954226851463, -0.05391838774085045, 0.011143510229885578, 0.011614430695772171, 0.02148241363465786, -0.0449388213455677, 0.011648778803646564, 0.27096080780029297, -0.1410965472459793, -0.010426302440464497 },
			{ 0.13818737864494324, -0.06945362687110901, -0.17396844923496246, 0.08920745551586151, -0.026500573381781578, 0.12377965450286865, 0.14485587179660797, -0.0039088851772248745, -0.08635258674621582, -0.08729389309883118 },
			{ -0.05976415053009987, 0.006013619713485241, 0.09603982418775558, -0.06005563214421272, 0.006615994032472372, -0.0788378193974495, 0.14282596111297607, -0.0839666873216629, 0.014268632046878338, -0.0405888706445694 },
			{ -0.05240498483181, -0.0008599397260695696, -0.031346797943115234, -0.045178599655628204, 0.0031066155061125755, -0.012694950215518475, -0.026339346542954445, -0.011993343010544777, 0.05154699087142944, 0.015131702646613121 },
			{ -0.05122620612382889, 0.000622666091658175, 0.0481853187084198, -0.04077695310115814, -0.03489549830555916, -0.03374780714511871, 0.022975800558924675, -0.004926817957311869, 0.007252848707139492, 0.03855602815747261 },
			{ 0.03863075003027916, -0.05808480829000473, 0.12999583780765533, -0.019766686484217644, -0.045766524970531464, 0.007219837512820959, 0.008294641971588135, -0.03204841911792755, 0.01570933684706688, -0.06958890706300735 },
			{ 0.020462140440940857, -0.04329908639192581, 0.2357659637928009, -0.22748631238937378, -0.09813874959945679, 0.008989178575575352, 0.021131007000803947, -0.04809935390949249, 0.291348934173584, -0.1239553838968277 },
			{ 0.16805392503738403, -0.1899634450674057, 0.24546144902706146, -0.29211166501045227, -0.22797882556915283, -0.3085033893585205, 0.24687322974205017, 0.26147735118865967, 0.4188278913497925, -0.32836973667144775 },
			{ 0.31569045782089233, 0.025630028918385506, 0.39369073510169983, -0.2614378333091736, -0.14632490277290344, -0.2420007586479187, 0.10956639796495438, 0.05623376742005348, 0.3113131523132324, -0.42819854617118835 },
			{ 0.12323690950870514, 0.09878327697515488, 0.12472779303789139, -0.34453460574150085, 0.00800374336540699, 0.05950222536921501, -0.014180006459355354, 0.10744752734899521, -0.03019147738814354, -0.09365027397871017 },
			{ 0.0542721301317215, -0.0847538486123085, 0.053445592522621155, -0.18681538105010986, 0.112496018409729, 0.12160437554121017, -0.15479259192943573, 0.1780768185853958, -0.18912921845912933, 0.20233342051506042 },
			{ 0.04113900288939476, -0.15344737470149994, -0.06464103609323502, -0.00207557063549757, -0.019763916730880737, 0.005494061391800642, 0.08311082422733307, 0.008486577309668064, -0.14358602464199066, 0.1774849146604538 },
			{ -0.02014271914958954, -0.165743887424469, -0.07760155946016312, -0.008089946582913399, -0.13564155995845795, 0.0836525484919548, 0.06392073631286621, 0.030757270753383636, 0.06427387148141861, 0.08526340126991272 },
			{ -0.02248830907046795, -0.06963843107223511, -0.1512126475572586, -0.037784963846206665, -0.01203923299908638, 0.10447049885988235, -0.00534976739436388, -0.03249366581439972, 0.025028271600604057, 0.15274183452129364 },
			{ -0.020643267780542374, -0.10647829622030258, -0.10760020464658737, 0.09395457059144974, 0.04869810491800308, 0.020831948146224022, 0.033532507717609406, 0.0030455351807177067, -0.08804935216903687, -0.017653707414865494 },
			{ -0.040933746844530106, 0.013857556506991386, -0.07410218566656113, -0.059927862137556076, -0.016342170536518097, 0.047146979719400406, 0.04022039473056793, -0.09549770504236221, 0.18758487701416016, -0.044465672224760056 },
			{ -0.03568783402442932, 0.09375384449958801, 0.053830377757549286, 0.030189890414476395, -0.027852917090058327, 0.020804040133953094, 0.06047805771231651, -0.049811575561761856, -0.09143941104412079, 0.017038332298398018 },
			{ 0.04917902871966362, -0.005616954993456602, -0.0253007709980011, -0.017297815531492233, 0.044239237904548645, -0.05655677616596222, -0.011357474140822887, -0.054400861263275146, 0.018077408894896507, 0.032548047602176666 },
			{ -0.01986960880458355, 0.000248175609158352, -0.02487551048398018, 0.013117761351168156, -0.037047963589429855, -0.03662901371717453, 0.029961004853248596, 0.02160809002816677, 0.043920379132032394, -0.020315391942858696 },
			{ -0.006573687773197889, 0.0015849886694923043, 0.0466732494533062, 0.00803470704704523, 0.012252193875610828, 0.04783668741583824, 0.034094735980033875, 0.0029001180082559586, 0.015818951651453972, 0.03992602229118347 },
			{ 0.01396335568279028, -0.07180970162153244, 0.11973654478788376, -0.26135000586509705, -0.01938234455883503, -0.04554794728755951, -0.10723722726106644, 0.02569102682173252, 0.18974892795085907, 0.020064085721969604 },
			{ 0.16002197563648224, 0.07091733068227768, 0.16418182849884033, -0.24177025258541107, 0.11481256037950516, -0.15551884472370148, 0.002620756160467863, 0.11744874715805054, 0.10671687871217728, -0.22645525634288788 },
			{ -0.06419597566127777, 0.130325585603714, -0.026555484160780907, -0.2706991136074066, 0.2117958813905716, 0.0004869529511779547, 0.04881953448057175, 0.2531259059906006, 0.007074987515807152, -0.0345742404460907 },
			{ 0.0036190561950206757, 0.05665413662791252, -0.05043555051088333, -0.3553049862384796, 0.18536995351314545, -0.11786174774169922, -0.22751805186271667, 0.3974228799343109, 0.042787663638591766, 0.10767149925231934 },
			{ -0.16964316368103027, -0.22283630073070526, -0.07448261231184006, -0.024522434920072556, 0.18728534877300262, -0.07332208007574081, -0.1028827577829361, 0.26890045404434204, 0.12834672629833221, 0.023158077150583267 },
			{ -0.1803167760372162, -0.18952608108520508, -0.025627553462982178, 0.28341683745384216, 0.24325120449066162, 0.13477757573127747, -0.20174136757850647, -0.04615488648414612, -0.010953322984278202, 0.12547996640205383 },
			{ -0.13331663608551025, -0.12763039767742157, -0.2403886914253235, 0.16320489346981049, -0.027562309056520462, 0.18588270246982574, -0.06324221938848495, 0.009737319312989712, -0.0561583936214447, 0.21759644150733948 },
			{ 0.06520311534404755, -0.025015939027071, -0.16302061080932617, 0.027943717315793037, -0.09358107298612595, 0.0378674678504467, -0.05821933597326279, 0.08612179011106491, 0.09549878537654877, 0.07390422374010086 },
			{ -0.01892799697816372, -0.042921263724565506, -0.15947987139225006, 0.09022015333175659, 0.02739870548248291, 0.09756317734718323, 0.019239813089370728, -0.1647404432296753, 0.14478111267089844, 0.04059472307562828 },
			{ -0.04913265258073807, 0.11636620759963989, -0.14889918267726898, -0.06687388569116592, -0.0014871140010654926, 0.1294449120759964, -0.13927553594112396, -0.03963902220129967, 0.07338148355484009, 0.015466436743736267 },
			{ -0.008670317009091377, 0.09592597186565399, 0.06335161626338959, -0.03503073751926422, 0.03601878136396408, 0.08942879736423492, 0.004499786999076605, -0.02287754975259304, 0.0021018069237470627, 0.018896466121077538 },
			{ 0.031412962824106216, -0.007010802160948515, -0.05918372794985771, -0.03315320983529091, -0.00550339138135314, -0.05299539119005203, 0.016967156901955605, -0.03992021083831787, -0.0315905399620533, 0.03131445124745369 },
			{ -0.0069154114462435246, -0.01927843503654003, -0.02836252748966217, -0.030207201838493347, -0.04422563686966896, 0.027066564187407494, 0.013017609715461731, -0.012570274993777275, -0.019347798079252243, -0.05062570422887802 },
			{ 0.062022265046834946, 0.04317130148410797, 0.040267542004585266, 0.012969525530934334, -0.01761685498058796, -0.06438929587602615, -0.03592969849705696, 0.039502594619989395, 0.0567745715379715, -0.015556581318378448 },
			{ -0.0736762285232544, 0.15895767509937286, -0.028095871210098267, -0.05829586833715439, 0.030898064374923706, 0.015092522837221622, 0.04559936374425888, 0.13586163520812988, 0.03154097869992256, -0.0005976813845336437 },
			{ -0.08063089102506638, 0.1889110654592514, 0.03505308926105499, -0.23225867748260498, 0.13546110689640045, -0.16497892141342163, 0.013086801394820213, 0.4327548146247864, -0.20684222877025604, -0.07291384786367416 },
			{ -0.1414855420589447, 0.2689990997314453, -0.1793263852596283, -0.33752480149269104, 0.19457033276557922, 0.014126382768154144, 0.03820966184139252, 0.2879006564617157, -0.22627024352550507, 0.02041046693921089 },
			{ -0.17029176652431488, 0.1369490623474121, -0.29010990262031555, -0.08567512035369873, 0.3007015883922577, -0.06759922951459885, 0.010074677877128124, 0.360058069229126, -0.31240034103393555, 0.06150273233652115 },
			{ -0.43220341205596924, 0.08983539789915085, -0.3448072373867035, 0.14995357394218445, 0.18129833042621613, -0.010558298788964748, -0.07958972454071045, 0.09630779922008514, 0.06051081046462059, 0.23282651603221893 },
			{ -0.17898418009281158, -0.04105323553085327, -0.25445881485939026, 0.15425096452236176, 0.2893610894680023, 0.008908000774681568, -0.03280752897262573, 0.22557774186134338, -0.01087435893714428, 0.08912171423435211 },
			{ -0.18802854418754578, 0.1268462985754013, -0.037826646119356155, 0.15272954106330872, 0.050512880086898804, 0.06133512780070305, -0.1335008144378662, 0.1098293662071228, -0.11630726605653763, 0.0052261664532125 },
			{ -0.22124627232551575, 0.09888462722301483, -0.12922170758247375, 0.08557332307100296, 0.057440612465143204, 0.08437882363796234, -0.03650036081671715, 0.011822580359876156, 0.06041356176137924, -0.06619684398174286 },
			{ -0.07760679721832275, -0.02923642098903656, -0.04772777855396271, 0.00655174907296896, 0.1792226880788803, 0.0384921059012413, 0.030801130458712578, -0.07258287817239761, 0.09437965601682663, -0.013402709737420082 },
			{ -0.07930511236190796, -0.04233132675290108, 0.02195313759148121, -0.010598949156701565, 0.014970923773944378, 0.12192164361476898, -0.15581268072128296, -0.08366347849369049, 0.0028978553600609303, 0.10581113398075104 },
			{ 0.04482085257768631, 0.008674290031194687, -0.03062503971159458, -0.0265736635774374, -0.036414798349142075, -0.021462390199303627, -0.06744378060102463, 0.05783267691731453, -0.0869973823428154, -0.05013363063335419 },
			{ -0.0591471903026104, -0.0030768802389502525, 0.001433704630471766, -0.012577210552990437, 0.030201926827430725, -0.025678493082523346, -0.04067124426364899, -0.03343428298830986, 0.05921296030282974, 0.034985803067684174 },
			{ -0.052454873919487, 0.01945893093943596, 0.05972076207399368, 0.03985997661948204, -0.02135380171239376, 0.04482892155647278, -0.004736476112157106, -0.014053658582270145, -0.009894317016005516, 0.004074093885719776 },
			{ 0.039714377373456955, -0.020516743883490562, 0.019133051857352257, 0.03208456188440323, -0.019316809251904488, -0.049897368997335434, 0.02378968708217144, 0.059083301573991776, -0.04539268836379051, -0.041888922452926636 },
			{ -0.06320710480213165, 0.06719305366277695, -0.21754857897758484, -0.04427984729409218, -0.028962472453713417, 0.009508349001407623, 0.05750691890716553, 0.18299147486686707, -0.15755285322666168, 0.04013724625110626 },
			{ -0.05551794171333313, 0.1435941904783249, -0.15723593533039093, -0.034268345683813095, 0.14586137235164642, -0.16338440775871277, -0.07909941673278809, 0.3537023663520813, -0.2302020788192749, 0.228990375995636 },
			{ -0.10879552364349365, 0.21228483319282532, -0.33881884813308716, -0.08893734961748123, 0.20187976956367493, 0.0025198226794600487, -0.09113653749227524, 0.21056731045246124, -0.05552306026220322, 0.14422574639320374 },
			{ -0.16461892426013947, 0.09051256626844406, -0.307574063539505, -0.12311960011720657, 0.16362519562244415, -0.14519146084785461, -0.1147410199046135, 0.3283780813217163, -0.10891520231962204, 0.3447590172290802 },
			{ -0.2278755009174347, 0.25553396344184875, -0.30343031883239746, -0.07975993305444717, 0.1166689321398735, -0.06717411428689957, -0.21289104223251343, 0.45040613412857056, -0.06918124109506607, 0.12228646874427795 },
			{ -0.20999778807163239, 0.139492928981781, -0.14080491662025452, -0.1853167861700058, -0.03620478883385658, 0.011730199679732323, -0.10829991102218628, 0.2957337200641632, -0.0015488581266254187, 0.0739583745598793 },
			{ -0.1095355823636055, 0.06623409688472748, -0.10108840465545654, 0.13880567252635956, 0.02915780246257782, -0.005298728588968515, -0.11086327582597733, 0.02172139100730419, -0.10568550229072571, 0.03190798684954643 },
			{ -0.2512802481651306, 0.04395679384469986, -0.1466602236032486, 0.018562866374850273, -0.04995406046509743, -0.02164878137409687, 0.07297926396131516, 0.10517334938049316, 0.03384959697723389, 0.04537571221590042 },
			{ -0.11739519983530045, -0.04125559329986572, 0.023503391072154045, 0.04343751445412636, 0.1322186142206192, -0.010241301730275154, -0.032110169529914856, -0.035843897610902786, -0.04781588166952133, 0.1277155727148056 },
			{ -0.05652403086423874, -0.05814223736524582, -0.0020484754350036383, 0.02225709892809391, -0.019235841929912567, 0.1343807727098465, 0.023874446749687195, -0.053454603999853134, -0.03120022639632225, 0.02814454585313797 },
			{ 0.015230033546686172, -0.002561599249020219, 0.01160036027431488, 0.0020239343866705894, 0.04675253853201866, -0.026382962241768837, 0.02269941009581089, -0.02305574156343937, 0.021927915513515472, 0.03583937883377075 },
			{ -0.04702947661280632, 0.037667833268642426, 0.04078023508191109, 0.05262887477874756, 0.030351221561431885, -0.011091171763837337, 0.0377190038561821, 0.013790914788842201, 0.02473832480609417, 0.03338911384344101 },
			{ -0.058063969016075134, -0.05415970832109451, -0.05253855139017105, -0.006740381475538015, 0.04954100772738457, -0.010879292152822018, -0.04941807687282562, 0.04130794480443001, -0.03088369406759739, 0.04301021248102188 },
			{ -0.0011948923347517848, -0.048963773995637894, -0.050081174820661545, 0.006120485719293356, 0.028758792206645012, 0.004821622744202614, -0.05370352789759636, 0.07910721004009247, 0.01293216086924076, 0.04082002863287926 },
			{ 0.03938208892941475, -0.014719689264893532, -0.03117821179330349, 0.033898696303367615, 0.02652364782989025, 0.04174988716840744, -0.059778425842523575, 0.008226048201322556, -0.019499804824590683, 0.08423179388046265 },
			{ -0.045904647558927536, -0.031848467886447906, -0.01093006320297718, 0.03640962019562721, 0.026725903153419495, -0.051526691764593124, 0.04489116370677948, 0.07960807532072067, -0.11302699893712997, 0.2202969640493393 },
			{ -0.13552707433700562, -0.06391475349664688, -0.1243903860449791, 0.06249349191784859, 0.07452521473169327, -0.03067672997713089, -0.021253501996397972, 0.16097667813301086, -0.09612257033586502, 0.18426944315433502 },
			{ -0.048881012946367264, -0.13455885648727417, -0.03958537429571152, 0.08294247835874557, -0.12037210911512375, -0.046707119792699814, -0.0020059675443917513, 0.08372664451599121, -0.02673804946243763, 0.20377486944198608 },
			{ -0.034650128334760666, -0.04701019078493118, -0.02730073221027851, 0.12188169360160828, -0.1110132485628128, -0.0732329785823822, -0.004893822595477104, 0.0528201200067997, -0.13205941021442413, 0.23703454434871674 },
			{ -0.10629076510667801, -0.07378693670034409, -0.10928485542535782, 0.009238816797733307, -0.057906441390514374, -0.02405412495136261, -0.00011995083332294598, 0.24204644560813904, -0.11846055835485458, 0.18458405137062073 },
			{ -0.10867603868246078, -0.036518413573503494, -0.1608412116765976, 0.08835846930742264, -0.006406776141375303, 0.04319038614630699, -0.05815035477280617, 0.09355810284614563, -0.03948173671960831, 0.14036692678928375 },
			{ -0.04242101311683655, -0.03384598717093468, -0.09671559184789658, 0.09343522042036057, -0.11996497958898544, 0.014285961166024208, -0.04145718365907669, 0.10821202397346497, 0.010338137857615948, 0.14878518879413605 },
			{ -0.02043350785970688, 0.028223497793078423, 0.02792927250266075, -0.012368335388600826, 0.028528520837426186, 0.026662444695830345, 0.05173294246196747, 0.053200602531433105, -0.08195595443248749, 0.08994296193122864 },
			{ 0.01399086881428957, 0.01308390125632286, 0.05346943810582161, 0.040876612067222595, 0.042439237236976624, 0.06363408267498016, -0.017900437116622925, 0.028579292818903923, -0.06863944232463837, 0.04343898221850395 },
			{ -0.022360963746905327, 0.03499495983123779, 0.051489997655153275, 0.03321194648742676, 0.04294942691922188, 0.05359547212719917, -0.001571762841194868, 0.02451458014547825, -0.03170625865459442, -0.018981313332915306 },
			{ 0.03862737864255905, -0.023259658366441727, -0.030900008976459503, -0.061189476400613785, -0.04926218092441559, 0.008907593786716461, -0.014774011448025703, 0.05117722228169441, 0.025051290169358253, 0.006195469759404659 },
			{ 0.013644068501889706, -0.017758455127477646, 0.028216678649187088, -0.04542430117726326, 0.04961494728922844, -0.03789651393890381, -0.004133234731853008, -0.02541784569621086, -0.015440568327903748, 0.006153925321996212 },
			{ -0.023862715810537338, 0.0189037062227726, -0.05274387449026108, 0.0003729736781679094, 0.01228683814406395, -0.03628304973244667, -0.061395496129989624, 0.025861278176307678, 0.04875892400741577, 0.004050517454743385 },
			{ 0.027089053764939308, -0.050775203853845596, -0.03684578463435173, -0.05554437264800072, 0.013429234735667706, 0.05515923723578453, 0.03648023679852486, 0.060393329709768295, 0.01602301374077797, -0.005282897036522627 },
			{ -0.019045280292630196, -0.008103051222860813, 0.05514233186841011, 0.035553593188524246, 0.018790902569890022, 0.0009283205145038664, -0.009953680448234081, 0.0241907499730587, -0.043525539338588715, 0.050991665571928024 },
			{ 0.001303135883063078, -0.03452692925930023, 0.00671599293127656, 0.012213709764182568, 0.011135546490550041, 0.04922811686992645, 0.02699282392859459, -0.06135024130344391, -0.017199594527482986, -0.04975450411438942 },
			{ 0.0047605810686945915, 0.04916715621948242, -0.0349663607776165, 0.01315709576010704, 0.01465375442057848, -0.020565234124660492, 0.07119728624820709, 0.026318859308958054, 0.03838891163468361, -0.0036528119817376137 },
			{ -0.04987557232379913, 0.06904654204845428, 0.02686166949570179, -0.008900891989469528, 0.0002949961635749787, -0.06395790725946426, 0.011753857135772705, 0.027119945734739304, 0.0410681888461113, 0.006146152038127184 },
			{ -0.0019464605720713735, -0.04232925549149513, 0.031200947239995003, 0.01464494876563549, 0.017019541934132576, 0.054732415825128555, 0.01714862883090973, 0.04082764312624931, -0.007963305339217186, -0.06224201247096062 },
			{ 0.009943175129592419, -0.014413150027394295, 0.052082840353250504, -0.015304628759622574, -0.0475558377802372, 0.04004475846886635, -0.02448529191315174, -0.03526688367128372, -0.04068080335855484, -0.04481225088238716 },
			{ -0.01803702674806118, -0.030882077291607857, -0.0411369763314724, 0.007693607825785875, -0.008893335238099098, -0.018824467435479164, 0.05534234642982483, 0.030916599556803703, -0.03964123874902725, 0.026968566700816154 },
			{ -0.007832546718418598, 0.02484007552266121, -0.05866985768079758, -0.011948336847126484, 0.0025267754681408405, 0.026039620861411095, 0.036112431436777115, -0.024961909279227257, 0.011658457107841969, -0.04397178068757057 },
			{ -0.01937801018357277, 0.048601724207401276, -0.026822520419955254, 0.014839490875601768, 0.031778864562511444, -0.04944780841469765, 0.023190366104245186, -0.018709944561123848, -0.046085234731435776, 0.027917739003896713 },
			{ -0.05002064257860184, 0.027745740488171577, 0.019039051607251167, -0.043345216661691666, -0.003879696363583207, 0.04208200052380562, -0.058126967400312424, -0.0009020644356496632, -0.009187361225485802, 0.05034828931093216 },
			{ 0.031725943088531494, -0.0317864753305912, 0.05865807831287384, 0.03952488675713539, 0.0424354262650013, 0.05539930984377861, 0.05142156407237053, -0.021535687148571014, -0.01172000914812088, 0.023448022082448006 },
			{ -0.037358835339546204, 0.03450392559170723, 0.02257564291357994, -0.05673443526029587, 0.03095177747309208, 0.04612031206488609, 0.012170697562396526, 0.0021236727479845285, 0.000751263985875994, 0.05410592630505562 },
			{ -0.025236457586288452, 0.03730223700404167, -0.026849351823329926, -0.05885382741689682, -0.02959894947707653, -0.045451611280441284, 0.014829322695732117, -0.019851265475153923, 0.05067397281527519, -0.020014164969325066 },
			{ -0.014126221649348736, 0.04152756184339523, -0.04274873062968254, -0.04902202636003494, -0.08985274285078049, 0.013936239294707775, 0.023371191695332527, -0.049436055123806, 0.044962842017412186, -0.021583737805485725 },
			{ 0.03526864945888519, -0.03885113447904587, -0.0038947088178247213, 0.02297092415392399, -0.08437583595514297, -0.06300316751003265, 0.1160224974155426, -0.07289889454841614, -0.0645136684179306, -0.0073562623001635075 },
			{ 0.04211149364709854, -0.05691103637218475, 0.06199612468481064, 0.009081066586077213, -0.10365580022335052, -0.0015850982163101435, 0.1604439616203308, -0.07816700637340546, -0.027807731181383133, -0.03980998322367668 },
			{ 0.020331241190433502, 0.047509681433439255, 0.12450241297483444, 0.04498285800218582, -0.07010792940855026, -0.0857112929224968, 0.10896366089582443, 0.019844774156808853, -0.09908996522426605, -0.0847446396946907 },
			{ -0.07303714752197266, 0.05355202779173851, 0.008801901713013649, 0.006253023166209459, 0.019168177619576454, 0.0006632826989516616, 0.09440772235393524, 0.012558850459754467, -0.0861303061246872, -0.0566171258687973 },
			{ -0.002971818670630455, 0.053452543914318085, -0.02009606920182705, 0.10600414127111435, -0.06273822486400604, 0.05533139780163765, 0.03846735507249832, -0.008506513200700283, -0.03009212017059326, -0.02764803171157837 },
			{ -0.0318533256649971, 0.055962637066841125, -0.05473189800977707, 0.0266567375510931, -0.00452044140547514, 0.14713555574417114, 0.16942459344863892, -0.06597284227609634, -0.04074844345450401, -0.09972763806581497 },
			{ -0.06255064159631729, 0.021702082827687263, -0.09937267005443573, 0.038976989686489105, -0.058110930025577545, -0.007020306307822466, 0.16410186886787415, -0.04612969979643822, -0.07259167730808258, 0.006678195204585791 },
			{ -0.003767297137528658, -0.011275460943579674, -0.07187046110630035, 0.019956590607762337, -0.009138298220932484, 0.0010646439623087645, 0.08634603023529053, -0.02947068028151989, 0.00015761969552841038, 0.026655223220586777 },
			{ -0.06861164420843124, -0.029026616364717484, -0.016909049823880196, -0.006776358000934124, -0.009719726629555225, -0.020434444770216942, 0.05045323818922043, -0.0052605015225708485, -0.02668960951268673, -0.0524962842464447 },
			{ 0.012604344636201859, -0.024245694279670715, -0.04634540155529976, 0.03507392480969429, -0.008438607677817345, 0.06260377913713455, -0.032193753868341446, 0.03572844713926315, 0.017642246559262276, 0.06018756330013275 },
			{ -0.020267833024263382, -0.022273816168308258, 0.0458080992102623, -0.06082183122634888, 0.022458037361502647, -0.019582103937864304, -0.0038331300020217896, 0.030266698449850082, 0.04029805585741997, 0.024896293878555298 },
			{ -0.029044637456536293, -0.060482073575258255, -0.061158668249845505, 0.05685621500015259, 0.05124422907829285, -0.006176064722239971, -0.0051789660938084126, 0.05037255585193634, -0.0213436521589756, 0.030367393046617508 },
			{ -0.07342290878295898, 0.05115872249007225, -0.05711344629526138, 0.07809047400951385, 0.0447714701294899, -0.10227327793836594, -0.00618435675278306, 0.02242555469274521, -0.07304471731185913, 0.0243441853672266 },
			{ -0.021396925672888756, -0.05186370387673378, 0.04411618039011955, 0.03303219750523567, -0.02540128491818905, -0.019994592294096947, 0.0624125674366951, -0.026276173070073128, 0.04852743074297905, 0.015468303114175797 },
			{ -0.0025108102709054947, -0.09393511712551117, 0.10560748726129532, 0.15190452337265015, 0.010382195934653282, -0.11517629772424698, 0.029448889195919037, -0.0064783100970089436, 0.031188175082206726, -0.0465904138982296 },
			{ -0.11992707848548889, -0.06885787099599838, 0.04304792732000351, 0.054135002195835114, -0.025312475860118866, 0.06951527297496796, 0.05039341002702713, -0.10229221731424332, 0.07076925784349442, 0.011978444643318653 },
			{ -0.0448819138109684, 0.12249903380870819, 0.033504802733659744, -0.08035207539796829, -0.04550880566239357, 0.011814994737505913, -0.10047099739313126, -0.11257538199424744, 0.08333130180835724, 0.12410207092761993 },
			{ -0.0015333680203184485, 0.20150607824325562, -0.0686645656824112, -0.1332836151123047, 0.013824202120304108, 0.01765718124806881, -0.05000384896993637, -0.16862383484840393, 0.07782237231731415, -0.02580535039305687 },
			{ 0.13199035823345184, -0.0009758234955370426, 0.07106922566890717, -0.19710257649421692, 0.11284463107585907, 0.1090606078505516, 0.033069074153900146, -0.23349523544311523, 0.13926708698272705, -0.17578190565109253 },
			{ -0.003034979337826371, 0.08564485609531403, -0.03553231805562973, -0.1778290867805481, 0.06028648465871811, 0.22018200159072876, 0.10013186186552048, -0.1587420552968979, -0.005711904261261225, -0.10939126461744308 },
			{ -0.012984872795641422, 0.10438349097967148, -0.12027648091316223, -0.1082160621881485, 0.08041504770517349, 0.03715569153428078, 0.18709184229373932, -0.14748308062553406, 0.08763062953948975, -0.030903680250048637 },
			{ 0.05250032618641853, 0.0059618866071105, -0.09893696010112762, -0.11985316872596741, 0.1479143351316452, 0.05282563716173172, 0.06949502229690552, -0.13065160810947418, -0.04154108092188835, -0.06467289477586746 },
			{ -0.06824661046266556, -0.06654489040374756, -0.09732885658740997, -0.033841077238321304, 0.10669078677892685, 0.12422951310873032, -0.0020092898048460484, -0.029009927064180374, 0.028791790828108788, -0.03476612642407417 },
			{ -0.005760082975029945, 0.00949019379913807, -0.04833965748548508, 0.04510217532515526, 0.03826017305254936, 0.03790051490068436, 0.01664736121892929, -0.04299679398536682, -0.03485164791345596, -0.038934286683797836 },
			{ 0.06040331721305847, 0.017004989087581635, -0.030053284019231796, 0.04837021976709366, 0.003328931052237749, -0.022909682244062424, -0.010249280370771885, -0.03999001160264015, -0.04731868579983711, 0.0427679680287838 },
			{ 0.018572112545371056, 0.007968692108988762, 0.03975926712155342, 0.034532587975263596, -0.001630708808079362, -0.03452935442328453, -0.04049904644489288, 0.03962700814008713, 0.03572896867990494, -0.031063441187143326 },
			{ 0.03959455341100693, 0.046860221773386, -0.02166462317109108, 0.08630464226007462, 0.03885582089424133, -0.07027643918991089, 0.07345500588417053, -0.04456523433327675, 0.04648270085453987, -0.02100757695734501 },
			{ -0.09076385945081711, -0.11233539879322052, 0.07549237459897995, 0.14456422626972198, 0.10014049708843231, -0.10362076759338379, -0.04670243710279465, -0.039312124252319336, 0.005043013487011194, 0.032062068581581116 },
			{ -0.09368030726909637, -0.1733396202325821, 0.0007380538736470044, 0.025936920195817947, -0.09314557164907455, -0.011724824085831642, -0.06908899545669556, -0.1474701315164566, 0.14830945432186127, 0.1417406052350998 },
			{ -0.03167736157774925, -0.10578659176826477, -0.044709302484989166, 0.03959517553448677, -0.19671769440174103, 0.07454017549753189, -0.026806864887475967, 0.01028654258698225, 0.12240736931562424, 0.3677283823490143 },
			{ -0.0244236309081316, -0.21347306668758392, -0.0563640333712101, -0.029089346528053284, -0.2237088829278946, 0.03525588661432266, -0.06133769452571869, -0.02708515152335167, 0.1196584403514862, 0.22215835750102997 },
			{ -0.10141762346029282, -0.13570578396320343, 0.049718666821718216, 0.06749118119478226, -0.11818933486938477, 0.0640915259718895, -0.08292984217405319, -0.04214690253138542, 0.13336077332496643, 0.13400498032569885 },
			{ -0.06438465416431427, -0.1422206163406372, -0.029292719438672066, -0.10185586661100388, 0.0044649154879152775, 0.13337409496307373, -0.05508381500840187, -0.05428303778171539, 0.0730944350361824, 0.20684729516506195 },
			{ 0.047596801072359085, 0.10877275466918945, -0.23031364381313324, -0.050832267850637436, 0.036867059767246246, 0.17270776629447937, -0.031150318682193756, -0.0014995374949648976, -0.046166300773620605, -0.15846775472164154 },
			{ -0.13269682228565216, 0.09587479382753372, -0.08805093169212341, -0.11737862229347229, 0.2417425811290741, 0.234970360994339, -0.0676836147904396, -0.055314477533102036, -0.12400196492671967, -0.15686103701591492 },
			{ 0.15300898253917694, 0.018140919506549835, -0.09244801849126816, -0.08306688070297241, 0.24395973980426788, 0.182803675532341, -0.04231053590774536, -0.014518915675580502, -0.021625490859150887, -0.11649814993143082 },
			{ -0.019656626507639885, -0.056700024753808975, -0.1037459746003151, -0.004309105686843395, 0.16815273463726044, 0.1661911904811859, -0.012024849653244019, -0.11733417958021164, 0.05213751643896103, -0.08105413615703583 },
			{ -0.06897874921560287, -0.019724152982234955, -0.01461475994437933, -0.033164460211992264, 0.08345852047204971, 0.12599220871925354, -0.0011132066138088703, -0.03195933997631073, 0.06100206822156906, -0.044551167637109756 },
			{ -0.04905172437429428, 0.007822608575224876, -0.009170589968562126, -0.020418524742126465, 0.017062969505786896, 0.012961284257471561, 0.049528948962688446, -0.00840417668223381, -0.023730337619781494, -0.02784016728401184 },
			{ 0.04900204390287399, 0.021441107615828514, -0.04300813004374504, 0.105454221367836, -0.053267206996679306, -0.027606051415205002, -0.037655409425497055, 0.008574862033128738, -0.006531351245939732, -0.04543715715408325 },
			{ -0.08424994349479675, -0.008520049974322319, 0.14989934861660004, 0.10240696370601654, -0.015601826831698418, -0.04254073649644852, 0.083741694688797, -0.0671047568321228, -0.06487974524497986, -0.05428697168827057 },
			{ -0.02501835487782955, -0.11705702543258667, 0.05151600390672684, 0.04258627071976662, -0.11634239554405212, -0.13037630915641785, 0.019346367567777634, -0.08540081232786179, 0.1647968739271164, 0.1676478534936905 },
			{ 0.028608547523617744, -0.2006915658712387, -0.07636624574661255, -0.05134180188179016, -0.11400456726551056, -0.01554456539452076, 0.1007402315735817, -0.21904654800891876, 0.08311447501182556, 0.28749531507492065 },
			{ 0.04803897812962532, -0.15372717380523682, 0.21130438148975372, 0.032601650804281235, 0.04854035750031471, -0.17070774734020233, 0.05858391895890236, -0.22862204909324646, 0.061283230781555176, 0.26603925228118896 },
			{ -0.11281359195709229, -0.08806337416172028, -0.08482446521520615, -0.0018086296040564775, -0.03792651370167732, -0.0038806931115686893, -0.05278884619474411, -0.10062098503112793, 0.20767569541931152, 0.3148135244846344 },
			{ -0.05855493247509003, -0.1120389774441719, -0.25843122601509094, 0.007325583603233099, -0.06649559736251831, -0.10776086896657944, 0.08020789921283722, 0.013631385751068592, 0.09969678521156311, 0.46470898389816284 },
			{ -0.09516073018312454, -0.13733315467834473, -0.10033290088176727, 0.1920841932296753, 0.10761737078428268, -0.13624534010887146, -0.047056905925273895, 0.035560302436351776, 0.08200038969516754, 0.03398460894823074 },
			{ 0.021558387205004692, -0.008568414486944675, -0.041656166315078735, 0.09716548770666122, 0.2326306402683258, -0.16301074624061584, -0.09309735149145126, -0.007500053383409977, 0.09326067566871643, 0.0629228875041008 },
			{ -0.042725250124931335, -0.057657092809677124, -0.05522292107343674, 0.1215444803237915, 0.3560374081134796, -0.11902341991662979, -0.11119493842124939, 0.028424669057130814, 0.11126542836427689, -0.14020875096321106 },
			{ 0.055106163024902344, -0.022960491478443146, 0.08550896495580673, 0.15775667130947113, 0.18125924468040466, 0.03331567719578743, -0.19654539227485657, 0.019003603607416153, 0.03314012661576271, -0.32099708914756775 },
			{ -0.02127912826836109, -0.053307533264160156, 0.017352348193526268, -0.024809880182147026, 0.145294189453125, 0.14822044968605042, -0.06777708977460861, -0.06407467275857925, 0.1297329217195511, -0.17211182415485382 },
			{ -0.07607884705066681, -0.005173295736312866, 0.03770332783460617, -0.035433247685432434, -0.00948045402765274, 0.12969008088111877, 0.003245170693844557, -0.00360790453851223, 0.022104943171143532, 0.0036535426042973995 },
			{ 0.03042115829885006, 0.04242134839296341, -0.000697501702234149, 0.04714291915297508, -0.03377152979373932, 0.0233288761228323, 0.060786254703998566, -0.03862681984901428, 0.004052768927067518, -0.031122034415602684 },
			{ 0.04152974486351013, 0.046949390321969986, 0.03978784382343292, 0.0715746134519577, -0.05141349136829376, -0.042148325592279434, 0.04700307920575142, 0.007459006272256374, -0.05136336013674736, -0.04090020805597305 },
			{ -0.09980713576078415, -0.03269080072641373, 0.12562422454357147, 0.03019137494266033, -0.11349981278181076, -0.10838526487350464, -0.06587857753038406, 0.13573992252349854, -0.07367070764303207, 0.11670555919408798 },
			{ 0.2512952387332916, -0.07409079372882843, -0.09523144364356995, 0.054407164454460144, -0.07017091661691666, -0.075398288667202, -0.0005179300787858665, -0.06329737603664398, 0.11555547267198563, 0.21610412001609802 },
			{ -0.0037599909119307995, -0.14768832921981812, -0.05112363025546074, -0.09997720271348953, 0.27332159876823425, 0.005718638654798269, 0.05686400830745697, -0.2287711799144745, 0.17172913253307343, 0.189088836312294 },
			{ 0.07881687581539154, -0.08366066217422485, -0.24981792271137238, -0.030214931815862656, 0.2125643640756607, -0.02009347267448902, 0.03864193335175514, -0.225505068898201, -0.017450958490371704, 0.3930128812789917 },
			{ -0.05032936483621597, -0.22234603762626648, -0.3339821696281433, 0.1007874459028244, 0.27622002363204956, 0.09010431170463562, -0.012037673965096474, -0.35926514863967896, -0.08672579377889633, 0.37581154704093933 },
			{ -0.015119899064302444, 0.004686427302658558, -0.41302019357681274, 0.19743432104587555, -0.12798886001110077, -0.13281075656414032, 0.006510756444185972, -0.26723381876945496, 0.18955014646053314, 0.35461631417274475 },
			{ -0.16356483101844788, -0.11566369980573654, -0.14451125264167786, 0.15581035614013672, 0.14482618868350983, -0.24127402901649475, -0.06966251134872437, 0.25007516145706177, 0.25611141324043274, -0.10907872766256332 },
			{ -0.05286576971411705, -0.13708627223968506, -0.07655448466539383, 0.15148554742336273, 0.15220467746257782, -0.3912750482559204, -0.18034480512142181, 0.31327158212661743, 0.18891726434230804, 0.0008014946943148971 },
			{ -0.008972506038844585, -0.05377868935465813, 0.03715166822075844, 0.12629516422748566, 0.08137496560811996, -0.2596186399459839, -0.2108568549156189, 0.16848738491535187, 0.18482860922813416, -0.11179284751415253 },
			{ 0.058624256402254105, -0.055640775710344315, 0.06844072788953781, 0.09284631162881851, 0.04899240657687187, -0.14050063490867615, -0.22197237610816956, 0.1005515530705452, 0.09114102274179459, -0.07480021566152573 },
			{ 0.06082121282815933, -0.09649084508419037, -0.044133737683296204, -0.09709779918193817, -0.09801275283098221, 0.05676351860165596, -0.041403528302907944, -0.07429952174425125, 0.20910824835300446, -0.02346115931868553 },
			{ -0.07939860224723816, -0.044622812420129776, -0.009748565033078194, -0.015483169816434383, 0.012018829584121704, 0.12263631075620651, -0.025686100125312805, 0.04082656651735306, 0.056692879647016525, -0.03392991051077843 },
			{ 0.018756601959466934, 0.06118921935558319, -0.02437078021466732, -0.049362242221832275, -0.002952562877908349, -0.023710332810878754, 0.00445566838607192, 0.00040755432564765215, -0.06155432388186455, -0.03351566195487976 },
			{ 0.006610963959246874, -0.0617443211376667, -0.0008696477743797004, -0.04051326960325241, -0.08439457416534424, -0.06814338266849518, -0.0024535437114536762, 0.06811465322971344, 0.0132851991802454, -0.03438825532793999 },
			{ -0.0367775484919548, 0.07322481274604797, -0.04276735708117485, 0.057542718946933746, -0.02833021804690361, -0.1485549509525299, 0.02588574029505253, 0.14437425136566162, -0.022144408896565437, 0.16932447254657745 },
			{ 0.2938697636127472, -0.07851545512676239, -0.28193384408950806, -0.15642908215522766, 0.16231125593185425, -0.09896266460418701, 0.1468406766653061, -0.023991931229829788, -0.038250815123319626, 0.09274868667125702 },
			{ -0.05579278990626335, -0.00598872872069478, -0.04783281311392784, -0.10046351701021194, 0.1517009139060974, 0.12574632465839386, 0.1625162661075592, -0.03784243389964104, -0.1748957484960556, -0.1345473676919937 },
			{ 0.14994746446609497, -0.2526254951953888, -0.052397437393665314, 0.032427068799734116, 0.231284961104393, 0.1432902067899704, 0.09262517839670181, -0.12595759332180023, -0.2588518261909485, 0.19377081096172333 },
			{ -0.11588526517152786, -0.15372824668884277, -0.3078978359699249, 0.14758723974227905, 0.14527511596679688, 0.2478947788476944, 0.1503514051437378, -0.4026610851287842, -0.004244709387421608, 0.2518400549888611 },
			{ -0.278457909822464, 0.1439012736082077, -0.3387017548084259, 0.2825371325016022, -0.14752234518527985, 0.0025891284458339214, 0.10990317910909653, -0.08138908445835114, 0.09833928197622299, 0.3242701292037964 },
			{ -0.3567761182785034, 0.03560606390237808, -0.15322256088256836, 0.08390379697084427, -0.04770810529589653, -0.22423268854618073, 0.04550173506140709, 0.4102380871772766, 0.26930704712867737, -0.07930968701839447 },
			{ -0.07153961062431335, 0.09468114376068115, -0.07261548191308975, -0.011753524653613567, 0.20404642820358276, -0.3552132844924927, -0.157228022813797, 0.32659024000167847, 0.21821774542331696, -0.09474071115255356 },
			{ 0.0043817805126309395, -0.08736967295408249, 0.10304880887269974, -0.05253385752439499, 0.2357153296470642, -0.2533950209617615, -0.02516317181289196, 0.08632175624370575, 0.13673730194568634, -0.07379426807165146 },
			{ 0.14487196505069733, -0.07994222640991211, 0.03234882280230522, -0.09807777404785156, 0.10415482521057129, -0.4205288887023926, 0.020152412354946136, -0.035683900117874146, 0.20333074033260345, -0.003857128554955125 },
			{ 0.17127017676830292, -0.062060751020908356, 0.13327892124652863, -0.03351148962974548, -0.06899737566709518, -0.18321113288402557, 0.08976364135742188, -0.023066066205501556, 0.12996362149715424, -0.04603858292102814 },
			{ -0.03768349066376686, -0.03307677060365677, 0.09973601251840591, -0.0015091777313500643, 0.013557368889451027, 0.06848541647195816, -0.0886511579155922, 0.01054441649466753, 0.009603098034858704, 0.01512248907238245 },
			{ -0.04858816787600517, 0.03447654843330383, -0.06299670040607452, -0.012308691628277302, 0.011853676289319992, -0.04133456200361252, 0.04130859300494194, -0.052048563957214355, -0.016275832429528236, 0.029219305142760277 },
			{ 0.001226115389727056, 0.017365388572216034, -0.037206314504146576, 0.051852140575647354, -0.02417047694325447, 0.04476688429713249, -0.04355957731604576, 0.03398393839597702, 0.03636260703206062, -0.054541803896427155 },
			{ 0.12663373351097107, -0.03969103470444679, -0.055332865566015244, -0.13655993342399597, 0.12533703446388245, -0.05298280343413353, 0.00815503764897585, 0.06859050691127777, -0.05308152735233307, 0.027121108025312424 },
			{ 0.28023284673690796, -0.03040243685245514, 0.1089109256863594, -0.29656317830085754, 0.1000051274895668, -0.0005215539713390172, 0.10354111343622208, -0.03848113492131233, -0.23368602991104126, 0.05073089897632599 },
			{ 0.09163492918014526, -0.015442177653312683, 0.08247871696949005, -0.2636682093143463, 0.20005391538143158, -0.22840550541877747, 0.11422786116600037, 0.007794949691742659, -0.14078950881958008, -0.14339399337768555 },
			{ 0.2191927284002304, -0.26500949263572693, 0.13674640655517578, -0.23605574667453766, 0.06110493838787079, 0.06408770382404327, -0.006558178924024105, -0.024137191474437714, -0.0887775719165802, -0.011358095332980156 },
			{ -0.0406104177236557, 0.04786059260368347, 0.021681765094399452, 0.07217101752758026, 0.09964803606271744, 0.13822361826896667, 0.138264000415802, -0.4723491072654724, 0.08236561715602875, 0.09599505364894867 },
			{ -0.4640405476093292, 0.3497109115123749, -0.13430732488632202, 0.1906725913286209, -0.23446907103061676, -0.03755601868033409, 0.22544138133525848, -0.15773147344589233, 0.14744965732097626, 0.04616018757224083 },
			{ -0.3133692443370819, 0.16607321798801422, 0.11415383219718933, 0.03581596910953522, 0.1414862424135208, -0.3088248074054718, 0.12063321471214294, 0.10696860402822495, -0.014075865969061852, -0.1314743161201477 },
			{ -0.07016567885875702, -0.14180581271648407, 0.1780049204826355, -0.2027769386768341, 0.12784628570079803, -0.18484164774417877, -0.046527933329343796, 0.4001363217830658, 0.025001874193549156, -0.10852605104446411 },
			{ 0.10820424556732178, -0.049295030534267426, 0.11543228477239609, -0.0779040977358818, 0.1058407723903656, -0.23122282326221466, -0.0655602291226387, 0.21541911363601685, -0.16398146748542786, 0.16593872010707855 },
			{ 0.29485324025154114, -0.041062843054533005, 0.09105091542005539, -0.12436415255069733, 0.046029191464185715, -0.21572841703891754, 0.11527328938245773, 0.20128531754016876, -0.21301116049289703, -0.09143488109111786 },
			{ 0.18483957648277283, -0.004943660460412502, 0.18943332135677338, -0.07864957302808762, -0.06435638666152954, 0.01899043656885624, 0.03402557596564293, 0.07459495216608047, -0.07148637622594833, -0.1367044299840927 },
			{ 0.03415144607424736, -0.015403931960463524, 0.09092792868614197, -0.05188223719596863, 0.07427874207496643, 0.0028041661716997623, -0.009493361227214336, -0.02654065191745758, 0.004672384820878506, -0.0264983382076025 },
			{ -0.0006613802979700267, 0.016337426379323006, -0.031631436198949814, 0.016361556947231293, -0.04694237932562828, 0.025405842810869217, 0.006227311212569475, -0.023080410435795784, 0.058014657348394394, 0.0068755559623241425 },
			{ 0.012814376503229141, 0.03885124623775482, 0.07827331870794296, -0.001258687931112945, 0.012078406289219856, -0.014140751212835312, 0.017024042084813118, 0.07711410522460938, -0.024336883798241615, 0.006283359136432409 },
			{ 0.04615017771720886, -0.04148697480559349, 0.12520357966423035, -0.08138684183359146, 0.031515758484601974, -0.12508875131607056, 0.006713912822306156, -0.04022352024912834, -0.1648671180009842, 0.0388149730861187 },
			{ 0.21595250070095062, -0.12586189806461334, 0.30064648389816284, -0.27820026874542236, 0.08055291324853897, -0.12605103850364685, 0.011847714893519878, -0.01773722469806671, 0.016763798892498016, -0.12067845463752747 },
			{ 0.043108295649290085, -0.07849342375993729, 0.24363458156585693, -0.2614694833755493, 0.04975536838173866, -0.16384264826774597, 0.05304935574531555, 0.10787473618984222, 0.15531235933303833, -0.0838865339756012 },
			{ 0.1379995197057724, -0.1681729108095169, 0.27567487955093384, -0.3280680179595947, -0.19441455602645874, -0.31263837218284607, 0.12897849082946777, 0.06354554742574692, 0.2546232342720032, -0.05950680002570152 },
			{ -0.011915373615920544, -0.21004794538021088, 0.2368924617767334, 0.020074667409062386, -0.014801203273236752, -0.11370547860860825, 0.25364068150520325, -0.29726919531822205, 0.3973357379436493, -0.13612206280231476 },
			{ -0.25260865688323975, 0.1966378390789032, 0.22242987155914307, -0.17901867628097534, -0.05651569366455078, -0.12113497406244278, 0.051262080669403076, 0.011973746120929718, 0.09368761628866196, 0.023239431902766228 },
			{ 0.09454023092985153, 0.1326785683631897, 0.13292476534843445, -0.19144651293754578, -0.03920675814151764, -0.18483763933181763, 0.127964049577713, 0.17591813206672668, -0.072267085313797, -0.037877123802900314 },
			{ 0.010609141550958157, -0.18728457391262054, 0.1282958984375, 0.04594886302947998, 0.02399732545018196, -0.15607495605945587, 0.1513204574584961, 0.1781313568353653, -0.12192137539386749, -0.0013426275691017509 },
			{ 0.047727227210998535, -0.07554549723863602, 0.08846556395292282, -0.04782101884484291, -0.0084240036085248, -0.05798383057117462, 0.02388177625834942, 0.14907869696617126, -0.32542166113853455, 0.00782715156674385 },
			{ 0.0905083492398262, -0.023561721667647362, -0.012159746140241623, 0.023885004222393036, -0.003113339189440012, -0.06597194075584412, 0.10582444816827774, 0.07341940701007843, -0.17311204969882965, -0.05029582232236862 },
			{ 0.085581474006176, 0.07227049022912979, 0.16297639906406403, 0.03851986676454544, -0.04420320689678192, 0.012564612552523613, -0.01270141452550888, -0.07411892712116241, -0.02957822196185589, -0.15532034635543823 },
			{ -0.03353423997759819, -0.048205822706222534, 0.05297989398241043, -0.07415899634361267, 0.03605613857507706, 0.02076428011059761, 0.015072882175445557, -0.00592900812625885, -0.014499347656965256, -0.03373245894908905 },
			{ -0.004246328957378864, -0.0019360213773325086, -0.037625931203365326, -0.017195621505379677, 0.05873120576143265, -0.029907820746302605, -0.05923183634877205, 0.02566501498222351, 0.01506906095892191, -0.058606214821338654 },
			{ -0.039203498512506485, 0.027518851682543755, 0.0423516221344471, 0.011352493427693844, -0.00465786550194025, -0.03380030393600464, -0.03868412598967552, 0.002207081764936447, 0.009749731048941612, -0.08769714087247849 },
			{ 0.07591895759105682, 0.020392373204231262, 0.22809267044067383, 0.04983115196228027, 0.017497297376394272, 0.007956920191645622, -0.09145598858594894, -0.0766274705529213, -0.09325414896011353, -0.05906474217772484 },
			{ 0.16732193529605865, -0.14410975575447083, 0.25219348073005676, -0.1864955872297287, -0.11075332760810852, -0.04393335431814194, -0.008415001444518566, -0.06157928332686424, 0.21645797789096832, 0.005505735985934734 },
			{ 0.10935525596141815, 0.03966796398162842, 0.2631877064704895, -0.23038385808467865, -0.06329089403152466, -0.15364912152290344, 0.0027547082863748074, 0.012499752454459667, 0.20322741568088531, -0.17883916199207306 },
			{ 0.14430007338523865, -0.2803947329521179, 0.4038473963737488, -0.2633139491081238, -0.04030492529273033, -0.166118323802948, 0.10684061050415039, -0.06921562552452087, 0.2971087694168091, -0.020806580781936646 },
			{ 0.10527028143405914, -0.41332826018333435, 0.1241045594215393, -0.13987290859222412, -0.09255065768957138, -0.14913912117481232, 0.22346724569797516, -0.01666989177465439, 0.36243727803230286, -0.07700449228286743 },
			{ 0.050576914101839066, -0.08390031009912491, 0.26896539330482483, -0.24295417964458466, 0.0055878786370158195, -0.1871299296617508, 0.10394169390201569, -0.02386748418211937, 0.04668355733156204, -0.054046668112277985 },
			{ -0.03107127547264099, -0.1368582546710968, 0.118067666888237, -0.029590150341391563, 0.01709727570414543, -0.05861486494541168, 0.20033396780490875, -0.02270274981856346, -0.06462312489748001, -0.07783086597919464 },
			{ -0.02135690115392208, 0.03690582513809204, 0.11397616565227509, 0.07842730730772018, -0.07382981479167938, 0.06070920079946518, 0.20307792723178864, 0.012472923845052719, -0.14153450727462769, -0.2333315759897232 },
			{ 0.061010148376226425, -0.09191668033599854, 0.1243378296494484, -0.0349513441324234, 0.041383687406778336, 0.0018713378813117743, -0.08670678734779358, 0.1803945153951645, -0.035201799124479294, -0.04340260475873947 },
			{ 0.10299837589263916, -0.06041564792394638, -0.03182259947061539, 0.0771300196647644, -0.05054670199751854, 0.08500764518976212, 0.07126452773809433, 0.01748483069241047, 0.12064560502767563, -0.1108923852443695 },
			{ 0.0229797400534153, 0.057543255388736725, 0.07214885950088501, -0.020067662000656128, -0.016262780874967575, -0.008395403623580933, 0.024557381868362427, -0.011638497933745384, 0.03544100373983383, -0.025412678718566895 },
			{ 0.010096478275954723, 0.021633462980389595, 0.11705674231052399, -0.01906176656484604, 0.03277305141091347, 0.013318495824933052, -0.015622707083821297, 0.03733639791607857, 0.039030611515045166, -0.00862774346023798 },
			{ -0.04057076945900917, -0.04959167540073395, 0.017998987808823586, -0.03308434039354324, -0.010193202644586563, -0.014017218723893166, 0.029682837426662445, -0.013873646967113018, -0.04359012097120285, 0.0231794323772192 },
			{ -0.0198199525475502, 0.006665230728685856, 0.15622179210186005, 0.012217662297189236, -0.0326886810362339, 0.050794899463653564, 0.04240771755576134, -0.0659601166844368, 0.008496945723891258, -0.035084858536720276 },
			{ -0.01252079103142023, -0.003748409915715456, 0.04105670005083084, 0.14694662392139435, 0.0615776851773262, 0.05949145928025246, -0.04198688641190529, -0.049253180623054504, -0.06548675894737244, -0.12022976577281952 },
			{ 0.06044575944542885, 0.2064954787492752, 0.1607740819454193, -0.04347119852900505, -0.07628590613603592, -0.019762562587857246, -0.207605242729187, -0.1530449241399765, 0.1488921195268631, -0.05185204744338989 },
			{ -0.15314465761184692, 0.04634329676628113, 0.12132717669010162, -0.1243605688214302, -0.08065889775753021, 0.11865770071744919, -0.0659313052892685, 0.0090597253292799, 0.1424974650144577, -0.0802587941288948 },
			{ 0.10434983670711517, -0.14353647828102112, 0.21847403049468994, -0.1111554503440857, -0.1261090487241745, 0.031960006803274155, -0.05389336124062538, -0.020725412294268608, 0.10308793932199478, -0.20295871794223785 },
			{ 0.15173202753067017, -0.30385008454322815, 0.06233840435743332, -0.15562701225280762, -0.18963997066020966, -0.027787232771515846, 0.23556339740753174, 0.08523593842983246, 0.3021397292613983, -0.16521161794662476 },
			{ 0.006377124693244696, -0.11903876066207886, 0.06750424206256866, -0.015321400947868824, -0.06731355935335159, 0.034487996250391006, 0.2006695568561554, -0.03619863837957382, 0.14798296988010406, -0.24003666639328003 },
			{ -0.07131385058164597, -0.08861661702394485, 0.16646252572536469, -0.007690898608416319, -0.02814585343003273, -0.059281472116708755, 0.08821328729391098, -0.14464744925498962, 0.1495797038078308, -0.10484359413385391 },
			{ -0.061114273965358734, 0.06787572801113129, 0.024288151413202286, 0.22535112500190735, -0.0613325797021389, 0.10157164186239243, -0.021942785009741783, -0.21639354526996613, 0.10158905386924744, -0.07984691113233566 },
			{ -0.13569271564483643, -0.04090997949242592, -0.02192828059196472, 0.11943509429693222, -0.0201540719717741, 0.1729191541671753, 0.015260686166584492, -0.1280542016029358, 0.0820007398724556, -0.10330954194068909 },
			{ -0.011188176460564137, -0.04345453158020973, -0.0169683787971735, 0.010349375195801258, -0.03740006312727928, 0.12485997378826141, 0.05339199677109718, -0.1485452800989151, 0.11654209345579147, -0.021273596212267876 },
			{ -0.10603795200586319, 0.053341273218393326, 0.011546188034117222, -0.04320802539587021, 0.0016459041507914662, 0.0111412787809968, -0.04538552090525627, -0.07041653990745544, 0.014438828453421593, 0.12495997548103333 },
			{ -0.0395234040915966, -0.05067429691553116, 0.05083279311656952, 0.04148226976394653, -0.06878702342510223, -0.02344238944351673, -0.02620224468410015, 0.008316721767187119, -0.01668737269937992, -0.006503702141344547 },
			{ 0.03710893169045448, 0.06037003919482231, -0.05655483901500702, 0.0062891636043787, -0.0450250618159771, 0.029285116121172905, -0.05771653354167938, 0.01467183418571949, -0.029998155310750008, 0.026467405259609222 },
			{ -0.06811318546533585, -0.008174625225365162, 0.11049719154834747, -0.07843269407749176, 0.017295917496085167, 0.018430719152092934, -0.03605792298913002, 0.018685178831219673, -0.04827981814742088, 0.05129501596093178 },
			{ 0.015330374240875244, 0.10834489017724991, -0.0404207669198513, 0.06293386965990067, -0.05185287445783615, 0.12568533420562744, -0.06597673147916794, 0.06050289049744606, -0.06299861520528793, 0.028379859402775764 },
			{ 0.0639786422252655, 0.08389325439929962, -0.0017974311485886574, 0.026731126010417938, -0.04563198238611221, -0.07745779305696487, -0.10646279156208038, 0.13372567296028137, -0.07094483077526093, 0.03435265272855759 },
			{ -0.0543149895966053, 0.04653139412403107, -0.004025234840810299, -0.02131054364144802, -0.025964708998799324, 0.019511742517352104, -0.03791442885994911, 0.10346692055463791, -0.02138860709965229, 0.09959232062101364 },
			{ 0.1072579175233841, -0.18792085349559784, -0.031596839427948, 0.16285698115825653, -0.030966071411967278, 0.11558997631072998, -0.07572928816080093, -0.0009546427172608674, -0.09277897328138351, -0.021372782066464424 },
			{ 0.10150022059679031, -0.19308876991271973, -0.0578656829893589, 0.21725481748580933, -0.021694857627153397, 0.19176895916461945, 0.03005705028772354, -0.09759759157896042, 0.03407956659793854, -0.07503552734851837 },
			{ 0.06112835556268692, -0.06632566452026367, -0.13047099113464355, 0.17878827452659607, -0.04654577374458313, 0.14797824621200562, -0.12133427709341049, -0.04218975454568863, 0.08742763102054596, -0.19450350105762482 },
			{ 0.04454527795314789, -0.11741508543491364, -0.0724978968501091, 0.1751859486103058, -0.020108019933104515, 0.032609350979328156, 0.04050959646701813, -0.044530175626277924, 0.17196282744407654, -0.20806922018527985 },
			{ 0.00645816745236516, -0.05343436077237129, 0.009437840431928635, 0.032843295484781265, 0.04695601388812065, 0.12994125485420227, -0.019008375704288483, -0.10210113972425461, 0.08749991655349731, -0.17460878193378448 },
			{ -0.08586450666189194, 0.020518742501735687, -0.11761928349733353, -0.01595085673034191, 0.13278448581695557, 0.14217877388000488, 0.033165670931339264, -0.07821448147296906, 0.02477302774786949, -0.013077687472105026 },
			{ -0.08336233347654343, -0.07053723931312561, -0.0804513469338417, 0.025816572830080986, 0.12106359004974365, 0.06939519941806793, -0.057521238923072815, -0.17844243347644806, 0.1011592447757721, 0.031044449657201767 },
			{ -0.03163129463791847, 0.01039438508450985, 0.027212344110012054, -0.06333686411380768, -0.05127812176942825, 0.0010335765546187758, -0.06812835484743118, -0.005529068876057863, -0.07729736715555191, 0.0630529597401619 },
			{ -0.008275208063423634, -0.059676431119441986, -0.0025706496089696884, -0.06259946525096893, 0.022723956033587456, 0.01639033667743206, -0.05708833411335945, -0.04803689196705818, 0.030782345682382584, 0.04066655784845352 },
			{ -0.024590054526925087, 0.05989547073841095, -0.055920954793691635, 0.012405537068843842, -0.029405778273940086, -0.003202573861926794, 0.02956526167690754, -0.022782037034630775, 0.030951213091611862, -0.054174892604351044 },
			{ 0.019745709374547005, 0.00022809780784882605, -0.00603986531496048, 0.017145048826932907, -0.03790635988116264, -0.049995195120573044, -0.04661022126674652, -0.0008987843757495284, -0.01071284618228674, 0.00635584956035018 },
			{ -0.0600426122546196, 0.006550130434334278, -0.13855727016925812, 0.11013814061880112, 0.011695916764438152, -0.05438555032014847, -0.030314452946186066, 0.1433854103088379, -0.06921540945768356, 0.07331544160842896 },
			{ 0.010127712972462177, -0.014368455857038498, -0.16599711775779724, 0.167344331741333, -0.011888863518834114, 0.0035097890067845583, -0.06382081657648087, 0.26851212978363037, -0.12568028271198273, 0.09221997857093811 },
			{ -0.0949878916144371, 0.042881596833467484, -0.1318613737821579, 0.1807618886232376, -0.02041567675769329, 0.07244335114955902, -0.10383065044879913, 0.127696231007576, -0.12474994361400604, 0.05537090077996254 },
			{ -0.09354329854249954, -0.06378059089183807, -0.03225172311067581, 0.2524227201938629, -0.05381739139556885, 0.1724582314491272, -0.08414498716592789, 0.0558137372136116, -0.11601349711418152, 0.14146941900253296 },
			{ -0.026838235557079315, -0.044610098004341125, -0.10136798024177551, 0.220224067568779, -0.05007769912481308, 0.20863229036331177, -0.13830307126045227, -0.05925201624631882, 0.05750254914164543, -0.0463508740067482 },
			{ -0.10353489965200424, 0.02647249959409237, -0.05315030366182327, 0.04259201139211655, 0.07613293826580048, 0.23601281642913818, -0.09925290197134018, 0.09316141158342361, 0.006228327751159668, -0.16651035845279694 },
			{ -0.13761669397354126, -0.18309201300144196, -0.1788923591375351, 0.1270657181739807, -0.010738861747086048, 0.18703284859657288, -0.08141009509563446, 0.06584335118532181, 0.11661122739315033, -0.018208764493465424 },
			{ -0.2202969789505005, -0.026253901422023773, -0.0879959836602211, 0.10925327241420746, 0.08673693239688873, 0.12640555202960968, -0.02739960141479969, -0.04337484389543533, -0.039421938359737396, -0.08120416104793549 },
			{ -0.10848665982484818, 0.08202102035284042, -0.10436971485614777, 0.06837458908557892, 0.010542462579905987, 0.08919345587491989, -0.012064824812114239, 0.03190648555755615, 0.006207163445651531, 0.08225090801715851 },
			{ -0.01598476804792881, 0.05847550928592682, -0.032221727073192596, 0.030312219634652138, 0.04008316621184349, 0.03822166100144386, -0.03749500587582588, -0.045435965061187744, -0.07471533864736557, 0.06893978267908096 },
			{ -0.06670381128787994, -0.060177356004714966, 0.03952031955122948, -0.04946302995085716, -0.04479508101940155, 0.06960128992795944, -0.055065106600522995, -0.02294374816119671, -0.013712977059185505, 0.028643939644098282 },
			{ -0.04364755377173424, -0.048087507486343384, 0.01754220388829708, -0.05563382804393768, -0.03759074956178665, 0.032780781388282776, 0.005827592685818672, -0.00936042983084917, -0.028323378413915634, 0.0009588455432094634 },
			{ 0.0009047291823662817, 0.022621046751737595, 0.04994591325521469, 0.006254562176764011, -0.03514028340578079, 0.005672564264386892, -0.036254771053791046, 0.0011555538512766361, -0.02871095947921276, -0.04907089099287987 },
			{ -0.01950937509536743, -0.016863234341144562, 0.04912117123603821, -0.017905674874782562, 0.05664236471056938, 0.017055239528417587, 0.05900728330016136, 0.008738732896745205, 0.04791891574859619, 0.059617701917886734 },
			{ -0.060174740850925446, -0.037027545273303986, -0.07775072753429413, 0.03885531425476074, -0.024179428815841675, -0.029144736006855965, 0.014516308903694153, -0.04271971061825752, 0.02794678322970867, -0.01799277402460575 },
			{ -0.07998202741146088, -0.009083537384867668, 0.053094130009412766, 0.0770275890827179, 0.03069942258298397, -0.0044461460784077644, -0.05601240321993828, 0.031482622027397156, 0.0320408008992672, 0.054499126970767975 },
			{ 0.0016564824618399143, -0.0035078260116279125, -0.08892722427845001, 0.06382535398006439, -0.06574223190546036, 0.03553234040737152, 0.048855483531951904, 0.1686483770608902, -0.058495525270700455, 0.056216247379779816 },
			{ -0.00375165231525898, -0.09911958128213882, -0.02948475442826748, 0.11486562341451645, -0.06416238844394684, 0.03191470727324486, -0.013023154810070992, 0.11080656200647354, -0.07391304522752762, 0.08411158621311188 },
			{ -0.09661389887332916, -0.056304991245269775, -0.0561937540769577, 0.10429692268371582, -0.1084883064031601, -0.003929453901946545, 0.04769286513328552, 0.019495947286486626, -0.06259776651859283, 0.15496668219566345 },
			{ -0.038124311715364456, -0.06150006130337715, -0.0028579384088516235, -0.02638981305062771, -0.030648788437247276, -0.09433944523334503, 0.006721618119627237, 0.12077677249908447, -0.04359329119324684, 0.15684418380260468 },
			{ -0.11793183535337448, -0.025476692244410515, -0.10507147759199142, 0.025017863139510155, -0.10074830055236816, 0.06202712282538414, -0.06300222128629684, 0.14932774007320404, -0.0027480486314743757, 0.1474054902791977 },
			{ 0.018459415063261986, -0.029231661930680275, -0.06511273235082626, -0.02250860445201397, -0.14632593095302582, -0.005675879772752523, -0.037370286881923676, 0.03481544181704521, -0.06663826107978821, 0.09861457347869873 },
			{ -0.07112465053796768, 0.05653730779886246, -0.05987167730927467, 0.02744150534272194, -0.10222923755645752, 0.04078961908817291, 0.04465167596936226, 0.03499916195869446, 0.0027161373291164637, 0.15545403957366943 },
			{ -0.018361743539571762, 0.0029801419004797935, -0.050195954740047455, 0.03688498213887215, 0.041796356439590454, 0.004383474588394165, -0.050443507730960846, 0.02376917004585266, -0.021732907742261887, -0.018039537593722343 },
			{ 0.046752624213695526, 0.0018147449009120464, 0.014406559057533741, -0.006491607986390591, -0.048252299427986145, -0.014114541001617908, -0.059237755835056305, -0.025725791230797768, 0.024320315569639206, -0.03472214564681053 },
			{ -0.009397015906870365, -0.054732758551836014, -0.05527566000819206, -0.025987986475229263, 0.01783604547381401, -0.027051659300923347, -0.05967186018824577, 0.004723251797258854, -0.05380672588944435, 0.013182002119719982 },
			{ 0.03376903757452965, 0.013232734054327011, 0.044235918670892715, 0.002670254558324814, 0.039640236645936966, -0.040936291217803955, 0.043317850679159164, 0.014370795339345932, 0.02701655402779579, -0.0243258997797966 },
			{ -0.02542133629322052, -0.04372871294617653, 0.035264212638139725, 0.03193845972418785, 0.001130577176809311, 0.05706532672047615, 0.058612484484910965, 0.015086065977811813, 0.03014402464032173, 0.017491351813077927 },
			{ -0.024894963949918747, 0.006333973258733749, 0.013744596391916275, -0.022959332913160324, -0.016041725873947144, 0.058588746935129166, -0.05271535366773605, -0.0005615092813968658, 0.013973910361528397, 0.030356857925653458 },
			{ -0.06071268767118454, -0.009583510458469391, 0.005208101123571396, 0.05986642464995384, -0.006832413375377655, -0.0026714131236076355, -0.04635968059301376, 0.01440441980957985, 0.0411333329975605, 0.03713658079504967 },
			{ -0.052660562098026276, -0.03032151609659195, 0.05970129743218422, -0.028315022587776184, -0.040374722331762314, 0.054864656180143356, -0.03721745312213898, -0.0276760496199131, -0.04625765234231949, -0.010492414236068726 },
			{ -0.03467678278684616, 0.04956218972802162, 0.011448968201875687, 0.04337308183312416, 0.0020413659512996674, -0.013159610331058502, 0.040519166737794876, -0.027496132999658585, 0.04386018589138985, 0.0570148266851902 },
			{ -0.018310565501451492, -0.04780368134379387, -0.04448263719677925, -0.05069160461425781, 0.059150662273168564, -0.02250346913933754, 0.011433180421590805, -0.05501392111182213, 0.048911791294813156, -0.0008983947336673737 },
			{ -0.02568640559911728, 0.005377668887376785, 0.0298878513276577, 0.0033450089395046234, 0.04461924359202385, -0.05877022072672844, 0.03121073916554451, -0.03544759750366211, 0.039817240089178085, 0.012999732047319412 },
			{ 0.016113702207803726, -0.024225767701864243, 0.02773400768637657, -0.058057576417922974, -0.02541988343000412, 0.005332518368959427, -0.012954182922840118, 0.05574231222271919, -0.05424587056040764, -0.01981355994939804 },
			{ 0.05086340382695198, -0.011286988854408264, 0.03366762772202492, -0.060894675552845, -0.05848284810781479, -0.03285408765077591, -0.057958826422691345, 0.030222732573747635, -0.0030920393764972687, -0.011596675962209702 },
			{ 0.03421643003821373, 0.01960056647658348, 0.043752823024988174, -0.05592887103557587, 0.011559758335351944, -0.004713822156190872, -0.057514872401952744, -0.03565015643835068, -0.006303701549768448, 0.01733238622546196 },
			{ -0.05140146613121033, -0.03470025956630707, 0.023315642029047012, -0.016406908631324768, -0.051178544759750366, -0.003959354013204575, -0.0465354397892952, 0.003405090421438217, -0.019231293350458145, 0.04716850444674492 },
			{ 0.010521937161684036, -0.036635614931583405, 0.04390611872076988, 0.03581932559609413, -0.05835637077689171, -0.019741889089345932, 0.000505395233631134, -0.02350291982293129, 0.04387861117720604, 0.012512389570474625 },
			{ 0.017292778939008713, -0.050428297370672226, 0.04312221333384514, -0.012643322348594666, 0.06082763895392418, 0.04255407676100731, 0.06152443215250969, -0.0009189918637275696, -0.03554942086338997, -0.0072236210107803345 },
			{ -0.03137877583503723, 0.012922678142786026, -0.0483495332300663, 0.02061595395207405, -0.03757305443286896, -0.04506843537092209, -0.025117576122283936, -2.8755515813827515e-05, 0.03725690022110939, -0.01188470795750618 },
			{ -0.003186393529176712, -0.002844110131263733, 0.02013702318072319, 0.026512693613767624, -0.04768577218055725, -0.047425057739019394, 0.032693397253751755, 0.016179051250219345, 0.03265241160988808, 0.02546769008040428 },
			{ -0.04469216242432594, 0.036078352481126785, 0.0395701564848423, -0.004904087632894516, -0.04408812150359154, -0.03764311969280243, -0.04648155719041824, 0.007325429469347, 0.00997212901711464, 0.06087939068675041 },
			{ 0.027479376643896103, 0.04174746200442314, -0.013518914580345154, 0.024907831102609634, 0.004408691078424454, 0.015012454241514206, -0.012894436717033386, 0.037865880876779556, -0.007315371185541153, -0.024567238986492157 },
			{ -0.03606744110584259, 0.04476996138691902, 0.03304089978337288, -0.050899188965559006, 0.0006525106728076935, -0.04281136766076088, 0.01914938911795616, 0.0018582753837108612, 0.0476418174803257, -0.061539176851511 },
			{ -0.05748183652758598, 0.0009901933372020721, 0.010066773742437363, -0.03144969791173935, 0.02634168043732643, -0.06075698137283325, 0.019710931926965714, 0.02336631342768669, -0.046510960906744, 0.01976817473769188 },
			{ -0.03629061207175255, -0.04298902302980423, -0.026353929191827774, -0.053739286959171295, -0.0034964904189109802, -0.03780940920114517, -0.005838267505168915, -0.0026627108454704285, 0.002015370875597, -0.05187347158789635 },
			{ -0.011556334793567657, -0.0233626551926136, -0.03930492326617241, -0.05697369575500488, 0.03979457542300224, 0.01737682893872261, 0.024748187512159348, -0.030225690454244614, -0.017799541354179382, -0.042260631918907166 },
			{ 0.04869932308793068, 0.013061370700597763, -0.005278374999761581, 0.0369383729994297, -0.060819271951913834, 0.02361290529370308, -0.03961487486958504, -0.04638442397117615, 0.015015002340078354, -0.06146536022424698 },
			{ -0.013410080224275589, -0.03702341020107269, -0.060203470289707184, -0.04254041612148285, 0.042464207857847214, 0.028899963945150375, 0.012759421020746231, 0.031713973730802536, -0.03876693546772003, -0.03129047900438309 },
			{ 0.009207751601934433, -0.046541936695575714, -0.007848598062992096, -0.04427988827228546, 0.010313276201486588, 0.04389775171875954, 0.04766494408249855, -0.024666987359523773, -0.021771084517240524, 0.02414679154753685 },
			{ -0.035040467977523804, -0.0604284331202507, -0.05419616401195526, -0.017343249171972275, -0.008969265967607498, -0.029535867273807526, 0.05617575719952583, 0.015954982489347458, -0.02768973633646965, -0.01966497302055359 },
			{ 0.02105911448597908, 0.06119308993220329, 0.01455104723572731, -0.039355821907520294, 0.015469145029783249, -0.005106676369905472, 0.03964727744460106, -0.02882349118590355, -0.042346224188804626, -0.010044887661933899 },
			{ 0.021395426243543625, 0.00806935504078865, 0.052107345312833786, 0.013494860380887985, -0.04439811781048775, -0.050782620906829834, -0.023196764290332794, -0.005549471825361252, -0.030789891257882118, -0.0007613785564899445 },
			{ 0.03012172505259514, 0.0367114283144474, 0.05999772623181343, 0.035818737000226974, -0.0018979236483573914, -0.0025410540401935577, -0.04032664746046066, -0.03506199270486832, 0.04142859950661659, -0.02621602639555931 },
			{ 0.048803385347127914, -0.024075105786323547, 0.05013144388794899, -0.019879482686519623, 0.011952627450227737, -0.027381371706724167, 0.04783918336033821, 0.031124133616685867, 0.0608556903898716, 0.02836928889155388 },
			{ 0.04200688377022743, 0.05041225627064705, -0.030288349837064743, 0.0445304773747921, 0.03341115638613701, -0.04197433590888977, -0.014492932707071304, 0.05644836649298668, -0.05945570766925812, -0.04625724256038666 },
			{ -0.046393170952796936, 0.016896765679121017, -0.04476262629032135, -0.05331761762499809, -0.02761179208755493, -0.04657994210720062, 0.023421604186296463, 0.05800483003258705, -0.04051709175109863, 0.019943024963140488 },
			{ 0.05833005532622337, 0.03233013674616814, -0.01988653838634491, -0.020145419985055923, -0.023144468665122986, 0.01798534020781517, -0.04962065443396568, 0.01710035279393196, -0.01524282991886139, -0.006700526922941208 },
			{ -0.05689965561032295, 0.043958645313978195, -0.0024259574711322784, -0.052472736686468124, 0.051131147891283035, -0.005088344216346741, -0.002825777977705002, 0.05813444033265114, 0.036481257528066635, -0.03895673155784607 },
			{ -0.05509977787733078, 0.012800272554159164, -0.023222416639328003, -0.04977434501051903, 0.057344142347574234, -0.01871538534760475, -0.061093028634786606, -0.03157474845647812, 0.033209290355443954, 0.0035334043204784393 },
			{ 0.06101143732666969, 0.04268915578722954, 0.039022330194711685, 0.008702229708433151, 0.011661436408758163, 0.012982089072465897, 0.010981563478708267, -0.05682685598731041, -0.04359300434589386, 0.036231879144907 },
			{ -0.008719205856323242, 0.03342625871300697, 0.022800084203481674, 0.06161590293049812, -0.04746060445904732, 0.0050667040050029755, 0.04251759871840477, -0.03421882912516594, 0.03358016535639763, -0.010279171168804169 },
			{ 0.03346571698784828, 0.01829252764582634, -0.03680194541811943, -0.04184047877788544, -0.012602481991052628, -0.024535231292247772, 0.05373610928654671, 0.0025932900607585907, -0.020229201763868332, -0.04708471894264221 },
			{ 0.03869408741593361, -0.027110334485769272, -0.05562987178564072, 0.05352720245718956, 0.04160792753100395, -0.01935255154967308, -0.0038492828607559204, -0.03734090179204941, -0.012089867144823074, 0.01142175868153572 },
			{ -0.04226066172122955, -0.03468788415193558, 0.04496294632554054, 0.05766817554831505, 0.03729803487658501, -0.025422129780054092, -0.01172509416937828, 0.013468045741319656, 0.011222537606954575, -0.05047684162855148 },
			{ -0.03633749485015869, 0.02211857959628105, 0.0012492872774600983, -0.0518665611743927, -0.022680696099996567, 0.054868098348379135, 0.02552930638194084, -0.028035473078489304, 0.03460962697863579, -0.019780054688453674 },
			{ 0.010940928012132645, 0.01288611814379692, 0.01564578339457512, -0.0005313865840435028, 0.02364828810095787, -0.01728196069598198, -0.02056705951690674, -0.05289290472865105, -0.01911737024784088, 0.02161462977528572 },
			{ -0.030284453183412552, 0.038431111723184586, 0.009040344506502151, -0.05005129426717758, -0.03310007601976395, 0.020582113415002823, -0.016819171607494354, 0.02266779914498329, -0.010988224297761917, 0.0499020554125309 },
			{ -0.006407231092453003, -0.00827573612332344, 0.03763939067721367, 0.05313356593251228, 0.010016273707151413, -0.0057098641991615295, -0.005183182656764984, -0.06063757836818695, -0.013306166976690292, -0.04267103970050812 },
			{ -0.00048700347542762756, 0.0022261030972003937, -0.03237387537956238, -0.03913400322198868, -0.020508620887994766, -0.02722371369600296, 0.0242435522377491, 0.04083886370062828, 0.0535767488181591, -0.022892087697982788 },
			{ 0.054491978138685226, 0.061166975647211075, -0.050882987678050995, -0.0508352667093277, 0.054393310099840164, 0.0027439184486865997, 0.04699396714568138, -0.04499280825257301, 0.005322668701410294, 0.021289531141519547 },
			{ 0.03235401585698128, -0.00836150348186493, -0.005229566246271133, -0.02534019947052002, 0.06122085824608803, -0.0436813160777092, 0.06092684343457222, -0.051047805696725845, 0.021196354180574417, 0.002711135894060135 },
			{ 0.0016526691615581512, 0.05404335632920265, -0.05795147642493248, -0.033066801726818085, 0.02573399618268013, -0.02399277687072754, 0.01316191628575325, 0.057264652103185654, -0.002567548304796219, -0.03357343375682831 },
			{ 0.05470786616206169, -0.007248144596815109, -0.04216967523097992, 0.056633103638887405, -0.0028173699975013733, -0.05022235959768295, 0.019690703600645065, 0.014755945652723312, 0.052206385880708694, 0.057887349277734756 },
			{ 0.04068326577544212, -0.03736014664173126, -0.016770094633102417, -0.021104764193296432, 0.008969072252511978, 0.021709877997636795, 0.04203082248568535, 0.038833845406770706, 0.0004730522632598877, 0.026848632842302322 },
			{ -0.048947032541036606, -0.04370073601603508, 0.02544667199254036, -0.05920945852994919, 0.009907547384500504, 0.042823921889066696, 0.039364006370306015, -0.03872894495725632, 0.004071306437253952, -0.05315769463777542 },
			{ -0.013410959392786026, 0.0499199815094471, -0.03819189965724945, -0.034713827073574066, -0.03517773747444153, 0.0538974292576313, -0.015495240688323975, 0.04688320681452751, -0.029900141060352325, 0.04308005049824715 },
			{ -0.011318933218717575, 0.05851252004504204, -0.03986603766679764, -0.0042916834354400635, 0.03452635928988457, -0.05502564087510109, -0.05874047800898552, 0.03205062076449394, 0.040206316858530045, -0.033313654363155365 },
