// ==============================================================
// Vivado(TM) HLS - High-Level Synthesis from C, C++ and SystemC v2019.1 (64-bit)
// Copyright 1986-2019 Xilinx, Inc. All Rights Reserved.
// ==============================================================
# 1 "C:/Users/chenq/MAG/code/FFF/HLS2019/cnn/fully_connected.cpp"
# 1 "<built-in>"
# 1 "<command-line>"
# 1 "C:/Users/chenq/MAG/code/FFF/HLS2019/cnn/fully_connected.cpp"
# 1 "C:/Users/chenq/MAG/code/FFF/HLS2019/cnn/fully_connected.h" 1
       
# 1 "C:/Users/chenq/MAG/code/FFF/HLS2019/cnn/parameters.h" 1
       
# 3 "C:/Users/chenq/MAG/code/FFF/HLS2019/cnn/fully_connected.h" 2

void fully_connected(float flat_array[(16 * (11 / 2) * (11 / 2))], float dense_out[60]);
# 2 "C:/Users/chenq/MAG/code/FFF/HLS2019/cnn/fully_connected.cpp" 2

# 1 "C:/Users/chenq/MAG/code/FFF/HLS2019/cnn/fully_connected_weights.h" 1
       


float fullyconnected_weights[(16 * (11 / 2) * (11 / 2))][60]
= {
 {0.07327941060066223, -0.019576117396354675, 0.03613724932074547, -0.18849319219589233, -0.03844458982348442, 0.07443678379058838, -0.0004263823793735355, 0.048911575227975845, 0.137868732213974, 0.01783749647438526, -0.0003977334126830101, 0.1284637153148651, -0.14127616584300995, -0.16434764862060547, 0.03656173497438431, -0.05120212212204933, -0.07110382616519928, -0.04066142067313194, 0.08624463528394699, -0.14971327781677246, 0.06600377708673477, -0.1000388041138649, 0.00833288673311472, -0.3831349313259125, -0.18272630870342255, 0.08724548667669296, -0.04536193609237671, 0.25017181038856506, -0.499502569437027, 0.05920938402414322, 0.1259777694940567, 0.030290693044662476, 0.05478080362081528, 0.16404691338539124, 0.014983685687184334, 0.019348153844475746, 0.24346067011356354, -0.012639591470360756, 0.0757654532790184, -0.17687208950519562, -0.1554906666278839, 0.03856223076581955, 0.03631782904267311, -0.031033752486109734, 0.32952189445495605, 0.1623346507549286, 0.047753311693668365, -0.11110860854387283, 0.10338301956653595, 0.08726541697978973, 0.12568171322345734, 0.1708497256040573, 0.035037629306316376, -0.12634490430355072, 0.1260373294353485, 0.18214835226535797, 0.0020891036838293076, -0.21951569616794586, -0.02834445610642433, 0.3594568967819214},
 {0.06032631918787956, 0.033379409462213516, 0.11590787023305893, -0.0429932065308094, -0.12357422709465027, 0.0712599977850914, -0.035523734986782074, 0.015001964755356312, 0.22529715299606323, 0.05116255581378937, 0.17537644505500793, 0.20719397068023682, -0.1162717416882515, -0.3321261703968048, -0.02500022016465664, -0.19003717601299286, 0.09223632514476776, -0.25850361585617065, 0.032037604600191116, -0.14145830273628235, -0.04668804630637169, -0.09470027685165405, 0.07817763835191727, -0.28225815296173096, 0.0009303227998316288, 0.004433510359376669, -0.0267120823264122, -0.0342637300491333, -0.25867077708244324, 0.04054378718137741, 0.20374932885169983, -0.027617095038294792, 0.08693959563970566, 0.0138759296387434, 0.12658649682998657, -0.06621149182319641, 0.007211528718471527, -0.0748622938990593, -0.030277609825134277, -0.11484326422214508, -0.09931913018226624, -0.0986085906624794, -0.04422830417752266, 0.14503638446331024, 0.13741005957126617, -0.005294369999319315, -0.007278549950569868, -0.22158628702163696, 0.0926746055483818, 0.0241404939442873, 0.058855388313531876, 0.01322668045759201, 0.009933700785040855, 0.012730882503092289, -0.009964292868971825, 0.16348357498645782, 0.1789044439792633, -0.04963820427656174, 0.05196831747889519, 0.21631911396980286},
 {0.05449032410979271, -0.16825076937675476, -0.07603436708450317, -0.043715909123420715, -0.11717277765274048, 0.18417711555957794, -0.39325541257858276, 0.25530919432640076, -0.1156625896692276, 0.02117113396525383, -0.24429330229759216, -0.0065659997053444386, -0.04176696762442589, 0.03986512869596481, 0.10004322230815887, -0.15680700540542603, -0.30297011137008667, -0.2689773738384247, -0.1621319204568863, -0.15013058483600616, 0.020629053935408592, 0.15331682562828064, 0.11031167209148407, 0.1792965680360794, 0.09703709185123444, 0.05914608761668205, -0.2004237025976181, 0.35127589106559753, -0.18512742221355438, -0.07119438797235489, 0.2911406457424164, -0.20025679469108582, -0.06006242334842682, -0.15790686011314392, -0.09004661440849304, 0.13251903653144836, 0.11769038438796997, 0.14561563730239868, -0.060867879539728165, 0.020764384418725967, -0.044594425708055496, 0.23491524159908295, 0.18932515382766724, -0.25054219365119934, -0.05292573198676109, 0.0613250695168972, 0.013034209609031677, -0.051427580416202545, 0.30091601610183716, -0.04983323812484741, 0.13272538781166077, -0.08325234055519104, -0.087657131254673, 0.06845995038747787, -0.24865518510341644, -0.024674348533153534, 0.007495210040360689, 0.010574286803603172, -0.1590757519006729, 0.1437484622001648},
 {0.1604311168193817, -0.06221741437911987, -0.16794666647911072, -0.16336901485919952, -0.048534996807575226, -0.12584567070007324, 0.006100481376051903, 0.22482989728450775, -0.24247927963733673, 0.024526143446564674, -0.02346082590520382, 0.09981473535299301, -0.09657430648803711, -0.06034834310412407, 0.06872683018445969, 0.01564488373696804, -0.18482553958892822, -0.22530488669872284, -0.16345714032649994, -0.05895959585905075, -0.2076399326324463, -0.08263346552848816, -0.05863301455974579, 0.116185761988163, 0.07740730047225952, 0.24069935083389282, 0.12470933794975281, -0.07111015170812607, -0.17986495792865753, -0.17521017789840698, 0.0891500934958458, -0.020218580961227417, -0.026684055104851723, 0.2894841432571411, 0.1345740407705307, 0.16444385051727295, 0.12435705959796906, 0.0014820800861343741, 0.1591321974992752, 0.0688876062631607, 0.03381340578198433, 0.06374484300613403, -0.19284667074680328, -0.06871660053730011, 0.31882208585739136, -0.010229858569800854, 0.3272961378097534, -0.13812284171581268, -0.009845574386417866, 0.28231221437454224, -0.06162351369857788, 0.17663975059986115, 0.026952313259243965, -0.07567109167575836, -0.025864876806735992, 0.02267030067741871, -0.028665708377957344, -0.069414421916008, 0.10564440488815308, -0.1182825043797493},
 {-0.08750321716070175, -0.026753650978207588, -0.12115200608968735, -0.08569420129060745, 0.007431987673044205, 0.23426520824432373, -0.09136529266834259, -0.10887819528579712, 0.05382971093058586, -0.05111195519566536, -0.16516393423080444, -0.038366880267858505, -0.15514495968818665, -0.20435398817062378, 0.048577941954135895, 0.0741991251707077, -0.2149350494146347, -0.14742667973041534, -0.2600870132446289, -0.26483026146888733, -0.04774979129433632, 0.027082251384854317, 0.09480955451726913, -0.21139276027679443, -0.08148758113384247, 0.1283068209886551, -0.15167200565338135, 0.1909407079219818, -0.3470059931278229, 0.07169237732887268, 0.1686158925294876, -0.0036406484432518482, -0.1901463270187378, -0.10648385435342789, -0.04363977536559105, 0.11520948261022568, 0.2522434592247009, 0.04856124892830849, 0.10184641182422638, -0.08668623119592667, 2.1232612198218703e-05, -0.16397076845169067, 0.0016107046976685524, -0.22643430531024933, -0.10324934870004654, 0.009520549327135086, 0.06592193245887756, -0.009307454340159893, 0.09353132545948029, -0.11532419919967651, 0.17047908902168274, -0.0761977881193161, -0.015768690034747124, 0.1662556380033493, -0.07121109217405319, -0.054965149611234665, -0.012165658175945282, -0.11685453355312347, -0.09379090368747711, -0.10083116590976715},
 {0.1342839151620865, -0.0684954822063446, -0.019169282168149948, 0.011210912838578224, -0.10987206548452377, 0.14968812465667725, -0.11159003525972366, 0.3045206367969513, 0.06892210245132446, -0.08313858509063721, -0.060954462736845016, -0.06377469003200531, -0.12038982659578323, -0.10203194618225098, -0.09780867397785187, 0.09897344559431076, -0.2813858985900879, 0.06635857373476028, 0.20596905052661896, -0.16775859892368317, -0.06462782621383667, -0.006738283205777407, -0.005133109167218208, 0.06523454934358597, 0.029379146173596382, 0.18782445788383484, 0.0008865491836331785, 0.018493561074137688, -0.2635890245437622, -0.0747121274471283, 0.03138018772006035, -0.2536596357822418, -0.017984483391046524, -0.1477004438638687, -0.16206811368465424, -0.1665858030319214, -0.0455036498606205, 0.09544805437326431, 0.012295161373913288, 0.0029310574755072594, 0.013353271409869194, 0.1934550404548645, 0.06045318767428398, -0.04263744503259659, -0.07488497346639633, -0.03350386023521423, -0.029048262163996696, 0.030987918376922607, 0.1877206712961197, -0.04226497933268547, 0.25160712003707886, -0.009073156863451004, -0.19784170389175415, 0.07494986057281494, -0.1177058145403862, 0.1536705493927002, 0.15536773204803467, 0.09309163689613342, 0.01020551472902298, 0.18726035952568054},
 {0.053825799375772476, -0.09318231046199799, -0.11439024657011032, 0.009837853722274303, -0.34204602241516113, -0.0688595399260521, -0.23073939979076385, 0.28836390376091003, -0.17132963240146637, 0.08603983372449875, -0.10781979560852051, 0.034021735191345215, -0.06860493123531342, 0.050612159073352814, -0.12668681144714355, -0.25655996799468994, -0.2810043394565582, -0.13349269330501556, -0.3011155426502228, -0.3777562975883484, -0.12345188856124878, 0.18114249408245087, -0.1804119348526001, -0.041192781180143356, -0.00690359016880393, 0.30438971519470215, -0.013870758935809135, 0.30758029222488403, -0.06177680194377899, -0.0815165564417839, 0.30579277873039246, -0.2554411292076111, -0.16842584311962128, 0.0806240439414978, 0.07396471500396729, 0.18350933492183685, 0.11313875764608383, 0.09656532853841782, 0.061126913875341415, 0.024538222700357437, 0.13176091015338898, 0.15960098803043365, -0.033366601914167404, -0.09259124845266342, 0.08942373096942902, -0.140716090798378, 0.014459297992289066, 0.12182120233774185, 0.0019115727627649903, 0.20602567493915558, 0.06140358746051788, -0.06611587852239609, 0.1296098232269287, 0.07624336332082748, -0.1116909384727478, 0.06613796204328537, 0.029562432318925858, -0.1492197960615158, -0.23222258687019348, -0.31904807686805725},
 {-0.04899744689464569, -0.1444173902273178, 0.4285116195678711, -0.2506120204925537, 0.006763311568647623, -0.16513097286224365, 0.23907262086868286, 0.10324114561080933, 0.056464049965143204, 0.020874328911304474, -0.24195821583271027, -0.006999971345067024, -0.36955100297927856, 0.36718785762786865, 0.059827063232660294, -0.034305259585380554, -0.3132438659667969, -0.007624525111168623, 0.197331964969635, -0.5628496408462524, -0.09505618363618851, -0.21775099635124207, -0.05122712254524231, -0.19715414941310883, -0.21948197484016418, 0.038252197206020355, 0.053287092596292496, -0.09873732179403305, -0.4429008662700653, -0.17124976217746735, 0.07692431658506393, -0.0029310216195881367, -0.1006665974855423, 0.4570960998535156, 0.33052536845207214, 0.15526947379112244, 0.1486503779888153, -0.05743370205163956, 0.3391913175582886, -0.019851334393024445, -0.03860301896929741, -0.15564219653606415, -0.15850050747394562, -0.01748066581785679, 0.4001306891441345, 0.16796325147151947, 0.5737968683242798, -0.01641799509525299, -0.3239418566226959, 0.12234044075012207, -0.23782290518283844, 0.04350242763757706, 0.2942792773246765, -0.2315276563167572, 0.3279314935207367, -0.1570269763469696, 0.10019233077764511, -0.39655250310897827, -0.034850113093853, -0.07358420640230179},
 {0.024615265429019928, -0.02343452349305153, 0.090102419257164, -0.16353674232959747, -0.06215064227581024, 0.09483008086681366, 0.01815713196992874, 0.18216358125209808, 0.16348205506801605, -0.015783214941620827, -0.004407359752804041, 0.06256462633609772, -0.25613412261009216, -0.19438758492469788, 0.0020973612554371357, -0.08831639587879181, -0.025657659396529198, -0.07551585137844086, 0.012751077301800251, -0.23990392684936523, -0.18766383826732635, -0.11060269176959991, 0.010159989818930626, -0.03090442158281803, 0.1438346803188324, 0.0784946084022522, -0.033776286989450455, 0.029896844178438187, -0.3001340627670288, -0.18346138298511505, -0.02102525159716606, -0.16802582144737244, 0.18914058804512024, 0.1571708470582962, -0.029355250298976898, -0.28778573870658875, -0.08999969065189362, 0.030340613797307014, -0.07529518753290176, -0.1532166302204132, -0.17506921291351318, -0.01046290248632431, 0.015252718701958656, 0.20710556209087372, 0.010217591188848019, -0.12350907921791077, -0.007166328839957714, -0.16982273757457733, 0.17057479918003082, -0.13909810781478882, 0.25492632389068604, 0.16403912007808685, -0.20901353657245636, 0.05758664384484291, 0.0739932581782341, 0.4149937331676483, 0.009403085336089134, 0.02780330926179886, 0.2145921289920807, 0.30553001165390015},
 {0.08532453328371048, 0.10495088249444962, 0.05442408472299576, 0.10323420912027359, -0.12729412317276, 0.08238613605499268, 0.05900518596172333, -0.04647834971547127, 0.13402768969535828, 0.001811367692425847, -0.13738209009170532, 0.024761797860264778, -0.04366740211844444, -0.20347286760807037, 0.03369208052754402, -0.030944976955652237, -0.2055666148662567, -0.015116172842681408, -0.11253061890602112, -0.18993963301181793, -0.08755935728549957, 0.06678110361099243, -0.03175521269440651, -0.17518432438373566, -0.044033750891685486, -0.054985180497169495, -0.0030220877379179, 0.1356945037841797, -0.4299619495868683, 0.10784999281167984, 0.14170940220355988, 0.09229418635368347, 0.08128764480352402, -0.1428169459104538, 0.10278718173503876, -0.14998401701450348, 0.09950076043605804, 9.092404798138887e-05, 0.006748443469405174, -0.13592682778835297, 0.08206648379564285, -0.1746114045381546, -0.15167221426963806, -0.04365072771906853, 0.09377342462539673, -0.0637817233800888, 0.022987090051174164, -0.03325500711798668, -0.049759641289711, 0.02572953887283802, 0.006559055298566818, -0.06597614288330078, 0.047492917627096176, -0.012730337679386139, 0.018312016502022743, 0.0069455914199352264, 0.1685793548822403, -0.11179551482200623, -0.18326981365680695, 0.059563882648944855},
 {0.004486577119678259, 0.10825091600418091, 0.08463683724403381, 0.01495659351348877, -0.08026576787233353, 0.04108167439699173, 0.2081756591796875, 0.18166474997997284, 0.12153477221727371, 0.030545389279723167, -0.09465392678976059, 0.16979381442070007, -0.060457635670900345, -0.3153287172317505, -0.06628592312335968, -0.1628720909357071, -0.11158240586519241, -0.06640075892210007, 0.0516628734767437, -0.28390446305274963, 0.13320988416671753, -0.0759105458855629, -0.004661324433982372, -0.059134591370821, -0.08565850555896759, -0.06337352842092514, -0.051405444741249084, 0.02015061490237713, -0.3206723630428314, -0.02168768271803856, 0.1257307231426239, 0.0691179633140564, -0.057687800377607346, 0.04793573170900345, -0.02404163032770157, -0.09488055109977722, 0.03833106905221939, 0.04160222038626671, -0.026695944368839264, -0.1969786435365677, -0.058636363595724106, -0.025300756096839905, -0.013098432682454586, -0.02873893268406391, 0.008913693949580193, -0.10002496838569641, -0.014789902605116367, -0.3360133767127991, -0.05519324168562889, -0.03987180441617966, 0.13271892070770264, -0.05921032279729843, 0.15666142106056213, -0.06211302801966667, -0.06019424647092819, 0.2320137768983841, 0.0647796168923378, -0.07193110138177872, 0.09930633008480072, 0.15684597194194794},
 {0.05810807645320892, 0.07883814722299576, -0.044525146484375, -0.034758519381284714, -0.09236683696508408, 0.11459080874919891, 0.0008326286333613098, 0.05906154587864876, 0.03218387812376022, -0.10586071014404297, 0.11530747264623642, -0.0056191710755229, -0.09516342729330063, -0.25807520747184753, -0.11056671291589737, -0.13109652698040009, -0.14332227408885956, -0.12890322506427765, -0.05894757807254791, -0.131951704621315, 0.03753363713622093, -0.010461858473718166, -0.009079096838831902, -0.1217401996254921, -0.07064919173717499, 0.1301162987947464, -0.019962767139077187, 0.01823839358985424, -0.5191949605941772, 0.10745707154273987, 0.013283110223710537, -0.03629831224679947, -0.06440075486898422, -0.009782559238374233, 0.06822574138641357, -0.05181166157126427, 0.0570402517914772, 0.08138159662485123, 0.10317160189151764, -0.04295610263943672, 0.04529230296611786, -0.21502536535263062, -0.10102849453687668, 0.02467069774866104, 0.04483594000339508, -0.12205270677804947, 0.059894341975450516, -0.12591402232646942, 0.13736268877983093, 0.1505935937166214, -0.032149896025657654, 0.027430202811956406, 0.011579425074160099, -0.037300556898117065, 0.0006394295487552881, 0.005650887731462717, 0.0013526089023798704, -0.08704357594251633, -0.014779222197830677, 0.01540629006922245},
 {0.02136799693107605, -0.21292389929294586, -0.057403046637773514, -0.10903192311525345, -0.13867682218551636, 0.00667704688385129, -0.10264626890420914, 0.32240039110183716, -0.05588636174798012, 0.055524516850709915, 0.08320438861846924, 0.12175370752811432, -0.0947088673710823, -0.08098223805427551, -0.21611467003822327, -0.06503957509994507, -0.04145258665084839, 0.07046255469322205, -0.0564059242606163, -0.2757919728755951, -0.16811147332191467, 0.03918042406439781, -0.3218268156051636, -0.18358823657035828, 0.27846717834472656, 0.12505723536014557, -0.3265264332294464, -0.06646004319190979, 0.021548569202423096, -0.12110649794340134, 0.21750827133655548, -0.31056633591651917, 0.3026626408100128, 0.17095538973808289, 0.0627569854259491, -0.1955593228340149, 0.013491516001522541, -0.2570728063583374, 0.10851266980171204, -0.17683923244476318, -0.20826321840286255, 0.08098147809505463, -0.07944930344820023, 0.0593741312623024, -0.0049614752642810345, -0.10390735417604446, -0.05300931632518768, 0.23449432849884033, 0.16691334545612335, -0.062034036964178085, 0.5036042928695679, 0.22507500648498535, -0.1237715482711792, -0.08446046710014343, 0.041100677102804184, 0.28546783328056335, 0.049314651638269424, 0.16401353478431702, 0.1521562784910202, 0.2524709105491638},
 {0.0008587688789702952, 0.04569389671087265, -0.12980017066001892, 0.04634019732475281, -0.1198149099946022, 0.09124147146940231, -0.13824450969696045, 0.07839544862508774, -0.025121567770838737, -0.0535106360912323, -0.22943715751171112, 0.09529900550842285, -0.21921440958976746, -0.02690083347260952, 0.10326356440782547, -0.014087684452533722, -0.1327132135629654, -0.0906924158334732, -0.11874306946992874, -0.19309203326702118, -0.15048359334468842, 0.14942605793476105, 0.0008434253395535052, -0.24999909102916718, 0.0375031977891922, 0.22154200077056885, -0.012037963606417179, 0.19188673794269562, -0.24117323756217957, 0.08495168387889862, 0.13681864738464355, -0.04130733758211136, -0.09759055078029633, -0.031676631420850754, -0.11582718789577484, -0.14797216653823853, 0.027522705495357513, 0.1804802417755127, 0.04185584932565689, -0.17295324802398682, 0.014320498332381248, -0.02000647783279419, -0.09100988507270813, -0.12161998450756073, -0.062120627611875534, -0.13032057881355286, -0.1491129845380783, 0.036531828343868256, 0.06904637068510056, 0.038282766938209534, 0.10854791104793549, -0.1577426791191101, -0.02389102801680565, 0.12483862787485123, -0.06979681551456451, 0.08555912971496582, 0.023116460070014, 0.03884931653738022, 0.004657485987991095, 0.05375184118747711},
 {0.05924639105796814, 0.17537298798561096, 0.023095835000276566, 0.17329390347003937, 0.03062848187983036, -0.019896341487765312, 0.06880013644695282, -0.2355555146932602, 0.14306342601776123, -0.05295348912477493, -0.2848440706729889, -0.10526321083307266, 0.0691908597946167, -0.19226700067520142, -0.13825976848602295, -0.05596204102039337, -0.09903780370950699, 0.13745789229869843, 0.01635906659066677, -0.11279763281345367, 0.26452839374542236, -0.052748408168554306, 0.139402836561203, -0.2374504804611206, -0.09401360899209976, -0.1388811469078064, 0.026634523645043373, 0.14475122094154358, -0.40365687012672424, 0.16801175475120544, -0.11381679773330688, 0.06690237671136856, 0.10185494273900986, -0.15501391887664795, 0.0408681184053421, 0.0677843689918518, 0.16539961099624634, 0.009827240370213985, -0.07181285321712494, -0.20814518630504608, 0.1722295731306076, -0.0771513283252716, -0.07179144024848938, 0.017917916178703308, -0.1803112030029297, 0.20518670976161957, 0.06396335363388062, -0.07812389731407166, 0.0651903972029686, 0.05056037753820419, -0.21944266557693481, -0.19735774397850037, 0.08898881822824478, 0.03993799164891243, -0.00047875140444375575, -0.04003114625811577, 0.05915685370564461, -0.12024691700935364, -0.11385336518287659, -0.1943780779838562},
 {-0.04130551591515541, 0.0656883493065834, 0.045539312064647675, -0.2555558979511261, -0.13803231716156006, 0.04321608692407608, 0.06269165128469467, 0.22838841378688812, 0.07306286692619324, -0.05860185995697975, -0.003500311868265271, 0.09959452599287033, -0.39334097504615784, 0.006060686893761158, -0.14105570316314697, -0.09457400441169739, -0.06499337404966354, 0.008329243399202824, -0.0527130626142025, -0.19992060959339142, -0.060085054486989975, -0.09835445135831833, 0.05519863963127136, -0.25225281715393066, -0.07430046051740646, 0.06829838454723358, 0.04233518987894058, 0.07316958159208298, -0.4734310805797577, -0.03118138760328293, 0.14088940620422363, -0.009398497641086578, -0.12803293764591217, 0.2935606837272644, 0.03873443230986595, 0.014911849051713943, 0.29195308685302734, -0.023141486570239067, 0.31281599402427673, 0.08429508656263351, -0.08966945111751556, -0.08616511523723602, -0.07834122329950333, 0.055020034313201904, 0.1654556393623352, -0.01836436055600643, 0.0896674171090126, -0.13476574420928955, -0.05381489545106888, -0.13294091820716858, -0.07318371534347534, 0.07309480756521225, 0.10753706842660904, -0.15779007971286774, 0.17895737290382385, 0.07956334948539734, 0.025610992684960365, -0.06264308094978333, 0.033464375883340836, -0.03784428536891937},
 {0.11441993713378906, 0.12095718830823898, 0.07442856580018997, -0.04159121960401535, -0.07235170155763626, 0.05342124029994011, -0.02580772340297699, -0.009898274205625057, 0.08416386693716049, 0.06675484031438828, -0.3716135323047638, -0.0007073126034811139, -0.229806050658226, 0.05830266699194908, -0.06010066717863083, -0.03246617689728737, -0.13176774978637695, 0.049610428512096405, 0.03392564132809639, -0.13454997539520264, -0.12081079185009003, -0.024309149011969566, 0.1952212005853653, -0.25920549035072327, 0.03139835223555565, 0.12919530272483826, 0.039508938789367676, 0.24321508407592773, -0.5851999521255493, 0.010057696141302586, -0.0888589471578598, -0.06964868307113647, -0.06063289940357208, 0.15680119395256042, 0.05325935781002045, -0.06801437586545944, 0.18950186669826508, 0.016681542620062828, 0.18267248570919037, -0.21341463923454285, -0.056405629962682724, -0.3123198449611664, 0.0744607150554657, 0.24097275733947754, 0.1210743635892868, 0.1421365737915039, 0.0044366177171468735, -0.19967634975910187, -0.16213001310825348, -0.2092333436012268, -0.06223950907588005, 0.13190416991710663, 0.1516687572002411, -0.03958723694086075, 0.042238637804985046, 0.031075965613126755, 0.17084991931915283, -0.1810113787651062, 0.0016314740059897304, 0.14829203486442566},
 {0.04446858912706375, 0.1272161453962326, -0.048391032963991165, -0.05000196024775505, 0.007623312529176474, 0.13644708693027496, 0.0522574745118618, -0.0223675649613142, 0.11270995438098907, -0.09953722357749939, -0.3588202893733978, 0.055789295583963394, -0.12204111367464066, -0.263197124004364, 0.006695599760860205, 0.09462480247020721, 0.1659247726202011, -0.15114684402942657, 0.03168312460184097, -0.026213549077510834, -0.12425264716148376, -0.16360528767108917, 0.0727652981877327, -0.07037708908319473, -0.08736218512058258, 0.05256100371479988, -0.0022892681881785393, -0.12963150441646576, -0.43652597069740295, 0.07183501869440079, -0.04439527168869972, 0.22460781037807465, 0.14710307121276855, 0.08654505014419556, -0.019166884943842888, -0.29338589310646057, -0.044511087238788605, -0.02281145378947258, 0.1032116711139679, -0.14924363791942596, -0.06779998540878296, -0.16578857600688934, 0.007445640861988068, -0.006670319940894842, -0.01189584843814373, 0.06169743463397026, -0.04775571450591087, -0.17489346861839294, -0.051917240023612976, -0.05223674327135086, 0.10221769660711288, 0.13324537873268127, 0.06145118921995163, 0.02635241113603115, -0.00712445005774498, -0.03228738158941269, -0.01627933792769909, -0.03506383299827576, 0.15665198862552643, 0.20305486023426056},
 {0.05471494048833847, -0.183360755443573, -0.3309071660041809, 0.009144013747572899, 0.06883399188518524, 0.03326483815908432, -0.010581851936876774, 0.15667635202407837, -0.10441779345273972, -0.10766834020614624, -0.3085806369781494, 0.046984292566776276, -0.11369769275188446, -0.10877100378274918, 0.16581915318965912, -0.12128522247076035, -0.19234351813793182, -0.3097650706768036, -0.23736128211021423, -0.1700115203857422, 0.057305216789245605, 0.14488087594509125, 0.07351400703191757, -0.05862003564834595, 0.17447933554649353, -0.24041014909744263, -0.08039851486682892, 0.024653032422065735, -0.1410752683877945, 0.008818182162940502, 0.29709428548812866, -0.03867346793413162, -0.3149316906929016, 0.025840576738119125, 0.0686098039150238, -0.04001284018158913, 0.08195693045854568, -0.11880656331777573, -0.035639602690935135, -0.1819653958082199, 0.031449705362319946, -0.07719241827726364, 0.013973025605082512, -0.306668758392334, -0.07823841273784637, -0.06101030111312866, -0.09195864200592041, 0.15019361674785614, 0.1964787095785141, -0.11641538888216019, 0.11681059747934341, -0.005965638905763626, -0.25233614444732666, 0.003322959179058671, 0.021352801471948624, 0.1819995790719986, 0.030750440433621407, 0.12103781849145889, 0.08526802808046341, -0.004864203277975321},
 {-0.015844713896512985, 0.11753776669502258, -0.01742531731724739, -0.1061619371175766, -0.06334099173545837, -0.006947062443941832, 0.09313005954027176, 0.1206899955868721, 0.01861821487545967, 0.010856060311198235, -0.043971218168735504, 0.1584058254957199, -0.17268680036067963, -0.03625338152050972, -0.012491919100284576, -0.08935929834842682, -0.08773301541805267, -0.13738785684108734, 0.0521414540708065, -0.17806291580200195, -0.037159211933612823, 0.03863024711608887, 0.05944710597395897, -0.031850382685661316, -0.1858593076467514, 0.14717547595500946, 0.011160180903971195, -0.20842517912387848, -0.29628437757492065, -0.037175316363573074, 0.140974223613739, 0.15274149179458618, -0.16197243332862854, 0.13698405027389526, 0.2359427958726883, 0.08919701725244522, 0.06486640125513077, 0.04313809797167778, -0.028322722762823105, 0.040090493857860565, 0.053598783910274506, -0.0986243262887001, -0.14328928291797638, -0.20478051900863647, 0.12499827891588211, 0.01512814499437809, 0.10578908026218414, -0.15477393567562103, -0.16249299049377441, 0.06833112984895706, -0.14015793800354004, -0.04387389123439789, 0.12772315740585327, 0.06650187820196152, 0.12058936059474945, -0.07412843406200409, -0.06672132015228271, 0.019335176795721054, -0.01645292341709137, -0.01295838225632906},
 {0.140114426612854, -0.03146772086620331, -0.07810189574956894, -0.0460490919649601, 0.07348442822694778, -0.07499832659959793, 0.09994920343160629, -0.02178679034113884, -0.036804474890232086, 0.04776253178715706, -0.2433134913444519, 0.18317323923110962, -0.01266421191394329, 0.00659696850925684, 0.11538849771022797, 0.03443804383277893, -0.1585342288017273, -0.21379055082798004, -0.1306118220090866, 0.05810565873980522, 0.1782902330160141, 0.16231021285057068, -0.04736413434147835, -0.08589395880699158, 0.1268800050020218, -0.16825821995735168, -0.05037230998277664, 0.07378730177879333, -0.01838979870080948, 0.03937062621116638, 0.1488722860813141, 0.06969445198774338, 0.09696152061223984, -0.12852869927883148, -0.0018948495853692293, 0.06963775306940079, 0.17313353717327118, -0.0626053586602211, -0.08328437060117722, 0.023298492655158043, 0.06961167603731155, -0.10290133953094482, -0.007324987091124058, 0.010204137302935123, -0.2238837033510208, -0.01676969602704048, -0.13910457491874695, -0.0034887997899204493, 0.18361350893974304, -0.12126500904560089, 0.13219231367111206, -0.02644258923828602, -0.21868480741977692, 0.08035822957754135, -0.07122670859098434, 0.18906761705875397, -0.029795736074447632, 0.08786672353744507, -0.08636002987623215, -0.031002942472696304},
 {0.010763971135020256, -0.04126672446727753, -0.0005525361630134284, -0.021949859336018562, -0.16056102514266968, 0.17124375700950623, -0.05183832347393036, 0.07777497172355652, 0.06329358369112015, -0.009864120744168758, -0.4230524003505707, 0.15577101707458496, 0.013096057809889317, -0.08145010471343994, 0.030000852420926094, 0.03202443569898605, -0.16545750200748444, -0.07665148377418518, -0.2997448742389679, -0.0946727991104126, -0.015658283606171608, 0.06729229539632797, 0.010050894692540169, -0.13088738918304443, 0.28195053339004517, 0.1143302246928215, -0.12147235125303268, 0.09888830780982971, 0.028188616037368774, 0.17522013187408447, 0.36189112067222595, -0.2836337983608246, 0.024660209193825722, -0.038515590131282806, -0.08976448327302933, -0.33213239908218384, 0.044280000030994415, 0.011960969306528568, 0.08976495265960693, -0.3032539188861847, -0.2223469614982605, -0.27464592456817627, 0.0912511870265007, 0.10256163775920868, -0.16157451272010803, 0.016718551516532898, -0.16574788093566895, 0.22594597935676575, 0.055790599435567856, -0.09137996286153793, 0.2568337023258209, -0.007009055465459824, -0.2368125468492508, 0.18316438794136047, -0.05553486570715904, 0.06381052732467651, -0.10637451708316803, -0.07653806358575821, 0.21286992728710175, 0.174564927816391},
 {-0.05567111074924469, -0.06792466342449188, -0.13035082817077637, 0.08302698284387589, -0.11638455092906952, -0.10252941399812698, -0.1442543864250183, -0.013723372481763363, -0.0953262522816658, 0.03245769813656807, -0.24213309586048126, -0.02612125687301159, -0.00036608552909456193, -0.01799830049276352, 0.008523081429302692, -0.06982891261577606, -0.37038561701774597, -0.4558854103088379, -0.35712385177612305, -0.32667768001556396, -0.03331184387207031, 0.11399499326944351, -0.04911959171295166, -0.12213096022605896, 0.10976707935333252, 0.12372928112745285, -0.06617966294288635, 0.15250997245311737, -0.050060730427503586, 0.04171089082956314, 0.23765051364898682, -0.04594464227557182, -0.3049936890602112, -0.0010526960249990225, -0.005752744618803263, 0.1692766398191452, 0.03925556316971779, -0.004271831829100847, 0.18637384474277496, 0.17735379934310913, 0.32291311025619507, -0.10938095301389694, 0.1290857195854187, -0.3246668577194214, -0.038908008486032486, -0.14389845728874207, 0.03590673953294754, 0.061127666383981705, -0.07452213019132614, -0.013032111339271069, -0.028549928218126297, -0.1782921701669693, -0.018905214965343475, 0.18915106356143951, 0.1547234207391739, -0.03390219807624817, -0.00020093255443498492, -0.13882429897785187, -0.07483691722154617, -0.2702627182006836},
 {0.07158675044775009, 0.041476648300886154, 0.06876545399427414, -0.04902265593409538, -0.320398211479187, -0.046859629452228546, 0.14285264909267426, 0.12915872037410736, -0.010280653834342957, -0.022337602451443672, -0.021535400301218033, -0.11158878356218338, -0.3055703938007355, 0.2877398431301117, 0.10634870082139969, -0.07370433211326599, -0.39375045895576477, -0.01885480061173439, 0.09660390764474869, -0.470674604177475, -0.06890002638101578, -0.06651628762483597, -0.07127024233341217, -0.138988196849823, 0.09172973036766052, 0.03280965983867645, -0.003652439219877124, -0.06535004824399948, -0.6355413198471069, -0.0776536837220192, 0.037854116410017014, -0.12267362326383591, 0.02574216201901436, 0.20265726745128632, 0.045209579169750214, 0.23159413039684296, 0.09154015779495239, -0.012569106183946133, 0.29873284697532654, 0.048639655113220215, 0.008492505177855492, -0.28331342339515686, -0.06564116477966309, 0.034188903868198395, 0.1493530571460724, -0.027850951999425888, 0.14695100486278534, -0.002401947043836117, -0.3404688537120819, 0.059155140072107315, -0.3469240367412567, 0.03610672429203987, 0.07846520096063614, 0.03692289814352989, 0.14371739327907562, -0.20371031761169434, -0.03469235077500343, -0.2533361315727234, 0.13567495346069336, 0.05335200950503349},
 {0.08818706125020981, -0.03254450857639313, -0.17883197963237762, -0.37754470109939575, -0.19420015811920166, 0.13134765625, 0.010662994347512722, -0.06641799211502075, 0.1489921659231186, 0.026755549013614655, -0.393330842256546, 0.01851007342338562, -0.16887202858924866, -0.06301860511302948, 0.1600075215101242, -0.0036248061805963516, 0.03531894460320473, -0.030069006606936455, -0.15562193095684052, 0.021616684272885323, -0.1920730471611023, -0.1236654743552208, 0.1929844319820404, -0.08067264407873154, -0.012693038210272789, 0.03577813506126404, -0.02128906175494194, 0.11635219305753708, -0.22991789877414703, 0.0970984622836113, 0.18481875956058502, -0.03123437613248825, 0.2040969878435135, 0.2969761788845062, 0.01814131997525692, -0.29607993364334106, -0.030597882345318794, -0.0826653242111206, 0.07695083320140839, -0.27194106578826904, -0.28267186880111694, -0.1956801861524582, 0.02879888005554676, 0.09472432732582092, 0.127003014087677, 0.12041004747152328, -0.031421907246112823, -0.08157356083393097, 0.016688622534275055, -0.1648765355348587, 0.1626284420490265, 0.2982015311717987, -0.09660361707210541, 0.04260580986738205, 0.14969637989997864, 0.04325668141245842, 0.10797286778688431, -0.00891689769923687, 0.13090652227401733, 0.23836520314216614},
 {-0.0331416130065918, 0.1013188511133194, -0.04151449725031853, 0.0764017179608345, -0.01268422044813633, 0.15629053115844727, 0.010894585400819778, -0.04258175939321518, -0.09178165346384048, -0.09478896856307983, -0.19427835941314697, 0.0351443774998188, -0.024997597560286522, 0.1033531203866005, 0.10690657049417496, -0.020642675459384918, -0.06850868463516235, 0.08900009840726852, -0.08273083716630936, -0.014463202096521854, 0.03990419581532478, 0.15879681706428528, -0.007924403995275497, -0.022565901279449463, -0.028149250894784927, -0.035631030797958374, 0.09483540803194046, 0.11719261854887009, 0.01854245737195015, -0.01793183945119381, 0.0072072758339345455, -0.0018883678130805492, 0.014475185424089432, -0.13804776966571808, 0.09320265799760818, 0.054727260023355484, 0.12822796404361725, -0.003135658334940672, -0.152963787317276, 0.0017692524706944823, 0.14433732628822327, -0.16856364905834198, 0.01208826620131731, -0.16165274381637573, -0.1709481179714203, 0.08730324357748032, -0.044327665120363235, -0.15927784144878387, 0.06321670114994049, -0.05011025816202164, -0.05858398601412773, 0.022225085645914078, -0.03248938173055649, 0.032057829201221466, -0.011924253776669502, 0.013572152704000473, -0.09235352277755737, -0.031331807374954224, -0.12065663933753967, -0.014277239330112934},
 {0.004456558730453253, 0.08535689860582352, -0.044382695108652115, 0.05576092004776001, -0.012883981689810753, 0.045756611973047256, 0.11687304824590683, 0.03418126329779625, 0.1268720179796219, -0.027680300176143646, -0.2177780121564865, -0.03743415325880051, -0.03413815051317215, -0.17315711081027985, 0.10843928158283234, 0.028433486819267273, -0.10979931056499481, -0.08326982706785202, -0.010664083994925022, -0.06583915650844574, 0.13196015357971191, -0.03619777038693428, 0.1304384022951126, -0.11736035346984863, -0.04198092222213745, -0.046160902827978134, 0.04178711026906967, -0.05530308559536934, -0.19001837074756622, 0.11811084300279617, -0.08440887182950974, 0.12527430057525635, -0.02251042239367962, 0.0761713907122612, 0.07847999781370163, -0.027635358273983, 0.005307834595441818, 0.09930820763111115, 0.09821336716413498, -0.06532610207796097, -0.003377389395609498, -0.32078489661216736, 0.020972492173314095, 0.09071557968854904, -0.041622526943683624, 0.04728327691555023, -0.014739124104380608, -0.22035834193229675, -0.017495926469564438, -0.08210635185241699, 0.11934229731559753, 0.060509081929922104, 0.06219463795423508, 0.00582544133067131, -0.01592773199081421, 0.04732609912753105, -0.0350554920732975, 0.19390270113945007, 0.07439746707677841, 0.03823724389076233},
 {0.06443087756633759, 0.037016574293375015, 0.00685788132250309, 0.1157359853386879, -0.0785742774605751, 0.004494922701269388, -0.003187374910339713, -0.06684862077236176, 0.08343525975942612, 0.040421195328235626, -0.18543633818626404, -0.004066871013492346, -0.04349229112267494, -0.05381239578127861, 0.062131237238645554, -0.002797749126330018, -0.08328133076429367, -0.011958945542573929, -0.1111583411693573, -0.09406356513500214, -0.02549409680068493, -0.020060276612639427, 0.04493794962763786, -0.08180096745491028, -0.04903342202305794, 0.004585017450153828, 0.1428181529045105, -0.0554807074368, -0.2387768179178238, 0.027819668874144554, -0.11784227192401886, 0.12928226590156555, 0.10120925307273865, -0.023142138496041298, 0.025493713095784187, -0.06508442759513855, 0.04416130855679512, -0.03411952033638954, 0.0930083692073822, 0.003587370039895177, 0.03638419881463051, -0.3474145233631134, -0.09554429352283478, 0.07459035515785217, 0.07606282830238342, 0.06992079317569733, -0.038894787430763245, -0.03450009599328041, -0.03635028749704361, 0.04947294294834137, -0.03251473605632782, -0.09487687796354294, 0.024770844727754593, 0.05321526527404785, 0.05622390657663345, 0.05898464843630791, 0.07252885401248932, 0.024224601686000824, -0.015568753704428673, 0.11117654293775558},
 {0.09010584652423859, -0.15074841678142548, 0.10338657349348068, -0.17460176348686218, -0.09366840869188309, 0.15626896917819977, -0.11001694202423096, 0.3621595501899719, -0.03975725546479225, -0.006535384338349104, -0.38784608244895935, 0.19055497646331787, -0.1873565912246704, -0.016673587262630463, 0.13024382293224335, 0.019482413306832314, -0.26877763867378235, -0.12100372463464737, -0.14773917198181152, -0.1679890751838684, -0.42051824927330017, -0.11332827806472778, -0.05181078240275383, -0.12015467882156372, 0.23086391389369965, 0.12218465656042099, -0.3430381119251251, 0.19237908720970154, -0.18132969737052917, -0.09733118861913681, 0.3960263133049011, -0.381111741065979, -0.03787096589803696, 0.06628762930631638, -0.12405955791473389, -0.4737086892127991, 0.05420634150505066, 0.02941378951072693, 0.12603792548179626, -0.13086657226085663, -0.30801814794540405, -0.07327785342931747, -0.0694986954331398, 0.08374366164207458, -0.07107844203710556, -0.15335659682750702, 0.02945064567029476, 0.08290868997573853, 0.19175031781196594, -0.2708269953727722, 0.6151200532913208, 0.07740923017263412, -0.19895514845848083, -0.01602151058614254, 0.09191346913576126, 0.2477172613143921, 0.07572799175977707, -0.07475893199443817, 0.14205767214298248, 0.1923738270998001},
 {0.03993845731019974, 0.05771153047680855, -0.12132444977760315, -0.09018447995185852, 0.07199990004301071, 0.03201939910650253, -0.13259254395961761, 0.01862746849656105, 0.06370920687913895, -0.11690591275691986, -0.385099321603775, 0.11099737137556076, -0.0024401433765888214, 0.045717284083366394, 0.07125405967235565, -0.005038104485720396, -0.14781086146831512, -0.04615124315023422, -0.18520894646644592, 0.03954380750656128, 0.10908179730176926, 0.01396922767162323, -0.019079308956861496, -0.08357992023229599, 0.04622728005051613, -0.22437690198421478, -0.07144114375114441, 0.10131071507930756, -0.0749346911907196, 0.057047948241233826, 0.25528064370155334, -0.04842112213373184, -0.06433176249265671, -0.06789033114910126, -0.004190993495285511, -0.06421880424022675, 0.0006988804088905454, -0.10257419943809509, 0.03845710679888725, -0.0469302237033844, 0.09454811364412308, -0.047086238861083984, 0.034998565912246704, 0.07305323332548141, -0.241417795419693, -0.012786448933184147, -0.15035779774188995, -0.09971209615468979, 0.10432545095682144, -0.04359999671578407, 0.22298157215118408, -0.09905919432640076, -0.14231260120868683, 0.06799042224884033, 0.025953054428100586, 0.16232606768608093, 0.00832812488079071, 0.07439561933279037, 0.015839260071516037, 0.07075390219688416},
 {-0.04647856205701828, -0.016852345317602158, 0.08474910259246826, 0.24148747324943542, 0.04791771620512009, -0.018991168588399887, -0.010591333732008934, 0.07013573497533798, -0.17780625820159912, 0.06588645279407501, -0.25296980142593384, -0.041433367878198624, -0.029267655685544014, 0.06858725845813751, -0.03518759831786156, -0.19109328091144562, -0.10589244961738586, 0.1497204750776291, -0.23367497324943542, 0.08609531819820404, 0.17076075077056885, 0.2399974763393402, -0.08647273480892181, 0.13991329073905945, 0.21532753109931946, -0.16160570085048676, -0.12730498611927032, 0.16413068771362305, 0.05228829383850098, -0.08202055096626282, 0.23174728453159332, -0.05897526443004608, -0.08422558009624481, -0.33179089426994324, -0.0582708939909935, 0.1502586007118225, 0.10820126533508301, 0.010309116914868355, -0.14852893352508545, -0.11598461866378784, 0.3353147804737091, -0.07347285002470016, 0.03675314411520958, -0.2719438970088959, -0.17365510761737823, -0.10760403424501419, -0.2909155488014221, -0.2188553661108017, 0.08850791305303574, -0.001581175602041185, -0.1256628781557083, -0.1820252388715744, 0.06306467950344086, 0.1854061633348465, -0.1562371701002121, 0.02702667936682701, 0.16762056946754456, -0.08085770905017853, -0.17013785243034363, 0.006439657416194677},
 {0.20569290220737457, 0.14787153899669647, -0.061037931591272354, 0.037280548363924026, -0.2402610033750534, 0.09034105390310287, 0.07865099608898163, -0.012259168550372124, 0.12435749173164368, -0.02405577525496483, -0.22200599312782288, 0.009968571364879608, -0.13968057930469513, 0.052563268691301346, 0.1674717664718628, -0.03594287484884262, -0.05859249830245972, -0.029642866924405098, 0.024673406034708023, -0.2774678170681, 0.03188661113381386, -0.05835627019405365, 0.02380187250673771, -0.20248661935329437, -0.011644315905869007, -0.003387738484889269, 0.13593393564224243, -0.02008635364472866, -0.4136067032814026, 0.15132342278957367, -0.32431724667549133, 0.01333712413907051, 0.12431439757347107, 0.2599499821662903, -0.059694431722164154, -0.034410588443279266, 0.09772976487874985, 0.03095916099846363, 0.07432935386896133, -0.06695752590894699, -0.004714292008429766, -0.24829958379268646, -0.028979677706956863, -0.04918341711163521, 0.07000849395990372, -0.002179347211495042, 0.16304349899291992, -0.09992318600416183, -0.38456737995147705, -0.04889468476176262, -0.34315067529678345, 0.06200183182954788, 0.1182229220867157, -0.006831969600170851, -0.0072869909927248955, 0.028444966301321983, -0.07605362683534622, -0.10210947692394257, -0.048873577266931534, 0.04530056565999985},
 {0.15300308167934418, 0.09393125027418137, -0.0042977225966751575, 0.14752623438835144, 0.004413594026118517, 0.04031510651111603, 0.12317195534706116, -0.13014166057109833, 0.0572567880153656, -0.07274246960878372, -0.12577912211418152, 0.027696406468749046, 0.08743798732757568, -0.09024064242839813, 0.06364621222019196, 0.07723341882228851, -0.019017193466424942, 0.11256752908229828, -0.06007358804345131, -0.15663038194179535, 0.08976319432258606, -0.023483995348215103, 0.11423356831073761, -0.17018063366413116, -0.1612490564584732, 0.00945177674293518, 0.19545456767082214, 0.03435584530234337, -0.22038014233112335, 0.13557429611682892, -0.09399725496768951, 0.16864128410816193, 0.0083784069865942, 0.15381495654582977, -0.022732917219400406, 0.09721570461988449, -0.010119778104126453, 0.011190983466804028, 0.053993675857782364, -0.035147879272699356, 0.03243139013648033, -0.25908660888671875, 0.013875490054488182, 0.03695521876215935, 0.03424673527479172, 0.038234930485486984, 0.07444757968187332, -0.04647982120513916, -0.17953743040561676, 0.10519614070653915, -0.22375375032424927, -0.09776504337787628, 0.15388505160808563, 0.08717653155326843, 0.09639357775449753, 0.07185258716344833, 0.04731691628694534, -0.14330509305000305, 0.03196747228503227, -0.10270223766565323},
 {-0.04078573361039162, 0.0936477929353714, -0.03949781134724617, -0.04798901453614235, 0.05890723690390587, 0.045906517654657364, 0.046549372375011444, -0.10333262383937836, 0.023410044610500336, -0.016208035871386528, -0.19003188610076904, 0.008894640952348709, -0.03727186843752861, -0.13314494490623474, 0.16004793345928192, 0.055380623787641525, 0.1394377052783966, 0.02152375318109989, -0.008554790169000626, -0.013149489648640156, 0.07432517409324646, -0.052038274705410004, 0.2231559157371521, -0.1270156055688858, -0.06011171266436577, 0.012493330053985119, 0.0690239667892456, -0.08846209198236465, 0.014705246314406395, -0.015153725631535053, -0.008682535029947758, 0.2332860231399536, 0.09258759766817093, 0.0207316055893898, 0.027676966041326523, -0.15530814230442047, -0.05414113402366638, -0.05437902361154556, 0.05412224680185318, -0.07972636818885803, 0.011158461682498455, -0.25259050726890564, 0.003440151223912835, -0.004732995294034481, 0.04900176078081131, 0.08882762491703033, -0.009970707818865776, -0.11802498996257782, 0.10845748335123062, -0.05990729108452797, -0.019224509596824646, 0.08966074883937836, 0.19588814675807953, -0.0332920216023922, 0.14368954300880432, 0.10744352638721466, 0.008571654558181763, 0.05708573758602142, 0.059018127620220184, -0.018890006467700005},
 {0.10170875489711761, -0.1432640105485916, -0.03500600531697273, -0.15757876634597778, -0.04995739832520485, -0.042532604187726974, -0.10605926811695099, 0.2815779447555542, -0.2023221105337143, -0.06973009556531906, 0.040782276540994644, 0.0009717794600874186, -0.006164901424199343, 0.183055117726326, 0.02536921016871929, -0.0200768131762743, -0.14330315589904785, 0.1095893606543541, -0.22110530734062195, -0.09444858878850937, -0.05367910861968994, -0.09601309895515442, 0.039511341601610184, 0.024213247001171112, 0.12276218086481094, -0.0506494902074337, -0.13162446022033691, -0.03386293351650238, -0.01652730442583561, -0.2135356068611145, -0.018452007323503494, -0.14410434663295746, 0.02444109320640564, 0.04625938832759857, -0.06767015904188156, -0.1349445879459381, 0.11236431449651718, -0.09498437494039536, 0.008791494183242321, 0.19144456088542938, 0.04941016435623169, 0.1166643276810646, 0.02712002396583557, 0.04006393253803253, -0.08971724659204483, 0.08950483053922653, -0.049504365772008896, 0.06871265172958374, 0.17738179862499237, 0.007237914018332958, 0.20987915992736816, 0.24100223183631897, -0.37827733159065247, -0.03094376251101494, -0.10202887654304504, 0.027047036215662956, 0.11175722628831863, 0.09337258338928223, -0.0230752881616354, 0.24707072973251343},
 {0.232341930270195, 0.10576589405536652, -0.048182304948568344, 0.06140979751944542, -0.11323681473731995, -0.120737224817276, 0.057178057730197906, 0.07850194722414017, 0.04631779342889786, 0.071096271276474, -0.20606614649295807, 0.07628252357244492, -0.033916592597961426, 0.14864304661750793, 0.05604355409741402, -0.11756332963705063, -0.21601971983909607, -0.13059386610984802, -0.00973905622959137, -0.2347709834575653, 0.06024549901485443, 0.01905582658946514, 0.0836184099316597, -0.08504857867956161, -0.09630899876356125, 0.03379575535655022, 0.04488915205001831, -0.0404549203813076, 0.03937869146466255, 0.06220351904630661, -0.15611253678798676, -0.13529351353645325, -0.011624244973063469, 0.17684948444366455, -0.08596184849739075, 0.07152174413204193, 0.007460443768650293, 0.05161462351679802, -0.012813317589461803, -0.04711344093084335, 0.1772124320268631, -0.432378351688385, 0.03572821244597435, -0.058996547013521194, 0.021098852157592773, -0.01874139904975891, 0.05960359424352646, 0.0018635563319548965, -0.12241623550653458, 0.038597188889980316, -0.013328655622899532, -0.09439923614263535, -0.13249704241752625, 0.0688023567199707, 0.1384790688753128, -0.08613579720258713, -0.04634110629558563, 0.17256294190883636, 0.0065107522532343864, -0.08480764180421829},
 {0.20331335067749023, -0.10656668990850449, 0.12681756913661957, -0.39341723918914795, -0.014575728215277195, 0.01976003684103489, -0.1968635469675064, 0.21408219635486603, -0.15658031404018402, -0.1193552315235138, -0.017056437209248543, -0.07630821317434311, 0.1233777105808258, 0.1511705070734024, -0.002716650487855077, -0.012212504632771015, -0.07350800931453705, -0.15486134588718414, -0.16316169500350952, -0.003991746809333563, -0.023437868803739548, -0.01910019852221012, -0.047380462288856506, -0.03297651186585426, 0.20943643152713776, -0.06805717945098877, -0.186308354139328, -0.026442458853125572, 0.09558424353599548, -0.06413556635379791, -0.01016828790307045, -0.13796482980251312, 0.08839289844036102, 0.04975435510277748, 0.20857934653759003, 0.0313250869512558, -0.034942641854286194, -0.011792452074587345, 0.0014976604143157601, 0.1990233212709427, -0.03382844850420952, -0.0034127698745578527, 0.023247841745615005, -0.1549108326435089, 0.13481973111629486, -0.04134952276945114, -0.1555519700050354, 0.12791649997234344, -0.030484002083539963, 0.03843024745583534, 0.3455865681171417, 0.2581647038459778, -0.434966117143631, 0.03353630751371384, -0.04231812804937363, -0.05722817778587341, -0.12674514949321747, 0.027755258604884148, 0.024775298312306404, 0.06931719928979874},
 {0.170474573969841, -0.02844993956387043, -0.025936327874660492, -0.16230997443199158, 0.1382225900888443, 0.045728422701358795, -0.03857408091425896, 0.20058397948741913, -0.09599033743143082, -0.07262441515922546, -0.13853532075881958, 0.11550179123878479, -0.15084350109100342, -0.04263655096292496, 0.07727305591106415, 0.1348607838153839, 0.02041962370276451, 0.10147899389266968, -0.3512139618396759, 0.0035628965124487877, 0.007080777082592249, 0.006343980319797993, 0.14401400089263916, -0.01107768900692463, 0.20977632701396942, 0.01826087199151516, -0.12971162796020508, 0.11912471801042557, -0.06837569922208786, 0.03673328831791878, 0.22117075324058533, -0.20987246930599213, 0.03914928063750267, 0.1496153324842453, -0.04242502525448799, -0.2518155574798584, -0.014247545972466469, 0.0033023098949342966, 0.02279275842010975, -0.04223213717341423, -0.004867257550358772, 0.06162004545331001, 0.17488230764865875, 0.04410874843597412, 0.026553232222795486, 0.16747131943702698, -0.24102948606014252, 0.1736673265695572, 0.13224805891513824, -0.1683160811662674, 0.05207277834415436, 0.28016674518585205, -0.44540902972221375, -0.004505735822021961, 0.06502988934516907, 0.13810591399669647, 0.09869478642940521, 0.010494505055248737, 0.0714111179113388, 0.1254342943429947},
 {0.270004004240036, -0.05057751387357712, -0.24278882145881653, 0.1684742569923401, -0.0785796046257019, -0.2080211639404297, -0.048736557364463806, 0.1616564244031906, -0.17592473328113556, -0.10102366656064987, 0.039979320019483566, 0.036204736679792404, -0.007844893261790276, 0.09332267940044403, 0.10003568977117538, 0.029477812349796295, -0.3293459415435791, -0.3687332272529602, -0.12148083001375198, -0.14993718266487122, 0.11217281967401505, 0.05596305429935455, -0.004152946174144745, 0.03146445006132126, -0.01769782230257988, -0.11069385707378387, -0.03700841963291168, 0.03612846881151199, -0.04126324504613876, 0.025772467255592346, -0.020607732236385345, -0.022618448361754417, -0.040464721620082855, 0.025919146835803986, 0.054234012961387634, 0.22783951461315155, 0.04401930421590805, -0.06982345134019852, -0.09027080237865448, 0.24358028173446655, 0.18614314496517181, -0.059640463441610336, 0.05364946648478508, -0.1966763585805893, -0.22265824675559998, -0.009115672670304775, 0.06208707392215729, -0.004529515281319618, 0.043607842177152634, 0.05973619222640991, -0.050040505826473236, 0.04558127000927925, -0.2467934489250183, 0.09143928438425064, 0.11474732309579849, 0.05623031035065651, 0.07813971489667892, 0.12137676030397415, -0.1859862208366394, -0.017265459522604942},
 {0.29459530115127563, 0.13129982352256775, 0.06975790113210678, 0.07906679809093475, -0.17416077852249146, -0.4479217827320099, -0.026478378102183342, -0.016142504289746284, 0.01657315157353878, -0.051699936389923096, -0.2661709487438202, 0.25180765986442566, 0.002559259068220854, 0.13305391371250153, 0.07036085426807404, -0.058326058089733124, -0.09958581626415253, -0.03132675588130951, 0.13188953697681427, -0.5407413840293884, 0.10189130157232285, -0.07094986736774445, 0.03388955444097519, -0.18109840154647827, 0.04338020831346512, 0.08979841321706772, 0.05458471179008484, 0.09557060897350311, -0.4709782004356384, 0.03220642730593681, -0.012807445600628853, -0.1694226711988449, -0.10221727192401886, 0.2606511414051056, -0.104953333735466, 0.11648362874984741, 0.10689685493707657, -0.012187844142317772, -0.021812668070197105, 0.026630355045199394, 0.03188895061612129, -0.49466073513031006, -0.0036330856382846832, 0.08112400025129318, -0.1427842080593109, -0.05417405813932419, 0.20449529588222504, -0.056335873901844025, -0.2546314299106598, 0.015141894109547138, -0.0655166283249855, -0.18959468603134155, -0.09711828082799911, 0.12460440397262573, 0.06486283987760544, -0.13103793561458588, -0.010699503123760223, -0.05889921262860298, -0.0664447546005249, 0.021815987303853035},
 {-0.0123386075720191, 0.011693526990711689, -0.028022557497024536, 0.07095863670110703, -0.015138438902795315, 0.09465833753347397, 0.028978800401091576, -0.08721296489238739, -0.023003268986940384, -0.075589120388031, -0.14665497839450836, 0.006302967667579651, -0.005296319257467985, 0.005536846350878477, 0.21020351350307465, 0.1264289915561676, 0.04079323261976242, 0.097231425344944, -0.17980407178401947, -0.07000285387039185, 0.008332203142344952, -0.14146918058395386, 0.10631697624921799, -0.18505750596523285, -0.11664564907550812, 0.18359223008155823, 0.0869462713599205, 0.07403058558702469, -0.0015347066801041365, 0.023219438269734383, 0.013260715641081333, 0.0771801620721817, 0.12506508827209473, 0.14921504259109497, 0.18416844308376312, -0.13532519340515137, 0.18061192333698273, -0.03158893808722496, 0.06285112351179123, -0.29560089111328125, 0.12592387199401855, -0.10691477358341217, -0.13719995319843292, -0.005925092846155167, 0.0711262971162796, 0.05381133779883385, -0.00981611292809248, -0.02356775850057602, -0.0302589014172554, 0.030895056203007698, -0.04018010199069977, 0.08538202196359634, 0.10693514347076416, -0.1542567014694214, 0.02957833930850029, 0.12608052790164948, 0.05735671520233154, -0.06273199617862701, 0.05165208876132965, -0.03293940797448158},
 {0.16272811591625214, -0.03279215469956398, 0.06820299476385117, -0.028408430516719818, 0.1288880556821823, 0.09584406763315201, -0.021776100620627403, 0.2771315276622772, -0.2215108871459961, -0.03759269416332245, 0.12278782576322556, -0.15156617760658264, 0.03900843858718872, 0.16655218601226807, 0.006181539501994848, 0.07811249047517776, 0.02364792861044407, -0.04836251586675644, 0.03488020598888397, -0.038731321692466736, 0.163033127784729, 0.11838016659021378, -0.06556247174739838, 0.11412878334522247, 0.15682953596115112, -0.08490566164255142, -0.02648424729704857, -0.003369679907336831, 0.20249754190444946, -0.1274435818195343, -0.08689213544130325, 0.05558459833264351, 0.04641232639551163, -0.03729111701250076, -0.010747268795967102, 0.1386706531047821, -0.021833380684256554, 0.019386330619454384, -0.01522060390561819, 0.21219107508659363, 0.11452741920948029, 0.07725024223327637, -0.0027839543763548136, -0.2089398354291916, -0.11082170158624649, 0.0820513665676117, -0.1900741457939148, -0.07543893903493881, -0.032796893268823624, 0.09064435958862305, -0.06150377169251442, 0.15607580542564392, -0.14412973821163177, 0.18068340420722961, 0.03480537608265877, 0.06283669173717499, -0.10723710060119629, 0.13009683787822723, -0.10750645399093628, -0.021197639405727386},
 {0.030398059636354446, -0.037716206163167953, -0.008741488680243492, 0.040300872176885605, 0.028574638068675995, 0.08239355683326721, 0.053635720163583755, -0.025607410818338394, 0.06055997684597969, -0.014274153858423233, -0.06178708001971245, 0.03989164158701897, 0.0152933644130826, -0.1077425479888916, 0.11563915759325027, 0.09152595698833466, 0.002206307603046298, -0.043608587235212326, -0.06697023659944534, -0.0013347449712455273, -0.04469112679362297, -0.006282519083470106, 0.07754110544919968, -0.048795998096466064, -0.003334700595587492, 0.04143663868308067, 0.08275846391916275, 0.006468377076089382, 0.034223899245262146, 0.05603155121207237, -0.10672468692064285, 0.10623104870319366, 0.05742058902978897, 0.05692896619439125, 0.06518379598855972, -0.02895636297762394, 0.04006682336330414, 0.06899480521678925, 0.005302011035382748, 0.015387794934213161, 0.08476529270410538, -0.15495796501636505, -0.006271368358284235, 0.11921777576208115, -0.02200891077518463, 0.07082871347665787, 0.03023754432797432, -0.06680984050035477, 0.028742974624037743, -0.01834753155708313, -0.04032232239842415, 0.0033376722130924463, 0.11592533439397812, 0.010167940519750118, 0.040413614362478256, -0.04571497440338135, 0.022780323401093483, 0.008777230978012085, 0.09515564143657684, 0.04377398267388344},
 {-0.0529177188873291, 0.12350855022668839, 0.006937544327229261, 0.07825183868408203, 0.006333949044346809, 0.022073999047279358, 0.053234610706567764, 0.05117631331086159, 0.004086906090378761, -0.10866620391607285, -0.11001934111118317, -0.006585299037396908, 0.09124129265546799, 0.03377768397331238, 0.049823131412267685, 0.06316456943750381, -0.08769553899765015, 0.08160518854856491, -0.049865350127220154, -0.07535124570131302, 0.04343542084097862, 0.07987183332443237, 0.007599115837365389, 0.04292312636971474, 0.10775590687990189, 0.05849596858024597, -0.012962979264557362, -0.046066153794527054, 0.08049032092094421, -0.043027352541685104, -0.11415588855743408, 0.10202096402645111, 0.10918237268924713, -0.0028209907468408346, 0.06786911934614182, 0.13576532900333405, -0.0165451280772686, -0.0018645088421180844, -0.00012703335960395634, 0.04958747699856758, 0.0015719354851171374, -0.14500632882118225, -0.06591250002384186, 0.012897639535367489, -0.08827920258045197, 0.048114433884620667, 0.04768643528223038, -0.0891401544213295, 0.00040521647315472364, 0.08963677287101746, -0.06569650024175644, 0.04178760573267937, 0.06878561526536942, -0.017638925462961197, -0.07096921652555466, 0.017086481675505638, 0.04015883803367615, 0.055536579340696335, -0.035444602370262146, -0.04315550997853279},
 {0.18527816236019135, 0.0012334908824414015, 0.02649553120136261, -0.046582043170928955, -0.21281394362449646, 0.08626799285411835, -0.019862892106175423, -0.09915659576654434, -0.0460517592728138, 0.0630873590707779, -0.4976019263267517, 0.12815992534160614, 0.00260916561819613, -0.16612030565738678, 0.12962637841701508, 0.08927536755800247, -0.10071025788784027, 0.006839454174041748, -0.45812445878982544, 0.12824228405952454, 0.05044759064912796, 0.0011379397474229336, 0.0876750648021698, -0.1752990335226059, -0.04592223837971687, 0.0861303061246872, -0.012313292361795902, 0.04471925273537636, -0.04005448520183563, -0.07126858830451965, 0.2673327326774597, -0.20296187698841095, -0.10054359585046768, 0.21338938176631927, 0.10338325798511505, -0.34985482692718506, 0.07227839529514313, 0.028141822665929794, 0.1239197626709938, -0.2578064501285553, -0.10658618062734604, -0.07836941629648209, 0.05455649271607399, 0.017858954146504402, 0.18803755939006805, 0.20672932267189026, -0.14221511781215668, 0.19016775488853455, 0.0999501422047615, -0.11656583100557327, 0.25175175070762634, 0.2261641025543213, -0.25550416111946106, 0.016561541706323624, 0.07260873168706894, 0.08473214507102966, -0.0905313491821289, -0.024243328720331192, -0.028599917888641357, 0.14031864702701569},
 {0.14860320091247559, -0.14201226830482483, -0.030639266595244408, -0.29377493262290955, 0.18305513262748718, 0.12259185314178467, -0.26057931780815125, 0.29252031445503235, -0.0625421404838562, -0.0764407142996788, -0.15901170670986176, 0.0633891150355339, -0.008608967065811157, 0.08306393027305603, 0.041975777596235275, 0.15695352852344513, 0.06874945014715195, 0.07198768854141235, -0.0960107073187828, 0.007264199201017618, 0.07423955947160721, 0.05219832435250282, -0.05993812903761864, 0.09074584394693375, 0.19732916355133057, -0.025063803419470787, -0.19282396137714386, -0.06812992691993713, 0.07469470053911209, 0.05958597734570503, 0.08766309916973114, -0.1541060358285904, 0.05819961056113243, 0.07724598050117493, 0.02972358651459217, -0.004013841971755028, -0.04782714322209358, 0.007437355816364288, -0.12417550384998322, 0.047818899154663086, -0.14142580330371857, -0.04107660800218582, 0.12893004715442657, 0.11761898547410965, -0.0038348345551639795, -0.04721793159842491, -0.16527362167835236, 0.07165606319904327, -0.031600795686244965, -0.05616377294063568, 0.13481128215789795, 0.2675854563713074, -0.3102857768535614, 0.04806660860776901, -0.028662772849202156, -0.01717306673526764, 0.010350685566663742, 0.03549492359161377, 0.1214863583445549, -0.022770291194319725},
 {0.1469062715768814, -0.24856893718242645, 0.20980964601039886, 0.02792932279407978, 0.1612081527709961, 0.21584264934062958, -0.17439085245132446, 0.20741593837738037, -0.21931332349777222, -0.0452006533741951, 0.20544330775737762, -0.20415182411670685, 0.1803661733865738, 0.0625312551856041, -0.06504639238119125, -0.013335151597857475, -0.2682381868362427, 0.19778673350811005, -0.3124920725822449, 0.15400119125843048, 0.07053656876087189, 0.2328878492116928, -0.15269558131694794, 0.02779209613800049, 0.16265210509300232, -0.21123528480529785, -0.41091224551200867, 0.05559311434626579, 0.17199024558067322, -0.11085835099220276, -0.0854777842760086, -0.10155652463436127, -0.22347494959831238, -0.18525159358978271, 0.052483152598142624, 0.07978782802820206, -0.07760857790708542, 0.0014507349114865065, -0.18077845871448517, 0.12680406868457794, 0.2874845862388611, 0.21789275109767914, 0.13795261085033417, -0.3580152690410614, -0.10580383986234665, 0.007957248948514462, -0.1451544612646103, 0.1294489949941635, 0.3929511606693268, -0.10049205273389816, -0.007895234040915966, -0.026168713346123695, -0.2062676101922989, 0.27884915471076965, -0.3159247934818268, 0.34497421979904175, 0.04447703808546066, 0.12397657334804535, -0.058828987181186676, 0.16080902516841888},
 {0.11608245968818665, 0.12160411477088928, 0.05652020871639252, 0.13576491177082062, -0.22697263956069946, -0.20025238394737244, 0.013468370772898197, -0.1533784121274948, 0.1308554857969284, -0.012640775181353092, -0.12990187108516693, 0.02595723792910576, -0.0555228665471077, 0.07537036389112473, 0.18375281989574432, -0.038805168122053146, 0.07794347405433655, -0.05292442440986633, 0.1939976066350937, -0.3427754342556, 0.13136012852191925, -0.05583162233233452, 0.0690840631723404, -0.09970532357692719, -0.13468776643276215, 0.0028707454912364483, 0.12219292670488358, 0.041485920548439026, -0.16062653064727783, 0.0918697863817215, -0.4754659831523895, -0.005711756180971861, 0.14971424639225006, 0.047940295189619064, -0.14177465438842773, 0.02459469437599182, 0.07208317518234253, 0.08323194086551666, 0.00486503541469574, 0.036488838493824005, 0.048740170896053314, -0.3055817186832428, 0.06606336683034897, -0.014759227633476257, -0.022600073367357254, -0.04571996256709099, 0.06839890778064728, -0.1921185553073883, -0.27071136236190796, 0.05264141410589218, -0.16900385916233063, -0.2998191714286804, 0.1997891515493393, 0.014540059491991997, -0.06478070467710495, -0.05563955381512642, 0.002038376173004508, 0.02220192737877369, 0.16099277138710022, -0.21665196120738983},
 {-0.00889801699668169, 0.11108903586864471, 0.06526907533407211, 0.008589297533035278, -0.04244517907500267, -0.12440124899148941, 0.041746363043785095, 0.04153798893094063, 0.07922777533531189, -0.09325305372476578, -0.03400195389986038, 0.05777520686388016, 0.17348800599575043, 0.1158878281712532, -0.03633448854088783, 0.08504839241504669, 0.0979543924331665, -0.023602191358804703, 0.07622107863426208, -0.07034166157245636, 0.11904864013195038, 0.1415429413318634, 0.0033917808905243874, -0.10029036551713943, -0.0015880023129284382, 0.06314115971326828, 0.006003870163112879, 0.04987035691738129, 0.07523179054260254, 0.09777294099330902, -0.2477007955312729, 0.15741418302059174, 0.055158909410238266, 0.04279746487736702, -0.017981255427002907, 0.12331858277320862, 0.06664013862609863, 0.11735277622938156, 0.11553709954023361, 0.04291689395904541, 0.14342118799686432, -0.13964451849460602, 0.09946729242801666, 0.031273260712623596, -0.12520435452461243, 0.03033609315752983, -0.004773858934640884, -0.2103956788778305, -0.08130037784576416, 0.07726749777793884, -0.005483608227223158, -0.02979520708322525, 0.2069006711244583, 0.21274062991142273, -0.009002622216939926, 0.0380343496799469, 0.02519940212368965, -0.008239553309977055, 0.036455437541007996, -0.24156558513641357},
 {-0.033703118562698364, 0.11332793533802032, -0.09003312140703201, 0.05855618789792061, 0.11266892403364182, 0.018245963379740715, -0.011175616644322872, 0.0036485912278294563, 0.0005894051864743233, -0.10770604014396667, -0.01570415124297142, 0.03054075315594673, 0.04149254038929939, -0.07635164260864258, 0.12900497019290924, 0.06562647968530655, 0.06581674516201019, 0.009254226461052895, 0.02147902548313141, 0.051303353160619736, -0.01007509883493185, -0.01839291863143444, 0.18132182955741882, -0.039956752210855484, -0.03238057717680931, -0.017324931919574738, 0.07690401375293732, -0.0872742161154747, 0.1319238841533661, -0.046587202697992325, -0.17397093772888184, 0.12652252614498138, 0.08791293948888779, -0.00906231440603733, 0.01702875643968582, 0.019868139177560806, 0.008885079994797707, 0.028876325115561485, 0.09518430382013321, -0.026221977546811104, -0.013424542732536793, -0.0697745680809021, 0.04225645586848259, -0.06751091033220291, -0.12877458333969116, 0.03148672729730606, -0.02718568779528141, -0.13319045305252075, -0.03986683487892151, 0.0035056788474321365, -0.006777315400540829, 0.08424770087003708, 0.03634670004248619, -0.03953058645129204, 0.04889344051480293, 0.038229938596487045, -0.018145261332392693, -0.046317052096128464, 0.0060149505734443665, -0.006784381344914436},
 {0.12696565687656403, -0.08504743129014969, 0.06607040762901306, -0.16552875936031342, 0.02080477960407734, -0.10328523814678192, -0.11717270314693451, 0.17410629987716675, -0.22124764323234558, 0.013076362200081348, 0.018066439777612686, -0.0561198927462101, -0.058645863085985184, 0.23069369792938232, -0.03773006051778793, -0.02480333112180233, -0.14689132571220398, 0.04187411442399025, -0.07389179617166519, -0.05250079929828644, -0.10828658938407898, 0.14726917445659637, 0.05676214396953583, 0.14776042103767395, 0.005281003657728434, 0.21377436816692352, -0.12938253581523895, 0.2611308693885803, -0.12765450775623322, -0.2960878908634186, 0.02617397904396057, -0.1333800107240677, 0.12930142879486084, 0.2223966270685196, 0.09194870293140411, -0.20957395434379578, -0.007873035967350006, 0.05024135112762451, 0.10389239341020584, 0.26323628425598145, -0.07051949203014374, 0.14693191647529602, -0.1495956927537918, 0.18563801050186157, 0.22422008216381073, 0.01837533712387085, 0.013070627115666866, 0.008465155027806759, 0.1746593862771988, -0.02620277740061283, 0.1398431807756424, 0.19967320561408997, -0.44206783175468445, -0.21400296688079834, -0.05387675389647484, -0.07625547796487808, 0.08721725642681122, 0.16009140014648438, -0.01659323088824749, 0.30720004439353943},
 {0.16938455402851105, 0.022669034078717232, 0.0768364742398262, 0.09791617840528488, 0.004753881599754095, -0.19195495545864105, -0.010190656408667564, 0.14628465473651886, 0.05398886650800705, 0.06113544851541519, 0.08183932304382324, -0.03958170861005783, 0.20798903703689575, 0.11194795370101929, 0.07345099747180939, -0.11177343875169754, -0.08270450681447983, 0.023955490440130234, 0.08195443451404572, -0.3396035134792328, 0.13437390327453613, 0.15877147018909454, 0.08120553940534592, 0.06166667118668556, 0.1343081146478653, -0.008767159655690193, 0.08794917911291122, -0.0818750187754631, -0.05738869681954384, 0.09936361014842987, -0.18365101516246796, -0.2151779681444168, 0.09345688670873642, 0.1683485358953476, -0.1551765650510788, 0.1910918951034546, -0.09303692728281021, -0.022579709067940712, -0.08248361945152283, 0.1048324927687645, -0.061560213565826416, -0.12570573389530182, 0.10056643933057785, -0.04743465036153793, -0.027052907273173332, -0.06658288091421127, -0.07985266298055649, -0.06701628863811493, 0.007746119052171707, 0.13687562942504883, -0.13265034556388855, -0.08589927107095718, -0.04999891296029091, 0.14271274209022522, -0.08570441603660583, -0.038605790585279465, 0.03880079835653305, 0.19037014245986938, -0.010601689107716084, -0.12311454862356186},
 {0.30297645926475525, -0.40810224413871765, -0.2771536409854889, -0.21130602061748505, 0.21221406757831573, 0.0705508217215538, -0.28369784355163574, 0.21642372012138367, -0.19036579132080078, -0.07599666714668274, 0.15934763848781586, -0.2117777317762375, 0.12580344080924988, -0.34951964020729065, -0.17077511548995972, -0.22612504661083221, -0.4559476971626282, 0.06420298665761948, -0.31405848264694214, 0.058566413819789886, -0.07305417209863663, 0.10830561816692352, -0.13557617366313934, -0.14960134029388428, 0.19555936753749847, 0.08352623879909515, -0.050881560891866684, 0.24593105912208557, 0.36432942748069763, -0.07375352084636688, -0.058248475193977356, -0.12342298030853271, -0.09437490999698639, 0.10145294666290283, 0.1595725119113922, -0.19967862963676453, -0.09205098450183868, -0.05218885838985443, -0.0950240045785904, 0.15969647467136383, 0.04137380048632622, 0.15119339525699615, -0.05052442476153374, 0.08470973372459412, 0.16318166255950928, 0.19497522711753845, -0.00902764406055212, 0.19320988655090332, 0.20478613674640656, -0.07713683694601059, 0.126860573887825, 0.21948452293872833, -0.38997095823287964, -0.08422768115997314, -0.2071256935596466, 0.39931124448776245, 0.08688341081142426, 0.07455050945281982, -0.07655112445354462, 0.16754895448684692},
 {0.18801406025886536, -0.20744487643241882, 0.043607715517282486, -0.22286604344844818, 0.006703107617795467, 0.037782542407512665, -0.34076154232025146, -0.13118188083171844, -0.19325722754001617, -0.021140219643712044, -0.07118896394968033, -0.06299522519111633, 0.06556209176778793, -0.1511075347661972, 0.07484328746795654, -0.23900702595710754, -0.363294392824173, -0.15733851492404938, -0.15133212506771088, -0.22092722356319427, -0.022493718191981316, 0.07710273563861847, 0.01947987824678421, -0.13962417840957642, 0.0535082072019577, 0.19210702180862427, -0.16973452270030975, 0.1269063502550125, -0.005025525111705065, -0.16364163160324097, 0.10629367083311081, 0.009398842230439186, -0.11221741884946823, 0.2373044341802597, 0.20484355092048645, 0.02879461646080017, 0.18449819087982178, -0.10081329196691513, 0.17900051176548004, 0.17528136074543, -0.16514883935451508, 0.26617172360420227, 0.06911040097475052, 0.03389253094792366, 0.08801255375146866, 0.23079639673233032, 0.044191885739564896, -0.01850542426109314, 0.16561566293239594, -0.04504542797803879, 0.121608667075634, 0.31477636098861694, -0.5581976771354675, 0.00954890064895153, -0.011939166113734245, 0.06362520903348923, -0.02455878257751465, 0.13040922582149506, 0.15811175107955933, 0.11821697652339935},
 {0.12937037646770477, -0.07129229605197906, 0.05951077491044998, -0.01821441389620304, 0.1608860343694687, -0.0722760483622551, -0.07650098204612732, 0.2687709927558899, -0.039524633437395096, -0.10646211355924606, -0.00586791941896081, 0.07204397022724152, 0.18774272501468658, 0.17244118452072144, 0.13863272964954376, -0.1215735450387001, -0.23593086004257202, -0.1473408341407776, 0.02719351276755333, -0.05793147161602974, -0.03620792180299759, 0.05858665332198143, 0.016687704250216484, 0.09854661673307419, 0.07291451841592789, -0.12354449927806854, -0.23795242607593536, 0.061339203268289566, -0.06250640004873276, 0.051808152347803116, -0.11633774638175964, -0.1753983497619629, 0.09541002660989761, 0.005128149874508381, -0.07655394822359085, 0.05591501668095589, 0.07529370486736298, 0.01408279687166214, -0.12741729617118835, 0.23264533281326294, 0.07000836730003357, 0.15987937152385712, 0.14223895967006683, -0.10342343151569366, 0.09917996823787689, 0.032769687473773956, -0.09278179705142975, 0.04741977900266647, 0.14916351437568665, -0.04177358001470566, 0.03828715160489082, 0.06172506883740425, -0.45032450556755066, -0.08363083004951477, -0.1528943032026291, 0.05245322361588478, 0.06343421339988708, 0.14861255884170532, 0.013548248447477818, 0.07429259270429611},
 {0.17054083943367004, -0.03461608290672302, -0.08929160237312317, 0.030183156952261925, 0.06780838221311569, -0.3888106048107147, -0.3600790500640869, -0.023628083989024162, -0.06877913326025009, -0.03615817427635193, 0.11280009150505066, -0.0255486648529768, 0.148062065243721, 0.10853910446166992, 0.08598493039608002, -0.13938426971435547, -0.22141723334789276, -0.22594088315963745, 0.07987337559461594, -0.26399073004722595, 0.12192985415458679, 0.11202175170183182, -0.09833356738090515, -0.15606532990932465, 0.08231334388256073, 0.0058275628834962845, 0.15886718034744263, -0.09147302061319351, 0.14014281332492828, 0.1629025936126709, -0.2379368245601654, -0.06529480218887329, -0.05572804808616638, 0.06731656938791275, -0.2585020959377289, 0.17742696404457092, -0.006697619799524546, 0.11532359570264816, -0.16991475224494934, 0.05373651534318924, 0.035907190293073654, -0.26514285802841187, 0.03258141502737999, -0.22828836739063263, -0.19735507667064667, 0.044806815683841705, -0.023592742159962654, 0.12126948684453964, -0.14188076555728912, 0.006154665257781744, 0.06558559089899063, -0.38903817534446716, -0.23133325576782227, 0.2497667819261551, -0.16121447086334229, -0.014192141592502594, 0.017738619819283485, 0.20817376673221588, 0.05588740482926369, -0.3021244406700134},
 {-0.03475259244441986, -0.062209174036979675, 0.04040542617440224, 0.05888562649488449, -0.03008415177464485, -0.12622198462486267, -0.05147513002157211, -0.0403447262942791, 0.12110978364944458, 0.04242391884326935, -0.05260081589221954, 0.0650506541132927, 0.03504478558897972, 0.0954122468829155, 0.04324783384799957, 0.09084894508123398, -0.12311819195747375, 0.05769064277410507, 0.04570700600743294, -0.08976806700229645, 0.04587564989924431, 0.10648305714130402, 0.13922977447509766, -0.07276958227157593, -0.06442777812480927, -0.016263555735349655, 0.1507524996995926, -0.024545347318053246, 0.1211685985326767, -0.023667331784963608, -0.33107316493988037, 0.01283672172576189, 0.0008865005802363157, 0.006679770071059465, 0.03501018509268761, 0.04303797334432602, 0.06796004623174667, 0.11960472166538239, 0.17795373499393463, 0.11642824113368988, 0.18347273766994476, -0.04796614870429039, -0.2033890336751938, -0.027542944997549057, -0.050917528569698334, -0.0622597299516201, 0.01655564084649086, -0.07959160208702087, -0.15200918912887573, 0.090921550989151, 0.07556436955928802, 0.08331091701984406, 0.041444920003414154, 0.09991268813610077, 0.06583162397146225, 0.013824708759784698, 0.0027674806769937277, -0.08235469460487366, 0.014270591549575329, -0.12942436337471008},
 {0.09331394731998444, -0.1172066405415535, 0.19328612089157104, -0.04948904737830162, 0.11597950756549835, -0.08870477974414825, -0.39645498991012573, 0.22125768661499023, -0.1390472948551178, -0.13102132081985474, 0.4155120253562927, -0.01370234228670597, 0.05000588670372963, -0.06434294581413269, -0.26210591197013855, -0.04742680490016937, -0.017840087413787842, 0.06685108691453934, 0.0022483933717012405, 0.1429552584886551, -0.13771024346351624, 0.21551863849163055, -0.30739694833755493, -0.013524272479116917, 0.25469136238098145, -0.15467052161693573, -0.3296591341495514, 0.33708304166793823, 0.03327898308634758, -0.009977893903851509, 0.24947589635849, -0.3318862318992615, 0.025910310447216034, -0.16448195278644562, -0.15244705975055695, -0.27291908860206604, -0.05341518670320511, -0.29389381408691406, -0.15464678406715393, 0.1135702133178711, 0.04725160449743271, 0.2560573220252991, 0.1472339779138565, 0.049675650894641876, 0.1362115740776062, 0.033395763486623764, -0.14112472534179688, 0.22532306611537933, 0.3647562265396118, -0.14549314975738525, 0.31867334246635437, 0.133982852101326, -0.47990530729293823, 0.11980566382408142, -0.18276019394397736, 0.33022305369377136, 0.015414257533848286, 0.25161296129226685, 0.12757600843906403, 0.24569891393184662},
 {-0.0052962154150009155, 0.15595757961273193, -0.057432349771261215, -0.014068837277591228, 0.018782667815685272, 0.06304103136062622, -0.017880523577332497, -0.004487026482820511, 0.02090469002723694, -9.914836846292019e-05, -0.022853096947073936, 0.04642125591635704, 0.00475690932944417, -0.03534639999270439, 0.07302659004926682, 0.014983674511313438, 0.01179802231490612, 0.021850377321243286, 0.10806659609079361, 0.057374533265829086, -0.020370444282889366, -0.026078196242451668, 0.033583249896764755, 0.01755993813276291, -0.004189560189843178, -0.014263262040913105, 0.09159639477729797, -0.04211677610874176, 0.17328812181949615, -0.016273612156510353, -0.23453646898269653, 0.13079765439033508, 0.09550097584724426, -0.008310641162097454, 0.03449694439768791, 0.08827199041843414, 0.053097859025001526, 0.030629878863692284, 0.07175824046134949, 0.03334443271160126, 0.00020662863971665502, 0.016348613426089287, 0.0011739915935322642, -0.04346518591046333, -0.0881967768073082, 0.01775239408016205, -0.041680216789245605, -0.14177051186561584, -0.01125965267419815, 0.03759196028113365, 0.01572539284825325, 0.044565483927726746, 0.1016618087887764, -0.04226936399936676, 0.013533945195376873, 0.04337913915514946, -0.02710229903459549, 0.1433783769607544, 0.05803097411990166, 0.025669975206255913},
 {-0.025205418467521667, 0.05818163603544235, 0.0325976125895977, -0.007813075557351112, 0.08390533179044724, -0.01246310118585825, -0.1330992877483368, -0.008332283236086369, -0.013175801374018192, -0.0687606930732727, 0.07793951034545898, -0.010111343115568161, 0.13792848587036133, 0.07501114159822464, -0.02767493762075901, -0.16801732778549194, -0.034412119537591934, 0.06047774478793144, 0.044822290539741516, -0.02736973762512207, 7.26833677617833e-05, 0.061334773898124695, -0.04861174523830414, 0.15288551151752472, 0.010930940508842468, 0.026799920946359634, -0.04659660905599594, 0.0031921977642923594, 0.08886498957872391, 0.06056339293718338, -0.1719118058681488, 0.09104541689157486, 0.0704384297132492, 0.09185023605823517, -0.05390258878469467, 0.12485790997743607, -0.05673721060156822, 0.0470605343580246, -0.031191445887088776, 0.07577116042375565, -0.006901466753333807, 0.09811939299106598, -0.06653764843940735, 0.041184138506650925, -0.08961420506238937, 0.04267441853880882, 0.042769938707351685, -0.1903340071439743, -0.11093050986528397, -0.033229365944862366, 0.038930393755435944, -0.010770855471491814, -0.021625127643346786, -0.03451770916581154, -0.00794800091534853, 0.0480060800909996, 0.032055459916591644, 0.10746973752975464, 0.1190774142742157, 0.1308465600013733},
 {0.11272575706243515, -0.08302181214094162, 0.0028761806897819042, 0.026710281148552895, -0.030405350029468536, 0.020329587161540985, 0.032541222870349884, 0.13599330186843872, -0.04504148289561272, -0.10868832468986511, 0.022494671866297722, -0.1493237018585205, -0.0466439463198185, 0.06564638018608093, 0.025531023740768433, -0.11531136184930801, -0.15417416393756866, -0.08030498772859573, -0.020077262073755264, -0.11316560953855515, 0.140960693359375, -0.030211979523301125, 0.08507106453180313, 0.0012422543950378895, -0.002208179095759988, -0.04117831960320473, -0.05431997403502464, 0.12987738847732544, 0.06884222477674484, -0.22475126385688782, -0.06407807022333145, 0.09864439070224762, -0.0036837502848356962, 0.16226567327976227, 0.08773215860128403, 0.10971624404191971, 0.10267472267150879, 0.05669210106134415, 0.20576871931552887, 0.19541066884994507, 0.03910895437002182, -0.00388570548966527, -0.1879471242427826, -0.020126234740018845, 0.0980033352971077, 0.09311887621879578, 0.022011499851942062, 0.1258791983127594, 0.07193964719772339, 0.04228289797902107, -0.05783491209149361, 0.22314657270908356, -0.15127353370189667, -0.08224721997976303, 0.05081558972597122, 0.03693754971027374, 0.04357805848121643, -0.12743212282657623, -0.09893712401390076, 0.010574684478342533},
 {0.012927496805787086, -0.437949001789093, -0.04968167096376419, -0.18208837509155273, 0.10074882209300995, -0.039361029863357544, -0.3519752323627472, 0.15449634194374084, -0.12425252050161362, -0.07398917526006699, 0.04686011001467705, -0.14651919901371002, 0.14396582543849945, -0.26515403389930725, -0.08077764511108398, -0.10527549684047699, -0.33311888575553894, 0.011613256298005581, -0.21111750602722168, -0.10649561136960983, -0.02986876852810383, 0.1837695688009262, -0.16563665866851807, -0.0974990725517273, 0.14978738129138947, 0.2166924774646759, -0.1673637181520462, 0.18146857619285583, 0.02837998792529106, -0.19498616456985474, 0.06993209570646286, -0.151171013712883, -0.02504301629960537, 0.017284780740737915, 0.04638274386525154, -0.13610918819904327, -0.06662577390670776, -0.1131211444735527, 0.05588393658399582, 0.07990916818380356, -0.17253738641738892, 0.12677963078022003, 0.1443595141172409, 0.036891426891088486, 0.24102060496807098, 0.14520525932312012, 0.02544456161558628, 0.09538217633962631, 0.3528132140636444, -0.16494710743427277, 0.33114713430404663, 0.25419384241104126, -0.554979681968689, -0.16719165444374084, -0.017227979376912117, 0.2978587746620178, 0.013607341796159744, 0.045184385031461716, 0.10866482555866241, 0.3174245357513428},
 {0.25940972566604614, 0.06431286782026291, 0.1083117350935936, -0.16206958889961243, -0.06296854466199875, 0.14283150434494019, -0.013667558319866657, 0.05667640268802643, -0.2987493872642517, -0.0648212805390358, 0.226249560713768, 0.07926646620035172, 0.0760214701294899, -0.02177719585597515, -0.0015152681153267622, -0.15358200669288635, -0.40898239612579346, 0.205388605594635, -0.25181496143341064, -0.2235819697380066, -0.06164626032114029, 0.08604297786951065, -0.09111303836107254, 0.0651540607213974, 0.14449676871299744, 0.07844986021518707, 0.044184666126966476, 0.12492234259843826, -0.0310521200299263, 0.049864307045936584, 0.17323413491249084, -0.30158641934394836, -0.1922127902507782, 0.15464816987514496, -0.1108768880367279, -0.11124031990766525, -0.06474120914936066, 0.0705048143863678, -0.28021928668022156, -0.05433626100420952, -0.05194484815001488, 0.07619398087263107, 0.040076106786727905, -0.03042597323656082, 0.07039883732795715, -0.10715026408433914, 0.016395075246691704, 0.14626696705818176, 0.1409483551979065, -0.09541493654251099, -0.010411896742880344, 0.18723371624946594, -0.6147177815437317, -0.04243655130267143, -0.15183976292610168, 0.27224236726760864, 0.1252175122499466, 0.009318497031927109, 0.23607319593429565, 0.07613573968410492},
 {0.07486572861671448, 0.23894540965557098, 0.05270667374134064, 0.14515680074691772, -0.21816538274288177, -0.19819481670856476, -0.13414070010185242, -0.1283426284790039, -0.0013443012721836567, -0.026812687516212463, -0.24159403145313263, 0.05819971486926079, 0.06143850460648537, 0.08529173582792282, 0.14306482672691345, 0.0122801773250103, 0.16727802157402039, 0.06242388114333153, 0.1935679018497467, -0.0928959846496582, 0.02955794520676136, 0.09654810279607773, 0.18646830320358276, -0.025173289701342583, -0.030941352248191833, 0.12323230504989624, 0.07900695502758026, 0.06287282705307007, 0.1688428372144699, 0.19944503903388977, -0.5151406526565552, 0.02814732864499092, -0.09597598761320114, 0.013888506218791008, -0.1639089286327362, 0.22553175687789917, 0.01275608129799366, 0.0011833163443952799, -0.03484383597970009, -0.1503521353006363, 0.14178654551506042, -0.061217956244945526, 0.015020135790109634, 0.08842840790748596, -0.210771381855011, -0.06477576494216919, 0.11513744294643402, -0.2992577850818634, -0.25569167733192444, 0.11551270633935928, -0.11096474528312683, -0.3871139585971832, 0.1496579945087433, 0.08751533180475235, -0.0205670315772295, -0.016545914113521576, -0.004985026549547911, 0.051967374980449677, -0.020378723740577698, -0.1293475180864334},
 {0.03652949631214142, 0.27125903964042664, -0.016541754826903343, 0.1330791711807251, -0.04680841043591499, -0.05878191441297531, -0.10539303719997406, 0.08103184401988983, -0.04608217626810074, 0.02956111542880535, 0.11984580010175705, -0.019200168550014496, 0.1653989851474762, 0.036788422614336014, 0.03767114505171776, 0.03903237730264664, 0.10210274159908295, 0.00722961500287056, 0.2628459930419922, -0.049603063613176346, -0.09498506039381027, 0.11113005876541138, 0.06317098438739777, 0.10330469161272049, 0.05496655032038689, 0.18865661323070526, 0.012647869065403938, 0.09093308448791504, 0.11003126204013824, 0.012319322675466537, -0.23781812191009521, 0.08016136288642883, -0.052416812628507614, -0.10637939721345901, -0.20692653954029083, 0.1409318447113037, 0.08799304068088531, -0.05523514002561569, -0.08103924244642258, 0.16921864449977875, 0.027476390823721886, -0.013514655642211437, 0.19462011754512787, -0.03914385661482811, -0.007987446151673794, -0.07001122087240219, 0.03130801022052765, -0.14545869827270508, 0.019419927150011063, 0.03756248205900192, 0.08932565897703171, -0.146339550614357, -0.07701586931943893, 0.11813519150018692, -0.19991111755371094, -0.0036231379490345716, -0.07854330539703369, 0.06951145827770233, 0.11371982842683792, -0.05991017818450928},
 {-0.05826804041862488, 0.020763196051120758, -0.06093774735927582, -0.02562514692544937, -0.01338240597397089, 0.013763338327407837, -0.16251903772354126, -0.08331691473722458, -0.051984693855047226, -0.13128194212913513, 0.11406698077917099, 0.05433754622936249, 0.008208103477954865, 0.04764609411358833, -0.005448617041110992, 0.045010652393102646, 0.023845313116908073, 0.046867724508047104, 0.16652613878250122, 0.10293187946081161, 0.11260813474655151, 0.18483346700668335, 0.07107885926961899, -0.04251035302877426, -0.06389220058917999, 0.10819394886493683, -0.02608530968427658, -0.018978716805577278, 0.11672855168581009, 0.0036183386109769344, -0.177973672747612, 0.13733987510204315, 0.09638561308383942, -0.02616831660270691, 0.05191243067383766, 0.04954618960618973, 0.03138154000043869, 0.10841560363769531, -0.11257705092430115, 0.12624822556972504, 0.03699357435107231, 0.11965236067771912, 0.11245822161436081, 0.104502372443676, -0.1935747116804123, 0.07640058547258377, 0.020617306232452393, -0.1716586798429489, -0.07282722741365433, 0.004767751786857843, 0.10364149510860443, -0.022999268025159836, -0.0638527050614357, -0.006508616264909506, 0.10541753470897675, 0.031074775382876396, 0.003202145453542471, -0.07276835292577744, 0.08179327100515366, 0.018491089344024658},
 {0.03464534506201744, -0.00690059270709753, -0.15261420607566833, -0.04224146157503128, 0.015985172241926193, -0.13323481380939484, -0.02638448402285576, 0.03168759122490883, -0.06002582609653473, -0.0066918605007231236, 0.06673815101385117, 0.08294419199228287, 0.06406115740537643, 0.2139316201210022, -0.2012951821088791, 0.021984312683343887, 0.08392284065485, -0.037496503442525864, -0.1147480309009552, 0.1579563021659851, -0.011913226917386055, -0.12524041533470154, 0.06021598353981972, 0.001315286965109408, 0.03308810666203499, 0.21618494391441345, -0.06134805083274841, 0.2821770906448364, 0.0307602658867836, -0.13083578646183014, -0.019950415939092636, -0.10876663029193878, -0.0352415107190609, 0.09705600887537003, -0.009233266115188599, -0.24067406356334686, 0.21287181973457336, 0.0781094878911972, 0.07139274477958679, 0.05465785413980484, -0.23920372128486633, 0.1861092448234558, 0.07266470789909363, 0.21929895877838135, 0.030997514724731445, 0.10559655725955963, 0.15408088266849518, 0.013797331601381302, 0.10817031562328339, -0.09167103469371796, -0.04127778112888336, 0.18702958524227142, -0.10874301940202713, -0.22970837354660034, 0.03260950371623039, 0.12879833579063416, 0.06422834098339081, -0.033227015286684036, -0.0668555349111557, 0.25207674503326416},
 {0.12822271883487701, 0.1562119722366333, 0.16881561279296875, -0.08773068338632584, 0.03134293854236603, -0.13870897889137268, -0.2460382729768753, -0.047109685838222504, -0.11648520082235336, -0.0024814633652567863, 0.21650069952011108, -0.06903719902038574, 0.041921913623809814, -0.004521104507148266, -0.07514926046133041, -0.23208925127983093, -0.0416175052523613, 0.24159103631973267, -0.03601308539509773, -0.1333257406949997, -0.10018683224916458, 0.27071964740753174, -0.10430321097373962, 0.22138717770576477, 0.0976308211684227, 0.035876356065273285, 0.14368370175361633, 0.09165075421333313, 0.11368728429079056, 0.0347280353307724, -0.34602591395378113, -0.226084366440773, 0.08612041175365448, 0.03558357432484627, -0.34717464447021484, 0.042549844831228256, -0.004881495144218206, -0.10543006658554077, -0.2699665129184723, -0.13504119217395782, 0.06849517673254013, 0.024894557893276215, 0.13218042254447937, -0.00451681250706315, -0.09757646173238754, 0.11800909042358398, -0.05319124087691307, -0.029511068016290665, 0.07475107908248901, 0.09727872163057327, -0.13902851939201355, -0.148573100566864, -0.18494637310504913, 0.18704864382743835, -0.1612674593925476, 0.09920564293861389, -0.11474546045064926, 0.2492031455039978, 0.012673224322497845, 0.11525377631187439},
 {0.25262367725372314, -0.2428700029850006, -0.17275124788284302, -0.3347824513912201, 0.19583477079868317, 0.07367966324090958, -0.2916971743106842, 0.03251725807785988, -0.08369332551956177, 0.10620301961898804, 0.16034692525863647, -0.3174879252910614, 0.09985305368900299, 0.13606485724449158, -0.2475278377532959, -0.10506816953420639, -0.33634501695632935, -0.1255364716053009, -0.5218736529350281, 0.10367640107870102, 0.050295982509851456, 0.2001798003911972, -0.08460190892219543, -0.051119498908519745, 0.25756075978279114, -0.08432277292013168, -0.3076571226119995, 0.34189510345458984, 0.11631574481725693, -0.17113670706748962, -0.10908246785402298, -0.05697618052363396, -0.1389763504266739, -0.12781110405921936, 0.23231999576091766, -0.20549580454826355, -0.03788287565112114, -0.10326951742172241, 0.06870025396347046, -0.08077369630336761, -0.25224804878234863, -0.07108894735574722, 0.09755995124578476, 0.1213197112083435, -0.16814079880714417, 0.45710882544517517, -0.2872656583786011, -0.10576701164245605, 0.41594985127449036, -0.3126201629638672, -0.061530888080596924, 0.23378680646419525, -0.2939533293247223, -0.03913773223757744, -0.12215213477611542, 0.39779651165008545, 0.2603300213813782, -0.13843964040279388, -0.024779044091701508, 0.44553714990615845},
 {0.06355524808168411, -0.3124654293060303, -0.24899494647979736, -0.2048420011997223, 0.06132389232516289, 0.09230039268732071, -0.38341835141181946, 0.10481007397174835, 0.11170841008424759, 0.018783416599035263, 0.20733030140399933, 0.1896343231201172, 0.03376935049891472, -0.030163362622261047, -0.008292741142213345, 0.06969749182462692, -0.1079440712928772, 0.06176916882395744, -0.3352890908718109, -0.01157885231077671, 0.09843440353870392, -0.0049506681971251965, 0.07889074832201004, -0.10838489234447479, -0.04005715623497963, -0.17272372543811798, -0.23858386278152466, 0.248300239443779, 0.10448230057954788, -0.18295817077159882, 0.004594325087964535, -0.1313701719045639, -0.10634860396385193, -0.02936851792037487, 0.09681703895330429, -0.19526858627796173, -0.08312569558620453, -0.10131681710481644, -0.07646486163139343, 0.05356607586145401, -0.016380872577428818, 0.20612017810344696, 0.2811526358127594, 0.0784681960940361, -0.2017783671617508, 0.3050832450389862, -0.06561450660228729, 0.03754693642258644, 0.11698832362890244, -0.1949526071548462, 0.01314517855644226, 0.17695070803165436, -0.2749779224395752, -0.1947435438632965, -0.0709470584988594, 0.38293224573135376, 0.16537578403949738, -0.05469402298331261, 0.06599418073892593, 0.4111355245113373},
 {-0.013539806008338928, 0.06236104667186737, 0.19296635687351227, -0.10142634809017181, -0.04113486409187317, -0.06156103312969208, -0.08192180097103119, 0.040402770042419434, 0.005323054268956184, -0.030088186264038086, 0.14944320917129517, 0.010892999358475208, 0.08853887766599655, -0.16592006385326385, -0.11531989276409149, -0.03844562545418739, -0.03492158278822899, 0.006656575947999954, -0.0983087569475174, 0.09479855746030807, -0.22103258967399597, 0.11092353612184525, -0.13212870061397552, 0.13423094153404236, 0.31497982144355774, -0.0792122483253479, -0.19262854754924774, 0.27673861384391785, 0.048182763159275055, 0.05501477047801018, -0.05124665051698685, -0.11994756758213043, 0.0703597143292427, -0.14239971339702606, -0.3447721302509308, -0.21601662039756775, -0.1053389385342598, -0.25194051861763, -0.08067434281110764, -0.17343781888484955, -0.26332637667655945, 0.06806792318820953, -0.048176903277635574, 0.20657014846801758, 0.07908279448747635, -0.12027715891599655, -0.1508364975452423, 0.1372983306646347, 0.2552013397216797, -0.11186609417200089, 0.09087646752595901, -0.07025880366563797, -0.3624514937400818, -0.0941949114203453, -0.10907091945409775, 0.1426982581615448, 0.14092592895030975, 0.07482153922319412, -0.009126140736043453, 0.3698931038379669},
 {0.17707766592502594, 0.03114837221801281, 0.02478792890906334, -0.05699519068002701, -0.06442483514547348, -0.23592248558998108, -0.3197380304336548, 0.07540057599544525, -0.13052918016910553, 0.016491128131747246, 0.19443298876285553, 0.049719490110874176, 0.20201654732227325, -0.19575396180152893, 0.11029820889234543, 0.2130373865365982, -0.04718547686934471, -0.22651955485343933, -0.03361629694700241, -0.1326572597026825, 0.08105439692735672, 0.18116600811481476, 0.04450245574116707, 0.24976186454296112, 0.2467387169599533, -0.0047667245380580425, -0.17496690154075623, 0.09920566529035568, 0.08812327682971954, 0.14404818415641785, -0.00030839897226542234, -0.12208344787359238, -0.08897748589515686, -0.20486553013324738, -0.2769947648048401, 0.05307725816965103, -0.025842297822237015, 0.1252795308828354, -0.35212162137031555, -0.18094322085380554, -0.008069338276982307, -0.03531349450349808, 0.11859045177698135, -0.252360999584198, -0.06085862219333649, -0.01721181906759739, -0.2442958801984787, 0.1119474470615387, 0.20156727731227875, 0.05060781538486481, 0.12411779910326004, -0.2198014259338379, -0.2620595097541809, 0.33710867166519165, -0.392721027135849, 0.14508791267871857, -0.013174917548894882, 0.13710090517997742, 0.03657389432191849, -0.24319157004356384},
 {-0.07703549414873123, 0.13603654503822327, -0.0811890959739685, 0.031109973788261414, -0.0014208691427484155, -0.08643949031829834, -0.34105727076530457, -0.05889851972460747, -0.0767822116613388, -0.1171153113245964, 0.07989775389432907, 0.1467805951833725, 0.030361488461494446, 0.09447410702705383, -0.020870331674814224, 0.08393703401088715, 0.014511979185044765, -0.06620403379201889, 0.19109125435352325, -0.13181406259536743, 0.01517272274941206, 0.09609761089086533, 0.018032671883702278, 0.10820865631103516, -0.05919206887483597, 0.13929687440395355, 0.10280783474445343, 0.031134355813264847, 0.15284660458564758, -0.08510982245206833, -0.21775075793266296, 0.05078047141432762, -0.0017597430851310492, -0.03734251856803894, -0.1119949072599411, 0.1231449767947197, 0.006650183349847794, 0.06382106244564056, 0.033772364258766174, 0.21877890825271606, 0.09166080504655838, -0.015165399760007858, -0.01031535491347313, 0.052196599543094635, -0.21410255134105682, 0.02782686986029148, 0.046895820647478104, -0.06329300254583359, -0.13885141909122467, 0.11267462372779846, 0.02172047272324562, -0.05553891137242317, -0.22287960350513458, -0.021185358986258507, -0.043891746550798416, -0.002882156288251281, 0.0878572091460228, 0.03071216307580471, -0.020577305927872658, -0.14786246418952942},
 {0.28600791096687317, -0.172024205327034, -0.04937851056456566, -0.16976721584796906, 0.06899002194404602, 0.052112117409706116, -0.1878790557384491, 0.1987272948026657, -0.275773823261261, -0.03149332478642464, 0.13567288219928741, 0.03252095356583595, 0.40819746255874634, -0.069264255464077, -0.16518716514110565, -0.06481451541185379, -0.2544526755809784, -0.018238479271531105, -0.4754500091075897, -0.11368606239557266, -0.20153233408927917, 0.2137136459350586, -0.3373625576496124, 0.029707355424761772, 0.3218082785606384, -0.17345447838306427, -0.3694489598274231, 0.26970353722572327, 0.11581651121377945, 0.19803760945796967, 0.2843366861343384, -0.49741238355636597, -0.32597148418426514, -0.05401701480150223, -0.07329816371202469, -0.23635055124759674, -0.05818817764520645, -0.13143779337406158, -0.13191382586956024, -0.2936038076877594, -0.19189245998859406, 0.06913626939058304, 0.14323624968528748, -0.013553647324442863, 0.1529914289712906, 0.14682799577713013, -0.2520532011985779, 0.38649216294288635, 0.2926749587059021, -0.14186961948871613, 0.07517015188932419, -0.0033867224119603634, -0.6153653860092163, 0.11092855781316757, -0.3684860169887543, 0.18820367753505707, 0.28249606490135193, 0.2536899447441101, 0.1188826858997345, 0.338043212890625},
 {-0.01569582335650921, 0.19966068863868713, -0.03360072150826454, 0.06825357675552368, 0.013243183493614197, -0.029166897758841515, -0.18906639516353607, -0.13098731637001038, 0.045510433614254, -0.11503218114376068, 0.026918916031718254, 0.058226604014635086, 0.0749434158205986, 0.07183551043272018, 0.005976472049951553, 0.025399144738912582, 0.06424452364444733, 0.02294023148715496, 0.1879805326461792, 0.030645867809653282, -0.025045959278941154, -0.015968555584549904, 0.0534653514623642, 0.07086952030658722, -0.08754006773233414, -0.026088152080774307, 0.07468978315591812, 0.09963979572057724, 0.10856979340314865, -0.01866462267935276, -0.24178728461265564, -0.007187992334365845, -0.004474323242902756, -0.05468912795186043, -0.022695178166031837, 0.024006841704249382, -0.05073932930827141, 0.054511912167072296, -0.010033315978944302, 0.08026756346225739, 0.05977928265929222, -0.02541588991880417, -0.03421418368816376, 0.0629613995552063, -0.13502661883831024, -0.0004595662176143378, -0.058099422603845596, -0.1911395937204361, -0.0853583961725235, -0.01762501709163189, 0.02262205071747303, 0.03336213901638985, -0.012059026397764683, 0.053059469908475876, 0.06946603953838348, 0.030126770958304405, 0.027761800214648247, 0.14110131561756134, 0.06407684832811356, 0.15481793880462646},
 {-4.2244981159456074e-05, 0.10677669197320938, -0.16760589182376862, -0.08443046361207962, 0.09356219321489334, -0.02645515277981758, -0.2914842665195465, -0.04305224493145943, 0.05328940227627754, 0.04933451861143112, 0.25162726640701294, 0.06472955644130707, 0.014478315599262714, -0.07083211839199066, -0.027997780591249466, 0.06918457895517349, 0.010907302610576153, 0.2203885316848755, 0.014077461324632168, 0.022721456363797188, -0.008263860829174519, 0.213533416390419, -0.146356463432312, 0.024139659479260445, 0.1636197566986084, -0.04966439679265022, -0.1852424442768097, 0.1202017143368721, -0.1743711680173874, 0.06195208802819252, -0.0845847800374031, -0.1305699199438095, 0.03649875149130821, -0.1214437335729599, -0.20362867414951324, -0.13147908449172974, -0.003554710652679205, -0.11528211832046509, -0.06744805723428726, -0.19804824888706207, -0.11550407856702805, -0.009073296561837196, 0.21831092238426208, 0.11893720179796219, 0.020617643371224403, 0.08617932349443436, -0.07306364923715591, 0.007880762219429016, 0.08660575747489929, -0.20288771390914917, -0.10082893818616867, 0.08515491336584091, -0.2671552002429962, 0.14279428124427795, -0.07015566527843475, 0.18551333248615265, -0.024471748620271683, 0.2405814677476883, 0.08112824708223343, 0.3332464396953583},
